{"learner":{"attributes":{"scikit_learn":"{\"_estimator_type\": \"classifier\"}"},"feature_names":["rsi_7","rsi_14","rsi_21","ema_8","ema_12","ema_21","ema_26","ema_50","ema_12_26_cross","ema_8_21_cross","macd","macd_signal","macd_hist","bb_upper","bb_lower","bb_position","bb_width","volume_sma_20","volume_ratio","volume_trend","atr_14","atr_pct","return_1d","return_3d","return_5d","return_10d","return_20d","momentum_10","momentum_20","volatility_10","volatility_20","dist_to_high_20","dist_to_low_20","day_of_week","is_weekend","fear_greed","fed_funds_rate","treasury_10y","treasury_2y","yield_curve"],"feature_types":["float","float","float","float","float","float","float","float","float","float","float","float","float","float","float","float","float","float","float","float","float","float","float","float","float","float","float","float","float","float","float","float","float","int","int","int","float","float","float","float"],"gradient_booster":{"model":{"cats":{"enc":[],"feature_segments":[],"sorted_idx":[]},"gbtree_model_param":{"num_parallel_tree":"1","num_trees":"600"},"iteration_indptr":[0,3,6,9,12,15,18,21,24,27,30,33,36,39,42,45,48,51,54,57,60,63,66,69,72,75,78,81,84,87,90,93,96,99,102,105,108,111,114,117,120,123,126,129,132,135,138,141,144,147,150,153,156,159,162,165,168,171,174,177,180,183,186,189,192,195,198,201,204,207,210,213,216,219,222,225,228,231,234,237,240,243,246,249,252,255,258,261,264,267,270,273,276,279,282,285,288,291,294,297,300,303,306,309,312,315,318,321,324,327,330,333,336,339,342,345,348,351,354,357,360,363,366,369,372,375,378,381,384,387,390,393,396,399,402,405,408,411,414,417,420,423,426,429,432,435,438,441,444,447,450,453,456,459,462,465,468,471,474,477,480,483,486,489,492,495,498,501,504,507,510,513,516,519,522,525,528,531,534,537,540,543,546,549,552,555,558,561,564,567,570,573,576,579,582,585,588,591,594,597,600],"tree_info":[0,1,2,0,1,2,0,1,2,0,1,2,0,1,2,0,1,2,0,1,2,0,1,2,0,1,2,0,1,2,0,1,2,0,1,2,0,1,2,0,1,2,0,1,2,0,1,2,0,1,2,0,1,2,0,1,2,0,1,2,0,1,2,0,1,2,0,1,2,0,1,2,0,1,2,0,1,2,0,1,2,0,1,2,0,1,2,0,1,2,0,1,2,0,1,2,0,1,2,0,1,2,0,1,2,0,1,2,0,1,2,0,1,2,0,1,2,0,1,2,0,1,2,0,1,2,0,1,2,0,1,2,0,1,2,0,1,2,0,1,2,0,1,2,0,1,2,0,1,2,0,1,2,0,1,2,0,1,2,0,1,2,0,1,2,0,1,2,0,1,2,0,1,2,0,1,2,0,1,2,0,1,2,0,1,2,0,1,2,0,1,2,0,1,2,0,1,2,0,1,2,0,1,2,0,1,2,0,1,2,0,1,2,0,1,2,0,1,2,0,1,2,0,1,2,0,1,2,0,1,2,0,1,2,0,1,2,0,1,2,0,1,2,0,1,2,0,1,2,0,1,2,0,1,2,0,1,2,0,1,2,0,1,2,0,1,2,0,1,2,0,1,2,0,1,2,0,1,2,0,1,2,0,1,2,0,1,2,0,1,2,0,1,2,0,1,2,0,1,2,0,1,2,0,1,2,0,1,2,0,1,2,0,1,2,0,1,2,0,1,2,0,1,2,0,1,2,0,1,2,0,1,2,0,1,2,0,1,2,0,1,2,0,1,2,0,1,2,0,1,2,0,1,2,0,1,2,0,1,2,0,1,2,0,1,2,0,1,2,0,1,2,0,1,2,0,1,2,0,1,2,0,1,2,0,1,2,0,1,2,0,1,2,0,1,2,0,1,2,0,1,2,0,1,2,0,1,2,0,1,2,0,1,2,0,1,2,0,1,2,0,1,2,0,1,2,0,1,2,0,1,2,0,1,2,0,1,2,0,1,2,0,1,2,0,1,2,0,1,2,0,1,2,0,1,2,0,1,2,0,1,2,0,1,2,0,1,2,0,1,2,0,1,2,0,1,2,0,1,2,0,1,2,0,1,2,0,1,2,0,1,2,0,1,2,0,1,2,0,1,2,0,1,2,0,1,2,0,1,2,0,1,2,0,1,2,0,1,2,0,1,2,0,1,2,0,1,2,0,1,2,0,1,2,0,1,2,0,1,2,0,1,2,0,1,2,0,1,2,0,1,2,0,1,2,0,1,2,0,1,2,0,1,2,0,1,2,0,1,2,0,1,2,0,1,2,0,1,2,0,1,2,0,1,2,0,1,2,0,1,2,0,1,2,0,1,2,0,1,2],"trees":[{"base_weights":[6.4600736E-2,-4.978193E-2,5.2652445E-2,-3.2799944E-1,1.665673E-1,2.003455E-2,-5.3377193E-1,3.5764343E-1,-2.993447E-2,-6.2906206E-1,-2.2733716E-4,1.9081807E-1,5.622646E-2,-3.6048662E-2,-1.6952118E-2,4.007402E-1,-1.6755708E-2,-8.0282363E-4,4.4016503E-2],"categories":[],"categories_nodes":[],"categories_segments":[],"categories_sizes":[],"default_left":[0,0,0,0,0,0,0,0,0,0,0,0,0,0,0,0,0,0,0],"id":0,"left_children":[1,3,-1,5,7,-1,9,11,-1,13,-1,15,-1,-1,-1,17,-1,-1,-1],"loss_changes":[1.2412058E1,5.9725356E0,0E0,6.7393594E0,8.322616E0,0E0,1.6687098E0,5.4412136E0,0E0,4.222145E-1,0E0,4.38761E0,0E0,0E0,0E0,5.7141824E0,0E0,0E0,0E0],"parents":[2147483647,0,0,1,1,3,3,4,4,6,6,7,7,9,9,11,11,15,15],"right_children":[2,4,-1,6,8,-1,10,12,-1,14,-1,16,-1,-1,-1,18,-1,-1,-1],"split_conditions":[1.16149234E5,2.6585867E0,5.2652445E-2,1.8762975E0,3.1665215E0,2.003455E-2,1.8476216E0,2.7134464E0,-2.993447E-2,1.1129206E0,-2.2733716E-4,2.37452E0,5.622646E-2,-3.6048662E-2,-1.6952118E-2,1.000779E0,-1.6755708E-2,-8.0282363E-4,4.4016503E-2],"split_indices":[5,21,0,21,30,0,30,25,0,18,0,30,0,0,0,19,0,0,0],"split_type":[0,0,0,0,0,0,0,0,0,0,0,0,0,0,0,0,0,0,0],"sum_hessian":[1.074306E2,9.704865E1,1.0381948E1,4.2430573E1,5.4618076E1,9.0277815E0,3.340279E1,4.423613E1,1.0381948E1,2.7986122E1,5.416669E0,3.7465294E1,6.770836E0,1.9861118E1,8.125004E0,2.7083344E1,1.0381948E1,1.489584E1,1.2187505E1],"tree_param":{"num_deleted":"0","num_feature":"40","num_nodes":"19","size_leaf_vector":"1"}},{"base_weights":[-8.586004E-2,-2.1726434E-1,7.893988E-1,-2.8440332E-1,2.2016821E-2,1.7840713E-2,5.0708093E-2,-1.5274061E-1,-5.6800085E-1,-4.7967443E-1,1.6631584E-1,-3.3687886E-2,-1.52374925E-2,-5.8735216E-1,-7.020081E-3,5.7527125E-1,-2.590673E-1,-3.3549495E-2,-1.3162087E-2,8.961617E-3,5.2451532E-2,-2.6649935E-2,9.682082E-3],"categories":[],"categories_nodes":[],"categories_segments":[],"categories_sizes":[],"default_left":[0,0,0,0,0,0,0,0,0,0,0,0,0,0,0,0,0,0,0,0,0,0,0],"id":1,"left_children":[1,3,5,7,-1,-1,-1,9,11,13,15,-1,-1,17,-1,19,21,-1,-1,-1,-1,-1,-1],"loss_changes":[1.1436278E1,3.9275513E0,7.617502E-1,2.7987828E0,0E0,0E0,0E0,5.9215927E0,3.7907076E-1,8.6490154E-1,5.187173E0,0E0,0E0,2.8996944E-1,0E0,2.5229464E0,1.9571269E0,0E0,0E0,0E0,0E0,0E0,0E0],"parents":[2147483647,0,0,1,1,2,2,3,3,7,7,8,8,9,9,10,10,13,13,15,15,16,16],"right_children":[2,4,6,8,-1,-1,-1,10,12,14,16,-1,-1,18,-1,20,22,-1,-1,-1,-1,-1,-1],"split_conditions":[7.588431E1,7.014878E0,2.250177E3,1.2741861E0,2.2016821E-2,1.7840713E-2,5.0708093E-2,-3.7296627E0,1.7991283E0,2.4401095E0,4.7020866E1,-3.3687886E-2,-1.52374925E-2,1.1334395E5,-7.020081E-3,3.4837547E-1,4.635536E-1,-3.3549495E-2,-1.3162087E-2,8.961617E-3,5.2451532E-2,-2.6649935E-2,9.682082E-3],"split_indices":[1,24,11,25,0,0,0,25,24,30,0,0,0,7,0,15,22,0,0,0,0,0,0],"split_type":[0,0,0,0,0,0,0,0,0,0,0,0,0,0,0,0,0,0,0,0,0,0,0],"sum_hessian":[9.744109E1,8.547464E1,1.196645E1,7.82093E1,7.2653446E0,5.1284785E0,6.837971E0,5.470377E1,2.3505526E1,2.6924511E1,2.7779259E1,1.5385435E1,8.1200905E0,1.9659166E1,7.2653446E0,1.4103315E1,1.3675942E1,1.4530689E1,5.1284785E0,8.547464E0,5.5558515E0,8.547464E0,5.1284785E0],"tree_param":{"num_deleted":"0","num_feature":"40","num_nodes":"23","size_leaf_vector":"1"}},{"base_weights":[4.1901253E-2,2.1085173E-1,-4.6147773E-1,7.203083E-1,8.978853E-2,2.1311369E-2,-3.6140632E-2,-8.218184E-3,6.372651E-2,3.2779825E-1,-2.6847893E-1,7.420754E-1,6.1495833E-2,1.3540434E-2,-4.2973897E-1,1.4289938E-2,5.5840444E-2,2.9082302E-2,-1.0757811E-1,-3.095322E-2,-4.5402586E-3,1.7302599E-2,-2.1970442E-2],"categories":[],"categories_nodes":[],"categories_segments":[],"categories_sizes":[],"default_left":[0,0,0,0,0,0,0,0,0,0,0,0,0,0,0,0,0,0,0,0,0,0,0],"id":2,"left_children":[1,3,5,7,9,-1,-1,-1,-1,11,13,15,17,-1,19,-1,-1,-1,21,-1,-1,-1,-1],"loss_changes":[8.784281E0,4.636219E0,6.3478403E0,7.471879E0,5.546732E0,0E0,0E0,0E0,0E0,4.180977E0,2.3852773E0,2.1118612E0,2.3086805E0,0E0,1.1865051E0,0E0,0E0,0E0,3.1067772E0,0E0,0E0,0E0,0E0],"parents":[2147483647,0,0,1,1,2,2,3,3,4,4,9,9,10,10,11,11,12,12,14,14,18,18],"right_children":[2,4,6,8,10,-1,-1,-1,-1,12,14,16,18,-1,20,-1,-1,-1,22,-1,-1,-1,-1],"split_conditions":[1.1391618E5,2.2727842E0,4.5631485E1,9.5261717E-1,4.635536E-1,2.1311369E-2,-3.6140632E-2,-8.218184E-3,6.372651E-2,8.978795E-1,-5.9153724E0,3.9950912E0,1.8534856E0,1.3540434E-2,5.280511E-1,1.4289938E-2,5.5840444E-2,2.9082302E-2,4.1654476E1,-3.095322E-2,-4.5402586E-3,1.7302599E-2,-2.1970442E-2],"split_indices":[4,21,1,29,22,0,0,0,0,19,25,21,29,0,26,0,0,0,0,0,0,0,0],"split_type":[0,0,0,0,0,0,0,0,0,0,0,0,0,0,0,0,0,0,0,0,0,0,0],"sum_hessian":[1.01439E2,7.6532104E1,2.4906898E1,1.3585581E1,6.2946526E1,5.434232E0,1.9472666E1,5.434232E0,8.151348E0,3.8039627E1,2.4906898E1,1.4038434E1,2.4001192E1,5.434232E0,1.9472666E1,7.245643E0,6.7927904E0,5.434232E0,1.8566961E1,1.177417E1,7.698496E0,7.698496E0,1.0868464E1],"tree_param":{"num_deleted":"0","num_feature":"40","num_nodes":"23","size_leaf_vector":"1"}},{"base_weights":[2.7725264E-2,-1.02189705E-1,9.235899E-1,3.3901747E-2,-1.6686517E-1,1.6139766E-2,6.0989317E-2,-5.502058E-1,5.9420984E-2,-3.406394E-2,-7.0530013E-3,3.967127E-1,-3.2030687E-1,6.260231E-1,-7.874729E-3,1.4501839E-2,-6.0430723E-1,3.9024104E-3,5.5353135E-2,-1.5382561E-2,-3.459959E-2],"categories":[],"categories_nodes":[],"categories_segments":[],"categories_sizes":[],"default_left":[0,0,0,0,0,0,0,0,0,0,0,0,0,0,0,0,0,0,0,0,0],"id":3,"left_children":[1,3,5,-1,7,-1,-1,9,11,-1,-1,13,15,17,-1,-1,19,-1,-1,-1,-1],"loss_changes":[1.2763897E1,4.868837E0,1.9245758E0,0E0,7.7921896E0,0E0,0E0,1.6050663E0,7.387993E0,0E0,0E0,4.031426E0,4.8961143E0,5.5829506E0,0E0,0E0,1.7874193E-1,0E0,0E0,0E0,0E0],"parents":[2147483647,0,0,1,1,2,2,4,4,7,7,8,8,11,11,12,12,13,13,16,16],"right_children":[2,4,6,-1,8,-1,-1,10,12,-1,-1,14,16,18,-1,-1,20,-1,-1,-1,-1],"split_conditions":[1.16149234E5,9.2765087E-1,-2.4393168E-1,3.3901747E-2,2.6585867E0,1.6139766E-2,6.0989317E-2,2.733586E3,4.0436416E0,-3.406394E-2,-7.0530013E-3,5.382424E1,3.2906933E1,-2.6684308E2,-7.874729E-3,1.4501839E-2,3.870744E1,3.9024104E-3,5.5353135E-2,-1.5382561E-2,-3.459959E-2],"split_indices":[5,29,26,0,21,0,0,20,21,0,0,2,2,12,0,0,2,0,0,0,0],"split_type":[0,0,0,0,0,0,0,0,0,0,0,0,0,0,0,0,0,0,0,0,0],"sum_hessian":[1.07151764E2,9.425724E1,1.2894527E1,6.3708973E0,8.7886345E1,5.0594754E0,7.835052E0,3.225505E1,5.563129E1,2.374017E1,8.514879E0,2.9577667E1,2.6053623E1,2.0957207E1,8.6204605E0,8.154806E0,1.7898817E1,1.0437495E1,1.0519712E1,5.372283E0,1.2526535E1],"tree_param":{"num_deleted":"0","num_feature":"40","num_nodes":"21","size_leaf_vector":"1"}},{"base_weights":[-1.1214098E-1,-2.4214713E-1,7.8414184E-1,-3.263646E-1,1.0228815E-1,2.0659108E-2,5.2686024E-2,1.0114442E-2,-3.6877736E-1,2.7707553E-2,-2.2028714E-1,-6.168339E-1,-1.9852822E-1,-2.1965642E-2,1.6088266E-3,-3.407477E-2,-1.2732245E-2,2.8635687E-1,-4.048119E-1,-5.5673374E-3,3.6590107E-2,-2.6663138E-2,9.336101E-3],"categories":[],"categories_nodes":[],"categories_segments":[],"categories_sizes":[],"default_left":[0,0,0,0,0,0,0,0,0,0,0,0,0,0,0,0,0,0,0,0,0,0,0],"id":4,"left_children":[1,3,5,7,9,-1,-1,-1,11,-1,13,15,17,-1,-1,-1,-1,19,21,-1,-1,-1,-1],"loss_changes":[1.2510918E1,2.7712607E0,7.771816E-1,1.7884026E0,2.913264E0,0E0,0E0,0E0,2.7775545E0,0E0,6.977117E-1,3.8907623E-1,4.486791E0,0E0,0E0,0E0,0E0,2.525857E0,2.499742E0,0E0,0E0,0E0,0E0],"parents":[2147483647,0,0,1,1,2,2,3,3,4,4,8,8,10,10,11,11,12,12,17,17,18,18],"right_children":[2,4,6,8,10,-1,-1,-1,12,-1,14,16,18,-1,-1,-1,-1,20,22,-1,-1,-1,-1],"split_conditions":[7.588431E1,1.21755375E5,1.3351092E1,1.2494774E1,1.748785E0,2.0659108E-2,5.2686024E-2,1.0114442E-2,4.3342484E1,2.7707553E-2,2.3906896E0,3.8498107E-1,4.4031978E-1,-2.1965642E-2,1.6088266E-3,-3.407477E-2,-1.2732245E-2,9.307847E-2,4.394813E0,-5.5673374E-3,3.6590107E-2,-2.6663138E-2,9.336101E-3],"split_indices":[1,13,32,0,30,0,0,0,1,0,30,15,15,0,0,0,0,16,23,0,0,0,0],"split_type":[0,0,0,0,0,0,0,0,0,0,0,0,0,0,0,0,0,0,0,0,0,0,0],"sum_hessian":[1.0520492E2,9.26128E1,1.2592116E1,7.46926E1,1.7920204E1,6.5215874E0,6.0705295E0,5.0923057E0,6.960029E1,7.29437E0,1.06258335E1,2.7020443E1,4.2579845E1,5.5055065E0,5.1203265E0,2.1944925E1,5.0755186E0,1.2447689E1,3.0132158E1,6.853905E0,5.593784E0,2.4976173E1,5.155985E0],"tree_param":{"num_deleted":"0","num_feature":"40","num_nodes":"23","size_leaf_vector":"1"}},{"base_weights":[3.7532914E-2,1.598774E-1,-3.4953233E-2,5.794474E-1,-6.2005576E-3,6.0871E-2,2.8682524E-1,4.998272E-1,-1.3784781E-1,4.9999483E-2,-2.0150333E-3,4.335023E-2,1.3569024E-4,2.1499832E-1,-4.914538E-1,2.5224581E-2,-1.5073331E-2,-2.8666398E-2,6.000814E-1,-3.3501577E-2,-2.5487558E-3,5.485415E-2,-2.5188907E-3],"categories":[],"categories_nodes":[],"categories_segments":[],"categories_sizes":[],"default_left":[0,0,0,0,0,0,0,0,0,0,0,0,0,0,0,0,0,0,0,0,0,0,0],"id":5,"left_children":[1,3,-1,5,7,-1,9,11,13,-1,15,-1,-1,17,19,-1,-1,-1,21,-1,-1,-1,-1],"loss_changes":[1.0228112E1,6.8694773E0,0E0,4.707013E0,4.7505326E0,0E0,4.3319745E0,2.59021E0,7.2625756E0,0E0,2.4848926E0,0E0,0E0,9.197282E0,2.1737065E0,0E0,0E0,0E0,6.6775007E0,0E0,0E0,0E0,0E0],"parents":[2147483647,0,0,1,1,3,3,4,4,6,6,7,7,8,8,10,10,13,13,14,14,18,18],"right_children":[2,4,-1,6,8,-1,10,12,14,-1,16,-1,-1,18,20,-1,-1,-1,22,-1,-1,-1,-1],"split_conditions":[1.161076E5,-4.3953958E2,-3.4953233E-2,2.7729453E3,8.496807E4,6.0871E-2,8.0130035E-1,7.783913E4,2.7013606E3,4.9999483E-2,9.529931E-2,4.335023E-2,1.3569024E-4,1.0201695E0,1.685561E-1,2.5224581E-2,-1.5073331E-2,-2.8666398E-2,3.416E2,-3.3501577E-2,-2.5487558E-3,5.485415E-2,-2.5188907E-3],"split_indices":[3,12,0,20,4,0,18,14,20,0,15,0,0,29,16,0,0,0,12,0,0,0,0],"split_type":[0,0,0,0,0,0,0,0,0,0,0,0,0,0,0,0,0,0,0,0,0,0,0],"sum_hessian":[1.1185419E2,9.670995E1,1.51442375E1,2.6889912E1,6.982004E1,7.354206E0,1.9535706E1,1.3680066E1,5.6139973E1,5.0214825E0,1.4514222E1,7.32468E0,6.3553863E0,2.8154829E1,2.7985146E1,5.0142384E0,9.499984E0,8.994051E0,1.9160778E1,1.937999E1,8.605156E0,1.0559559E1,8.601218E0],"tree_param":{"num_deleted":"0","num_feature":"40","num_nodes":"23","size_leaf_vector":"1"}},{"base_weights":[-1.9881383E-2,-1.3632995E-1,8.397577E-1,-3.9412203E-1,3.9269477E-2,1.5708666E-2,5.687791E-2,1.636789E-2,-5.644004E-1,-4.2716488E-1,2.5126854E-1,-3.1666216E-2,-1.2781918E-2,8.455317E-3,-3.3981603E-2,4.9799007E-1,-3.0312443E-1,-2.4178473E-3,8.079478E-1,-3.1702507E-2,2.7471976E-3,5.372222E-2,1.3256127E-2],"categories":[],"categories_nodes":[],"categories_segments":[],"categories_sizes":[],"default_left":[0,0,0,0,0,0,0,0,0,0,0,0,0,0,0,0,0,0,0,0,0,0,0],"id":6,"left_children":[1,3,5,7,9,-1,-1,-1,11,13,15,-1,-1,-1,-1,17,19,-1,21,-1,-1,-1,-1],"loss_changes":[1.0634065E1,4.3121176E0,1.4786663E0,4.9334984E0,5.6935186E0,0E0,0E0,0E0,4.216051E-1,2.8653724E0,5.60595E0,0E0,0E0,0E0,0E0,4.8572817E0,1.6018037E0,0E0,2.1909199E0,0E0,0E0,0E0,0E0],"parents":[2147483647,0,0,1,1,2,2,3,3,4,4,8,8,9,9,10,10,15,15,16,16,18,18],"right_children":[2,4,6,8,10,-1,-1,-1,12,14,16,-1,-1,-1,-1,18,20,-1,22,-1,-1,-1,-1],"split_conditions":[1.15926664E5,2.7483867E3,5.618254E0,9.801504E-1,8.077584E4,1.5708666E-2,5.687791E-2,1.636789E-2,2.658746E3,3.4950586E10,1.1218578E5,-3.1666216E-2,-1.2781918E-2,8.455317E-3,-3.3981603E-2,-4.2412106E2,1.1210682E5,-2.4178473E-3,4.9856354E1,-3.1702507E-2,2.7471976E-3,5.372222E-2,1.3256127E-2],"split_indices":[6,20,32,30,14,0,0,0,20,17,5,0,0,0,0,12,3,0,2,0,0,0,0],"split_type":[0,0,0,0,0,0,0,0,0,0,0,0,0,0,0,0,0,0,0,0,0,0,0],"sum_hessian":[1.047895E2,9.313145E1,1.165805E1,3.7461063E1,5.5670387E1,5.081156E0,6.5768933E0,6.8647847E0,3.0596277E1,1.6931513E1,3.8738876E1,2.3888647E1,6.70763E0,5.016871E0,1.1914641E1,2.7003584E1,1.1735291E1,9.963242E0,1.7040342E1,5.843381E0,5.8919096E0,1.0648804E1,6.3915396E0],"tree_param":{"num_deleted":"0","num_feature":"40","num_nodes":"23","size_leaf_vector":"1"}},{"base_weights":[-1.3074893E-1,-2.5607008E-1,5.384106E-1,-3.115533E-1,2.4573551E-2,4.2471614E-2,-4.8783016E-3,-3.494516E-1,9.594313E-3,-5.1772135E-1,-1.5533388E-1,-3.2146886E-2,-2.462673E-1,-5.026896E-1,3.2284502E-2,2.759225E-3,-2.1108173E-2,-1.25407E-2,-3.0787537E-2,2.0521471E-2,-2.3066463E-2],"categories":[],"categories_nodes":[],"categories_segments":[],"categories_sizes":[],"default_left":[0,0,0,0,0,0,0,0,0,0,0,0,0,0,0,0,0,0,0,0,0],"id":7,"left_children":[1,3,5,7,-1,-1,-1,9,-1,11,13,-1,15,17,19,-1,-1,-1,-1,-1,-1],"loss_changes":[8.616901E0,3.7123356E0,3.362175E0,1.6287317E0,0E0,0E0,0E0,2.3312178E0,0E0,1.1105947E0,2.470919E0,0E0,8.279571E-1,1.3491154E-1,4.802204E0,0E0,0E0,0E0,0E0,0E0,0E0],"parents":[2147483647,0,0,1,1,2,2,3,3,7,7,9,9,10,10,12,12,13,13,14,14],"right_children":[2,4,6,8,-1,-1,-1,10,-1,12,14,-1,16,18,20,-1,-1,-1,-1,-1,-1],"split_conditions":[2.1491652E0,7.3996706E0,3.6368901E3,1.1497357E5,2.4573551E-2,4.2471614E-2,-4.8783016E-3,0E0,9.594313E-3,-1.0316573E0,7.314387E-1,-3.2146886E-2,4.813698E1,3.9587364E1,9.7881746E-1,2.759225E-3,-2.1108173E-2,-1.25407E-2,-3.0787537E-2,2.0521471E-2,-2.3066463E-2],"split_indices":[8,24,11,7,0,0,0,22,0,26,18,0,2,2,19,0,0,0,0,0,0],"split_type":[0,0,0,0,0,0,0,0,0,0,0,0,0,0,0,0,0,0,0,0,0],"sum_hessian":[1.0044623E2,8.524769E1,1.5198543E1,8.002515E1,5.2225413E0,1.0087094E1,5.111448E0,7.4891884E1,5.1332655E0,3.8947926E1,3.5943954E1,2.5464685E1,1.3483239E1,1.2203722E1,2.3740234E1,5.011777E0,8.471462E0,5.0519485E0,7.151773E0,1.3652506E1,1.00877285E1],"tree_param":{"num_deleted":"0","num_feature":"40","num_nodes":"21","size_leaf_vector":"1"}},{"base_weights":[8.320559E-2,2.5144947E-1,-4.475228E-1,1.4752965E-1,5.91848E-2,-3.2845806E-2,1.3756268E-2,3.5043612E-1,-1.8144928E-1,6.446854E-1,-1.00243814E-1,1.4524704E-1,-4.1955012E-1,3.1688814E-3,8.70484E-1,1.3712823E-2,-2.3979448E-2,-1.7046595E-2,3.0872017E-2,-3.3961263E-2,4.6638594E-4,1.9305656E-2,5.2970182E-2],"categories":[],"categories_nodes":[],"categories_segments":[],"categories_sizes":[],"default_left":[0,0,0,0,0,0,0,0,0,0,0,0,0,0,0,0,0,0,0,0,0,0,0],"id":8,"left_children":[1,3,5,7,-1,-1,-1,9,11,13,15,17,19,-1,21,-1,-1,-1,-1,-1,-1,-1,-1],"loss_changes":[9.604595E0,7.603999E0,4.131546E0,5.067841E0,0E0,0E0,0E0,6.3175426E0,2.3421156E0,3.598505E0,2.878879E0,3.1720831E0,1.988131E0,0E0,1.309329E0,0E0,0E0,0E0,0E0,0E0,0E0,0E0,0E0],"parents":[2147483647,0,0,1,1,2,2,3,3,7,7,8,8,9,9,10,10,11,11,12,12,14,14],"right_children":[2,4,6,8,-1,-1,-1,10,12,14,16,18,20,-1,22,-1,-1,-1,-1,-1,-1,-1,-1],"split_conditions":[1.1361438E5,1.0661153E5,1.1188426E5,1.3071045E0,5.91848E-2,-3.2845806E-2,1.3756268E-2,1.10824125E5,2.8570795E0,3.909549E1,2.65041E-1,-3.2860077E1,1.4947886E1,3.1688814E-3,9.173622E-2,1.3712823E-2,-2.3979448E-2,-1.7046595E-2,3.0872017E-2,-3.3961263E-2,4.6638594E-4,1.9305656E-2,5.2970182E-2],"split_indices":[4,14,14,24,0,0,0,13,25,2,15,12,32,0,16,0,0,0,0,0,0,0,0],"split_type":[0,0,0,0,0,0,0,0,0,0,0,0,0,0,0,0,0,0,0,0,0,0,0],"sum_hessian":[1.05523476E2,8.066641E1,2.4857065E1,7.371477E1,6.951647E0,1.9450468E1,5.4065967E0,4.5741333E1,2.7973433E1,2.7547174E1,1.8194159E1,1.1780073E1,1.619336E1,8.18887E0,1.9358303E1,9.162295E0,9.031863E0,5.836702E0,5.943371E0,9.867979E0,6.3253803E0,6.4343643E0,1.292394E1],"tree_param":{"num_deleted":"0","num_feature":"40","num_nodes":"23","size_leaf_vector":"1"}},{"base_weights":[4.764752E-3,-1.1528477E-1,8.5359085E-1,2.91769E-2,-4.2748225E-1,1.5725998E-2,5.6175675E-2,2.816112E-1,-1.9640493E-1,1.2700917E-2,-5.9024423E-1,-3.098324E-2,5.227461E-1,-4.723872E-1,7.121374E-2,-1.4321362E-2,-3.2545622E-2,2.3806514E-1,5.3489685E-2,-7.657263E-3,-3.308989E-2,3.6827933E-2,-2.9523423E-1,2.9000947E-2,-2.373084E-2,5.8633974E-3,-3.172348E-2],"categories":[],"categories_nodes":[],"categories_segments":[],"categories_sizes":[],"default_left":[0,0,0,0,0,0,0,0,0,0,0,0,0,0,0,0,0,0,0,0,0,0,0,0,0,0,0],"id":9,"left_children":[1,3,5,7,9,-1,-1,11,13,-1,15,-1,17,19,21,-1,-1,23,-1,-1,-1,-1,25,-1,-1,-1,-1],"loss_changes":[1.1244129E1,4.380526E0,1.4940968E0,3.8407571E0,3.5824304E0,0E0,0E0,7.2514467E0,2.688777E0,0E0,1.8346405E-1,0E0,3.6344447E0,8.901925E-1,4.8112674E0,0E0,0E0,4.766103E0,0E0,0E0,0E0,0E0,1.8963044E0,0E0,0E0,0E0,0E0],"parents":[2147483647,0,0,1,1,2,2,3,3,4,4,7,7,8,8,10,10,12,12,13,13,14,14,17,17,22,22],"right_children":[2,4,6,8,10,-1,-1,12,14,-1,16,-1,18,20,22,-1,-1,24,-1,-1,-1,-1,26,-1,-1,-1,-1],"split_conditions":[1.155955E5,1.685561E-1,4.9712715E1,1.0152218E5,3.2906933E1,1.5725998E-2,5.6175675E-2,8.459391E4,9.078397E-2,1.2700917E-2,6.059699E-1,-3.098324E-2,5.113355E10,-3.364208E-1,9.040335E-1,-1.4321362E-2,-3.2545622E-2,9.681913E4,5.3489685E-2,-7.657263E-3,-3.308989E-2,3.6827933E-2,1.068109E-1,2.9000947E-2,-2.373084E-2,5.8633974E-3,-3.172348E-2],"split_indices":[6,16,2,14,2,0,0,6,16,0,18,0,17,23,18,0,0,4,0,0,0,0,16,0,0,0,0],"split_type":[0,0,0,0,0,0,0,0,0,0,0,0,0,0,0,0,0,0,0,0,0,0,0,0,0,0,0],"sum_hessian":[1.07653244E2,9.4968254E1,1.2684992E1,6.532634E1,2.9641914E1,5.0784197E0,7.606572E0,3.0920307E1,3.4406033E1,5.4880085E0,2.4153906E1,6.1076403E0,2.4812666E1,1.6745607E1,1.7660423E1,5.247047E0,1.890686E1,1.7384064E1,7.428602E0,7.105738E0,9.63987E0,6.010427E0,1.1649997E1,1.1968086E1,5.415978E0,5.4195223E0,6.2304745E0],"tree_param":{"num_deleted":"0","num_feature":"40","num_nodes":"27","size_leaf_vector":"1"}},{"base_weights":[-1.6552715E-1,-2.8308254E-1,7.1832395E-1,1.8695971E-2,-3.2556555E-1,7.3325746E-3,5.4934092E-2,-3.694507E-1,1.18280435E-2,-5.4401594E-1,-2.672551E-1,-3.153256E-2,-4.446572E-3,2.1235945E-2,-3.7021035E-1,8.247858E-3,-2.2905653E-2],"categories":[],"categories_nodes":[],"categories_segments":[],"categories_sizes":[],"default_left":[0,0,0,0,0,0,0,0,0,0,0,0,0,0,0,0,0],"id":10,"left_children":[1,3,5,-1,7,-1,-1,9,-1,11,13,-1,-1,-1,15,-1,-1],"loss_changes":[1.1190308E1,2.7550206E0,2.463945E0,0E0,2.3074446E0,0E0,0E0,1.2636766E0,0E0,1.0357332E0,4.0711336E0,0E0,0E0,0E0,2.388771E0,0E0,0E0],"parents":[2147483647,0,0,1,1,2,2,4,4,7,7,9,9,10,10,14,14],"right_children":[2,4,6,-1,8,-1,-1,10,-1,12,14,-1,-1,-1,16,-1,-1],"split_conditions":[7.588431E1,1.2494774E1,1.3893149E0,1.8695971E-2,4.271898E0,7.3325746E-3,5.4934092E-2,-3.0745933E0,1.18280435E-2,1.1448775E5,-1.2236793E0,-3.153256E-2,-4.446572E-3,2.1235945E-2,4.192509E1,8.247858E-3,-2.2905653E-2],"split_indices":[1,0,29,0,29,0,0,25,0,7,25,0,0,0,0,0,0],"split_type":[0,0,0,0,0,0,0,0,0,0,0,0,0,0,0,0,0],"sum_hessian":[1.05162964E2,9.351763E1,1.1645327E1,5.062972E0,8.845466E1,5.3111763E0,6.33415E0,8.253205E1,5.922609E0,2.8517729E1,5.4014324E1,2.3448305E1,5.069423E0,6.4650974E0,4.754923E1,6.424078E0,4.112515E1],"tree_param":{"num_deleted":"0","num_feature":"40","num_nodes":"17","size_leaf_vector":"1"}},{"base_weights":[6.908036E-2,1.6821525E-1,-3.3009674E-2,5.47424E-1,7.4526654E-3,7.8876364E-1,-7.3399576E-3,-3.3309266E-2,1.308558E-1,5.951746E-2,3.3760202E-1,5.1568323E-1,-1.7974056E-1,3.0578641E-2,-0E0,8.111281E-1,-5.559347E-3,3.1318128E-1,-5.098387E-1,5.916533E-2,-6.823904E-4,3.8822453E-2,-2.89157E-3,-2.5397965E-3,-3.4581162E-2],"categories":[],"categories_nodes":[],"categories_segments":[],"categories_sizes":[],"default_left":[0,0,0,0,0,0,0,0,0,0,0,0,0,0,0,0,0,0,0,0,0,0,0,0,0],"id":11,"left_children":[1,3,-1,5,7,9,-1,-1,11,-1,13,15,17,-1,-1,19,-1,21,23,-1,-1,-1,-1,-1,-1],"loss_changes":[7.6034575E0,5.5946693E0,0E0,4.773144E0,5.547971E0,3.1788378E0,0E0,0E0,6.942315E0,0E0,1.0198498E0,4.9517264E0,5.4111996E0,0E0,0E0,5.601082E0,0E0,2.4189615E0,1.5395079E0,0E0,0E0,0E0,0E0,0E0,0E0],"parents":[2147483647,0,0,1,1,3,3,4,4,5,5,8,8,10,10,11,11,12,12,15,15,17,17,18,18],"right_children":[2,4,-1,6,8,10,-1,-1,12,-1,14,16,18,-1,-1,20,-1,22,24,-1,-1,-1,-1,-1,-1],"split_conditions":[1.1651607E5,-3.8525482E2,-3.3009674E-2,-3.684334E0,9.998965E-1,9.810877E-1,-7.3399576E-3,-3.3309266E-2,1.8476216E0,5.951746E-2,6.6251428E10,2.7013606E3,8.3310056E-1,3.0578641E-2,-0E0,4.6782538E2,-5.559347E-3,7.783913E4,7.367457E0,5.916533E-2,-6.823904E-4,3.8822453E-2,-2.89157E-3,-2.5397965E-3,-3.4581162E-2],"split_indices":[4,12,0,25,30,19,0,0,30,0,17,20,18,0,0,12,0,14,32,0,0,0,0,0,0],"split_type":[0,0,0,0,0,0,0,0,0,0,0,0,0,0,0,0,0,0,0,0,0,0,0,0,0],"sum_hessian":[1.033149E2,9.174929E1,1.1565609E1,2.6414717E1,6.533457E1,1.9606562E1,6.8081565E0,9.309067E0,5.6025505E1,9.389113E0,1.0217448E1,2.4871498E1,3.1154007E1,5.1449966E0,5.072451E0,1.6813065E1,8.058434E0,1.2394348E1,1.8759659E1,1.1369256E1,5.4438095E0,5.1457806E0,7.2485676E0,5.840569E0,1.291909E1],"tree_param":{"num_deleted":"0","num_feature":"40","num_nodes":"25","size_leaf_vector":"1"}},{"base_weights":[1.7786505E-2,-8.594839E-2,7.6957655E-1,-3.76271E-1,4.2803768E-2,1.2905175E-2,5.3458065E-2,-3.124464E-2,-6.130288E-2,3.944677E-1,-3.0385932E-1,1.1566351E-2,-2.3299208E-2,-1.919474E-2,6.218552E-1,-5.7707953E-1,-0E0,-7.5639447E-4,8.5298E-1,-1.4908174E-2,-3.326609E-2,2.7700623E-2,-1.596013E-2,2.0950286E-2,5.2889526E-2],"categories":[],"categories_nodes":[],"categories_segments":[],"categories_sizes":[],"default_left":[0,0,0,0,0,0,0,0,0,0,0,0,0,0,0,0,0,0,0,0,0,0,0,0,0],"id":12,"left_children":[1,3,5,7,9,-1,-1,-1,11,13,15,-1,-1,-1,17,19,21,-1,23,-1,-1,-1,-1,-1,-1],"loss_changes":[8.328272E0,3.5298376E0,1.5766997E0,2.1598225E0,8.072805E0,0E0,0E0,0E0,1.7957625E0,6.09013E0,2.774591E0,0E0,0E0,0E0,3.919053E0,1.3713074E-1,3.1345384E0,0E0,1.1141634E0,0E0,0E0,0E0,0E0,0E0,0E0],"parents":[2147483647,0,0,1,1,2,2,3,3,4,4,8,8,9,9,10,10,14,14,15,15,16,16,18,18],"right_children":[2,4,6,8,10,-1,-1,-1,12,14,16,-1,-1,-1,18,20,22,-1,24,-1,-1,-1,-1,-1,-1],"split_conditions":[1.16149234E5,-4.0585376E2,6.0476226E-1,9.810877E-1,6.1519945E-1,1.2905175E-2,5.3458065E-2,-3.124464E-2,2.307494E0,8.417786E4,1.1121066E5,1.1566351E-2,-2.3299208E-2,-1.919474E-2,2.3922145E0,3.2577212E0,1.01846914E5,-7.5639447E-4,-1.5394521E3,-1.4908174E-2,-3.326609E-2,2.7700623E-2,-1.596013E-2,2.0950286E-2,5.2889526E-2],"split_indices":[5,12,9,19,26,0,0,0,30,3,13,0,0,0,21,26,14,0,10,0,0,0,0,0,0],"split_type":[0,0,0,0,0,0,0,0,0,0,0,0,0,0,0,0,0,0,0,0,0,0,0,0,0],"sum_hessian":[1.04065956E2,9.2109055E1,1.1956904E1,2.7946615E1,6.416244E1,5.227487E0,6.7294173E0,1.4890912E1,1.3055702E1,3.1926224E1,3.2236217E1,7.6820116E0,5.373691E0,6.9630785E0,2.4963146E1,1.654637E1,1.5689846E1,6.779803E0,1.8183342E1,5.301512E0,1.1244859E1,5.496867E0,1.0192979E1,6.9631524E0,1.122019E1],"tree_param":{"num_deleted":"0","num_feature":"40","num_nodes":"25","size_leaf_vector":"1"}},{"base_weights":[-1.2297248E-1,-2.5583947E-1,4.428345E-1,-3.1612423E-1,2.5542647E-2,7.8665614E-1,-9.935922E-3,1.0110176E-2,-3.5777694E-1,1.53356735E-2,5.9228595E-2,-4.6278203E-1,-1.1445018E-1,-5.2356243E-1,1.4328838E-3,1.2101898E-1,-3.0397156E-2,-3.0507851E-2,-1.3819885E-2,2.8890243E-2,-8.259625E-3],"categories":[],"categories_nodes":[],"categories_segments":[],"categories_sizes":[],"default_left":[0,0,0,0,0,0,0,0,0,0,0,0,0,0,0,0,0,0,0,0,0],"id":13,"left_children":[1,3,5,7,-1,9,-1,-1,11,-1,-1,13,15,17,-1,19,-1,-1,-1,-1,-1],"loss_changes":[7.5253105E0,3.8776402E0,4.4105463E0,1.721591E0,0E0,1.9103951E0,0E0,0E0,1.6926908E0,0E0,0E0,1.518815E0,2.782409E0,6.750736E-1,0E0,2.2539318E0,0E0,0E0,0E0,0E0,0E0],"parents":[2147483647,0,0,1,1,2,2,3,3,5,5,8,8,11,11,12,12,13,13,15,15],"right_children":[2,4,6,8,-1,10,-1,-1,12,-1,-1,14,16,18,-1,20,-1,-1,-1,-1,-1],"split_conditions":[2.1422498E0,4.191052E0,3.5958691E3,1.2494774E1,2.5542647E-2,2.821117E3,-9.935922E-3,1.0110176E-2,1.132883E5,1.53356735E-2,5.9228595E-2,3.3744404E0,7.130582E0,3.7809014E-1,1.4328838E-3,1.0698992E5,-3.0397156E-2,-3.0507851E-2,-1.3819885E-2,2.8890243E-2,-8.259625E-3],"split_indices":[8,29,11,0,0,11,0,0,7,0,0,23,32,8,0,14,0,0,0,0,0],"split_type":[0,0,0,0,0,0,0,0,0,0,0,0,0,0,0,0,0,0,0,0,0],"sum_hessian":[9.784284E1,7.982282E1,1.8020014E1,7.466968E1,5.1531434E0,1.1686612E1,6.3334026E0,5.0888286E0,6.958086E1,6.21389E0,5.472722E0,4.7688515E1,2.1892338E1,4.256257E1,5.125946E0,1.5194464E1,6.6978745E0,3.0132418E1,1.2430152E1,5.5952234E0,9.59924E0],"tree_param":{"num_deleted":"0","num_feature":"40","num_nodes":"21","size_leaf_vector":"1"}},{"base_weights":[6.660962E-2,1.5817818E-1,-3.2528426E-2,4.8024788E-1,8.958399E-3,-1.1189251E-2,6.816228E-1,3.950803E-1,-1.8354253E-1,8.43098E-1,5.5178567E-3,8.324138E-1,-1.6499061E-2,1.3347994E-1,-4.4318864E-1,5.0939918E-2,1.8486414E-2,5.428381E-2,1.4907396E-2,2.7710918E-2,-1.5744784E-1,-0E0,-5.598195E-1,1.0867435E-2,-2.4623537E-2,-1.5776914E-2,-3.3996593E-2],"categories":[],"categories_nodes":[],"categories_segments":[],"categories_sizes":[],"default_left":[0,0,0,0,0,0,0,0,0,0,0,0,0,0,0,0,0,0,0,0,0,0,0,0,0,0,0],"id":14,"left_children":[1,3,-1,5,7,-1,9,11,13,15,-1,17,-1,19,21,-1,-1,-1,-1,-1,23,-1,25,-1,-1,-1,-1],"loss_changes":[6.968093E0,4.4785604E0,0E0,4.398364E0,4.9749236E0,0E0,1.9695454E0,7.4081717E0,3.739345E0,9.7748566E-1,0E0,1.4733362E0,0E0,2.643106E0,1.3170404E0,0E0,0E0,0E0,0E0,0E0,1.7406696E0,0E0,2.648368E-1,0E0,0E0,0E0,0E0],"parents":[2147483647,0,0,1,1,3,3,4,4,6,6,7,7,8,8,9,9,11,11,13,13,14,14,20,20,22,22],"right_children":[2,4,-1,6,8,-1,10,12,14,16,-1,18,-1,20,22,-1,-1,-1,-1,-1,24,-1,26,-1,-1,-1,-1],"split_conditions":[1.161076E5,7.314387E-1,-3.2528426E-2,1.9149228E0,2.5690453E0,-1.1189251E-2,2.0375922E0,3.243786E2,1.10306336E5,8.9060414E-1,5.5178567E-3,3.5250733E0,-1.6499061E-2,2E0,-4.501587E0,5.0939918E-2,1.8486414E-2,5.428381E-2,1.4907396E-2,2.7710918E-2,7.686607E-1,-0E0,9.910484E-1,1.0867435E-2,-2.4623537E-2,-1.5776914E-2,-3.3996593E-2],"split_indices":[3,18,0,21,21,0,24,12,13,19,0,31,0,33,23,0,0,0,0,0,24,0,19,0,0,0,0],"split_type":[0,0,0,0,0,0,0,0,0,0,0,0,0,0,0,0,0,0,0,0,0,0,0,0,0,0,0],"sum_hessian":[1.0428895E2,9.3295906E1,1.0993044E1,2.8624796E1,6.467111E1,6.231343E0,2.2393454E1,2.1338028E1,4.333308E1,1.6951122E1,5.4423323E0,1.3303593E1,8.034434E0,1.9556175E1,2.3776907E1,1.136814E1,5.582982E0,8.1981125E0,5.1054807E0,7.765079E0,1.1791097E1,5.045997E0,1.873091E1,5.5901E0,6.2009964E0,7.6441097E0,1.10868E1],"tree_param":{"num_deleted":"0","num_feature":"40","num_nodes":"27","size_leaf_vector":"1"}},{"base_weights":[3.90013E-3,-1.0363685E-1,7.88805E-1,-2.907646E-1,9.620018E-2,1.9665614E-2,5.029864E-2,3.0387187E-2,-4.1671985E-1,-4.6829814E-1,3.5590228E-1,-6.160567E-1,-9.788759E-2,-3.155908E-2,-7.1673724E-3,5.8801174E-1,-2.4507029E-2,-1.4493286E-2,-3.4037422E-2,-4.249293E-1,2.2334363E-2,8.5057485E-1,6.8718265E-3,-3.0711045E-2,-6.338369E-3,1.8205224E-2,5.3871926E-2],"categories":[],"categories_nodes":[],"categories_segments":[],"categories_sizes":[],"default_left":[0,0,0,0,0,0,0,0,0,0,0,0,0,0,0,0,0,0,0,0,0,0,0,0,0,0,0],"id":15,"left_children":[1,3,5,7,9,-1,-1,-1,11,13,15,17,19,-1,-1,21,-1,-1,-1,23,-1,25,-1,-1,-1,-1,-1],"loss_changes":[8.835722E0,3.460592E0,5.489588E-1,5.6259413E0,6.698348E0,0E0,0E0,0E0,2.5678496E0,5.928414E-1,6.436124E0,2.4906349E-1,3.343917E0,0E0,0E0,2.7508307E0,0E0,0E0,0E0,5.083666E-1,0E0,1.1752882E0,0E0,0E0,0E0,0E0,0E0],"parents":[2147483647,0,0,1,1,2,2,3,3,4,4,8,8,9,9,10,10,11,11,12,12,15,15,19,19,21,21],"right_children":[2,4,6,8,10,-1,-1,-1,12,14,16,18,20,-1,-1,22,-1,-1,-1,24,-1,26,-1,-1,-1,-1,-1],"split_conditions":[1.16149234E5,2.8594205E0,1.2225392E5,8.1062645E-1,8.517891E4,1.9665614E-2,5.029864E-2,3.0387187E-2,2.7007366E3,-7.951412E-1,7.470219E10,7.0521873E-1,1.8513938E0,-3.155908E-2,-7.1673724E-3,-1.3916231E0,-2.4507029E-2,-1.4493286E-2,-3.4037422E-2,6.3814795E-1,2.2334363E-2,9.765114E-1,6.8718265E-3,-3.0711045E-2,-6.338369E-3,1.8205224E-2,5.3871926E-2],"split_indices":[5,21,13,29,3,0,0,0,20,26,17,31,29,0,0,26,0,0,0,24,0,19,0,0,0,0,0],"split_type":[0,0,0,0,0,0,0,0,0,0,0,0,0,0,0,0,0,0,0,0,0,0,0,0,0,0,0],"sum_hessian":[1.01900566E2,9.0273125E1,1.1627437E1,4.6642452E1,4.3630676E1,5.281203E0,6.346234E0,5.166678E0,4.1475773E1,1.33734255E1,3.025725E1,2.475368E1,1.6722095E1,8.075435E0,5.2979903E0,2.4075413E1,6.181838E0,5.2596765E0,1.9494003E1,1.0699749E1,6.022347E0,1.4510207E1,9.565206E0,5.6912065E0,5.0085425E0,5.5833673E0,8.92684E0],"tree_param":{"num_deleted":"0","num_feature":"40","num_nodes":"27","size_leaf_vector":"1"}},{"base_weights":[-4.190282E-2,-1.9701077E-1,5.6087554E-1,-2.4127749E-1,1.571139E-2,7.3896086E-1,1.7673742E-3,-1.5107925E-1,-2.8708717E-2,2.0251593E-2,5.4805875E-2,-3.367807E-1,4.1049525E-2,-2.4405949E-2,-2.9373718E-2,2.7841274E-2,-1.5627319E-1,-2.1286882E-2,1.3805642E-2,3.5473162E-3,-2.4951376E-2],"categories":[],"categories_nodes":[],"categories_segments":[],"categories_sizes":[],"default_left":[0,0,0,0,0,0,0,0,0,0,0,0,0,0,0,0,0,0,0,0,0],"id":16,"left_children":[1,3,5,7,-1,9,-1,11,-1,-1,-1,13,15,17,-1,-1,19,-1,-1,-1,-1],"loss_changes":[8.857846E0,1.7792487E0,1.7078857E0,1.9520445E0,0E0,1.1071258E0,0E0,2.0741487E0,0E0,0E0,0E0,2.220251E0,3.0379722E0,1.8539975E0,0E0,0E0,1.739229E0,0E0,0E0,0E0,0E0],"parents":[2147483647,0,0,1,1,2,2,3,3,5,5,7,7,11,11,12,12,13,13,16,16],"right_children":[2,4,6,8,-1,10,-1,12,-1,-1,-1,14,16,18,-1,-1,20,-1,-1,-1,-1],"split_conditions":[2.1491652E0,7.014878E0,3.5178384E3,1.1804658E0,1.571139E-2,2.821117E3,1.7673742E-3,-4.424086E2,-2.8708717E-2,2.0251593E-2,5.4805875E-2,3E0,2.81853E1,2.6114175E-1,-2.9373718E-2,2.7841274E-2,7.62261E-1,-2.1286882E-2,1.3805642E-2,3.5473162E-3,-2.4951376E-2],"split_indices":[8,24,11,18,0,11,0,11,0,0,0,33,0,22,0,0,8,0,0,0,0],"split_type":[0,0,0,0,0,0,0,0,0,0,0,0,0,0,0,0,0,0,0,0,0],"sum_hessian":[9.294798E1,7.459272E1,1.8355265E1,6.931461E1,5.278102E0,1.3264065E1,5.0912E0,5.591791E1,1.3396704E1,8.102522E0,5.161542E0,2.8316391E1,2.7601522E1,1.3273411E1,1.5042979E1,7.2737546E0,2.0327768E1,5.6474853E0,7.6259255E0,1.2525555E1,7.802213E0],"tree_param":{"num_deleted":"0","num_feature":"40","num_nodes":"21","size_leaf_vector":"1"}},{"base_weights":[6.7622915E-2,4.291519E-1,-1.7234288E-1,-1.5262553E-1,6.689011E-1,4.0211733E-2,-5.9337E-1,2.4170892E-2,-3.2285336E-2,7.799898E-1,8.98239E-3,4.507954E-2,-1.1823894E-1,-3.3531323E-2,-1.4185022E-2,1.5157943E-2,8.8920414E-1,7.137877E-2,-3.2676212E-2,5.2700706E-2,2.4677105E-2,5.1129556E-1,-2.769158E-1,3.962376E-2,7.83885E-3,1.2879812E-3,-2.3569124E-2],"categories":[],"categories_nodes":[],"categories_segments":[],"categories_sizes":[],"default_left":[0,0,0,0,0,0,0,0,0,0,0,0,0,0,0,0,0,0,0,0,0,0,0,0,0,0,0],"id":17,"left_children":[1,3,5,7,9,11,13,-1,-1,15,-1,-1,17,-1,-1,-1,19,21,-1,-1,-1,23,25,-1,-1,-1,-1],"loss_changes":[8.986608E0,5.9171042E0,5.638164E0,4.327406E0,1.3710117E0,5.9251432E0,2.1816301E-1,0E0,0E0,8.418617E-1,0E0,0E0,3.7901776E0,0E0,0E0,0E0,5.3401375E-1,4.390045E0,0E0,0E0,0E0,1.0431151E0,9.932803E-1,0E0,0E0,0E0,0E0],"parents":[2147483647,0,0,1,1,2,2,3,3,4,4,5,5,6,6,9,9,12,12,16,16,17,17,21,21,22,22],"right_children":[2,4,6,8,10,12,14,-1,-1,16,-1,-1,18,-1,-1,-1,20,22,-1,-1,-1,24,26,-1,-1,-1,-1],"split_conditions":[4.5813244E1,3.2906933E1,1.1648681E5,9.4440516E4,1.1361438E5,2.2727842E0,1.3197358E0,2.4170892E-2,-3.2285336E-2,-2.0299711E0,8.98239E-3,4.507954E-2,1.1066028E5,-3.3531323E-2,-1.4185022E-2,1.5157943E-2,-3.5062923E0,2.3743582E-1,-3.2676212E-2,5.2700706E-2,2.4677105E-2,8.8120437E-1,8.7227094E-1,3.962376E-2,7.83885E-3,1.2879812E-3,-2.3569124E-2],"split_indices":[1,2,13,4,4,21,22,0,0,8,0,0,13,0,0,0,25,22,0,0,0,18,19,0,0,0,0],"split_type":[0,0,0,0,0,0,0,0,0,0,0,0,0,0,0,0,0,0,0,0,0,0,0,0,0,0,0],"sum_hessian":[1.0143798E2,4.0320316E1,6.1117664E1,1.1751157E1,2.856916E1,4.1057068E1,2.0060595E1,5.051646E0,6.69951E0,2.26318E1,5.9373612E0,5.748391E0,3.5308678E1,1.486382E1,5.1967745E0,5.091911E0,1.7539888E1,2.6574759E1,8.733919E0,1.1029124E1,6.510764E0,1.1662916E1,1.4911842E1,5.657974E0,6.0049424E0,5.971257E0,8.940585E0],"tree_param":{"num_deleted":"0","num_feature":"40","num_nodes":"27","size_leaf_vector":"1"}},{"base_weights":[-1.8208109E-2,-1.1130528E-1,7.29782E-1,-2.9485437E-1,9.139965E-2,1.8635204E-2,4.762499E-2,1.1002894E-2,-4.095237E-1,5.288948E-1,-3.878439E-1,-3.386365E-2,-8.067206E-2,-5.5612293E-3,7.659063E-1,1.6194357E-2,-3.1034997E-2,1.8143134E-1,-3.157677E-2,4.5906126E-2,1.5014122E-2,3.801699E-2,-1.1139658E-2],"categories":[],"categories_nodes":[],"categories_segments":[],"categories_sizes":[],"default_left":[0,0,0,0,0,0,0,0,0,0,0,0,0,0,0,0,0,0,0,0,0,0,0],"id":18,"left_children":[1,3,5,7,9,-1,-1,-1,11,13,15,-1,17,-1,19,-1,-1,21,-1,-1,-1,-1,-1],"loss_changes":[7.3853087E0,3.5839882E0,4.4467354E-1,3.0837812E0,9.795868E0,0E0,0E0,0E0,3.5423894E0,3.8540273E0,3.92081E0,0E0,3.0506134E0,0E0,8.8211155E-1,0E0,0E0,3.5511155E0,0E0,0E0,0E0,0E0,0E0],"parents":[2147483647,0,0,1,1,2,2,3,3,4,4,8,8,9,9,10,10,12,12,14,14,17,17],"right_children":[2,4,6,8,10,-1,-1,-1,12,14,16,-1,18,-1,20,-1,-1,22,-1,-1,-1,-1,-1],"split_conditions":[1.15926664E5,2.8594205E0,7.8262013E-1,1.8762975E0,4.0436416E0,1.8635204E-2,4.762499E-2,1.1002894E-2,2.733586E3,2.8659615E1,2.3622248E0,-3.386365E-2,4.9367275E0,-5.5612293E-3,-6.6004056E-1,1.6194357E-2,-3.1034997E-2,5.627444E1,-3.157677E-2,4.5906126E-2,1.5014122E-2,3.801699E-2,-1.1139658E-2],"split_indices":[6,21,8,21,21,0,0,0,20,0,30,0,31,0,8,0,0,1,0,0,0,0,0],"split_type":[0,0,0,0,0,0,0,0,0,0,0,0,0,0,0,0,0,0,0,0,0,0,0],"sum_hessian":[1.0477794E2,9.405629E1,1.0721653E1,4.938078E1,4.467551E1,5.317951E0,5.4037013E0,8.667775E0,4.0713E1,2.3409943E1,2.126557E1,2.1689735E1,1.9023266E1,6.355052E0,1.705489E1,5.04007E0,1.62255E1,1.3221515E1,5.801751E0,1.1958862E1,5.0960283E0,5.175643E0,8.045872E0],"tree_param":{"num_deleted":"0","num_feature":"40","num_nodes":"23","size_leaf_vector":"1"}},{"base_weights":[-1.4267659E-1,-2.6634702E-1,5.6836957E-1,-1.1750117E-1,-4.3940818E-1,1.5147112E-2,4.1622825E-2,1.625523E-1,-3.20988E-1,-3.0669985E-2,-1.16127744E-1,-1.1394901E-2,2.6257012E-2,-3.0278293E-2,8.744526E-3,-2.3944462E-2,1.4367356E-2],"categories":[],"categories_nodes":[],"categories_segments":[],"categories_sizes":[],"default_left":[0,0,0,0,0,0,0,0,0,0,0,0,0,0,0,0,0],"id":19,"left_children":[1,3,5,7,9,-1,-1,11,13,-1,15,-1,-1,-1,-1,-1,-1],"loss_changes":[8.68301E0,2.0497804E0,6.5940857E-1,2.729064E0,1.9957604E0,0E0,0E0,2.9961057E0,4.042046E0,0E0,2.3150916E0,0E0,0E0,0E0,0E0,0E0,0E0],"parents":[2147483647,0,0,1,1,2,2,3,3,4,4,7,7,8,8,10,10],"right_children":[2,4,6,8,10,-1,-1,12,14,-1,16,-1,-1,-1,-1,-1,-1],"split_conditions":[7.511788E1,2.9829016E0,7.274484E1,5.564913E2,4.323356E3,1.5147112E-2,4.1622825E-2,-9.838382E-2,4.6378083E0,-3.0669985E-2,3.870744E1,-1.1394901E-2,2.6257012E-2,-3.0278293E-2,8.744526E-3,-2.3944462E-2,1.4367356E-2],"split_indices":[1,21,2,11,20,0,0,8,31,0,2,0,0,0,0,0,0],"split_type":[0,0,0,0,0,0,0,0,0,0,0,0,0,0,0,0,0],"sum_hessian":[9.6365005E1,8.2740265E1,1.3624747E1,4.5695457E1,3.7044804E1,8.05483E0,5.5699177E0,1.910773E1,2.6587725E1,2.3298603E1,1.3746202E1,9.24644E0,9.861292E0,1.6880629E1,9.707097E0,7.2703843E0,6.475818E0],"tree_param":{"num_deleted":"0","num_feature":"40","num_nodes":"17","size_leaf_vector":"1"}},{"base_weights":[4.1379493E-2,1.8936674E-1,-4.049675E-1,5.141882E-2,5.9461987E-1,2.32378E-2,-3.397744E-2,2.0365119E-1,-4.7968432E-1,4.6142217E-2,8.326856E-3,4.2183395E-2,2.3461906E-2,-6.4991037E-3,-3.253371E-2,-3.277126E-2,2.5498664E-1,3.4878157E-2,-1.1769894E-2],"categories":[],"categories_nodes":[],"categories_segments":[],"categories_sizes":[],"default_left":[0,0,0,0,0,0,0,0,0,0,0,0,0,0,0,0,0,0,0],"id":20,"left_children":[1,3,5,7,9,-1,-1,11,13,-1,-1,-1,15,-1,-1,-1,17,-1,-1],"loss_changes":[7.1014075E0,4.4309626E0,6.7164164E0,5.0570517E0,2.5871544E0,0E0,0E0,5.519932E0,6.6808844E-1,0E0,0E0,0E0,6.291713E0,0E0,0E0,0E0,6.737923E0,0E0,0E0],"parents":[2147483647,0,0,1,1,2,2,3,3,4,4,7,7,8,8,12,12,16,16],"right_children":[2,4,6,8,10,-1,-1,12,14,-1,-1,-1,16,-1,-1,-1,18,-1,-1],"split_conditions":[1.1361438E5,1.074342E5,7.329562E-2,1.1125742E5,2.9700083E3,2.32378E-2,-3.397744E-2,-3.624891E2,3.538532E1,4.6142217E-2,8.326856E-3,4.2183395E-2,6.15779E0,-6.4991037E-3,-3.253371E-2,-3.277126E-2,2.0375922E0,3.4878157E-2,-1.1769894E-2],"split_indices":[4,4,16,13,20,0,0,12,1,0,0,0,32,0,0,0,24,0,0],"split_type":[0,0,0,0,0,0,0,0,0,0,0,0,0,0,0,0,0,0,0],"sum_hessian":[1.0567509E2,7.9962975E1,2.5712107E1,6.068088E1,1.9282095E1,5.916159E0,1.9795948E1,4.7788033E1,1.289285E1,1.0127592E1,9.154504E0,9.567612E0,3.822042E1,5.003952E0,7.888898E0,9.144293E0,2.9076128E1,1.5168162E1,1.3907966E1],"tree_param":{"num_deleted":"0","num_feature":"40","num_nodes":"19","size_leaf_vector":"1"}},{"base_weights":[2.2077665E-2,-7.528838E-2,3.8990013E-2,-3.2482487E-1,1.8695198E-1,2.1958906E-2,-5.037518E-1,6.030773E-1,-2.283837E-1,-3.356704E-2,-2.008967E-1,8.599375E-1,6.4995694E-3,1.7710803E-1,-3.202706E-2,-2.8023133E-2,1.7305963E-2,1.959062E-2,5.364705E-2,4.0272407E-2,-2.3065526E-2],"categories":[],"categories_nodes":[],"categories_segments":[],"categories_sizes":[],"default_left":[0,0,0,0,0,0,0,0,0,0,0,0,0,0,0,0,0,0,0,0,0],"id":21,"left_children":[1,3,-1,5,7,-1,9,11,13,-1,15,17,-1,19,-1,-1,-1,-1,-1,-1,-1],"loss_changes":[7.6519523E0,6.0393486E0,0E0,6.6892476E0,7.932549E0,0E0,1.7507753E0,2.561698E0,4.015107E0,0E0,3.2614536E0,8.761616E-1,0E0,5.3357377E0,0E0,0E0,0E0,0E0,0E0,0E0,0E0],"parents":[2147483647,0,0,1,1,3,3,4,4,6,6,7,7,8,8,10,10,11,11,13,13],"right_children":[2,4,-1,6,8,-1,10,12,14,-1,16,18,-1,20,-1,-1,-1,-1,-1,-1,-1],"split_conditions":[1.1638878E5,2.890509E0,3.8990013E-2,9.444717E-1,4.0436416E0,2.1958906E-2,2.7483867E3,-8.916056E-1,3.8565052E1,-3.356704E-2,1.728932E0,-1.7211723E0,6.4995694E-3,2.2739016E-1,-3.202706E-2,-2.8023133E-2,1.7305963E-2,1.959062E-2,5.364705E-2,4.0272407E-2,-2.3065526E-2],"split_indices":[5,21,0,29,21,0,20,26,2,0,29,9,0,16,0,0,0,0,0,0,0],"split_type":[0,0,0,0,0,0,0,0,0,0,0,0,0,0,0,0,0,0,0,0,0],"sum_hessian":[1.0096738E2,9.01517E1,1.0815674E1,4.626788E1,4.388382E1,8.397569E0,3.787031E1,2.1815544E1,2.2068275E1,2.3383717E1,1.4486596E1,1.347192E1,8.343625E0,1.1289259E1,1.07790165E1,8.836435E0,5.650161E0,5.247733E0,8.224187E0,5.6366243E0,5.6526346E0],"tree_param":{"num_deleted":"0","num_feature":"40","num_nodes":"21","size_leaf_vector":"1"}},{"base_weights":[-8.320817E-2,-2.0582627E-1,4.6687087E-1,-2.6640558E-1,1.3240791E-2,7.013709E-1,-4.872763E-3,1.7835926E-2,-3.1999978E-1,1.625616E-2,5.227338E-2,-3.2202896E-2,-1.8460785E-1,8.0990046E-2,-3.888391E-1,-2.0224126E-2,1.301059E-2,-2.5807459E-2,-0E0],"categories":[],"categories_nodes":[],"categories_segments":[],"categories_sizes":[],"default_left":[0,0,0,0,0,0,0,0,0,0,0,0,0,0,0,0,0,0,0],"id":22,"left_children":[1,3,5,7,-1,9,-1,-1,11,-1,-1,-1,13,15,17,-1,-1,-1,-1],"loss_changes":[6.7411323E0,2.4006367E0,2.5353322E0,2.5512962E0,0E0,1.2182994E0,0E0,0E0,2.7805853E0,0E0,0E0,0E0,2.7507272E0,2.0188458E0,1.3942595E0,0E0,0E0,0E0,0E0],"parents":[2147483647,0,0,1,1,2,2,3,3,5,5,8,8,12,12,13,13,14,14],"right_children":[2,4,6,8,-1,10,-1,-1,12,-1,-1,-1,14,16,18,-1,-1,-1,-1],"split_conditions":[2.1491652E0,3.7370424E0,3.6368901E3,1.2494774E1,1.3240791E-2,2.821117E3,-4.872763E-3,1.7835926E-2,3.6761974E1,1.625616E-2,5.227338E-2,-3.2202896E-2,-5.2850716E1,4.5794673E0,9.247711E-1,-2.0224126E-2,1.301059E-2,-2.5807459E-2,-0E0],"split_indices":[8,23,11,0,0,11,0,0,1,0,0,0,12,31,22,0,0,0,0],"split_type":[0,0,0,0,0,0,0,0,0,0,0,0,0,0,0,0,0,0,0],"sum_hessian":[9.790552E1,8.071987E1,1.7185646E1,7.208747E1,8.632403E0,1.2094327E1,5.0913196E0,5.1134233E0,6.6974045E1,6.8451114E0,5.249216E0,1.8411318E1,4.8562725E1,2.1159325E1,2.74034E1,5.2158575E0,1.5943468E1,2.0353313E1,7.0500875E0],"tree_param":{"num_deleted":"0","num_feature":"40","num_nodes":"19","size_leaf_vector":"1"}},{"base_weights":[3.7777252E-2,1.8390268E-1,-4.038511E-1,5.548418E-1,3.2426063E-3,-3.152855E-2,1.966981E-2,-5.876008E-4,7.9885304E-1,-2.6692081E-2,1.6881183E-1,5.1690873E-2,6.3956934E-3,6.399204E-1,-1.951908E-1,4.9200755E-2,1.9233102E-3,-4.7382602E-1,1.9079184E-2,-3.328914E-2,-9.156205E-4],"categories":[],"categories_nodes":[],"categories_segments":[],"categories_sizes":[],"default_left":[0,0,0,0,0,0,0,0,0,0,0,0,0,0,0,0,0,0,0,0,0],"id":23,"left_children":[1,3,5,7,9,-1,-1,-1,11,-1,13,-1,-1,15,17,-1,-1,19,-1,-1,-1],"loss_changes":[6.9896626E0,5.412859E0,5.1284647E0,3.758627E0,5.0407662E0,0E0,0E0,0E0,2.6987867E0,0E0,7.6752534E0,0E0,0E0,3.881413E0,4.26214E0,0E0,0E0,1.4624999E0,0E0,0E0,0E0],"parents":[2147483647,0,0,1,1,2,2,3,3,4,4,8,8,10,10,13,13,14,14,17,17],"right_children":[2,4,6,8,10,-1,-1,-1,12,-1,14,-1,-1,16,18,-1,-1,20,-1,-1,-1],"split_conditions":[1.1330055E5,-3.624891E2,1.12565664E5,-1.5198634E3,3.9619488E1,-3.152855E-2,1.966981E-2,-5.876008E-4,-9.838382E-2,-2.6692081E-2,1.8610089E0,5.1690873E-2,6.3956934E-3,2.658746E3,4.0436416E0,4.9200755E-2,1.9233102E-3,1.6357264E-1,1.9079184E-2,-3.328914E-2,-9.156205E-4],"split_indices":[3,12,14,11,2,0,0,0,8,0,29,0,0,20,21,0,0,16,0,0,0],"split_type":[0,0,0,0,0,0,0,0,0,0,0,0,0,0,0,0,0,0,0,0,0],"sum_hessian":[1.0650118E2,8.0631836E1,2.5869345E1,2.5548933E1,5.5082905E1,2.0401964E1,5.467381E0,7.8539906E0,1.7694942E1,1.2312985E1,4.276992E1,1.2594443E1,5.1004987E0,1.8431612E1,2.4338308E1,1.1213814E1,7.217798E0,1.664777E1,7.690539E0,1.1232972E1,5.4147964E0],"tree_param":{"num_deleted":"0","num_feature":"40","num_nodes":"21","size_leaf_vector":"1"}},{"base_weights":[3.4709662E-2,-2.0037703E-1,2.931715E-1,3.503793E-1,-3.3670154E-1,4.052074E-1,-1.9042317E-2,-1.5480779E-2,4.5264836E-2,8.237652E-3,-4.6650028E-1,7.689751E-1,1.7634413E-1,-3.311164E-2,-2.2280021E-1,1.29328165E-2,4.8016284E-2,-2.6966763E-1,6.5559787E-1,-3.0695066E-2,6.494873E-2,-3.2343335E-2,2.0683374E-2,3.940744E-3,4.7811605E-2,2.8734207E-2,-2.2129647E-2],"categories":[],"categories_nodes":[],"categories_segments":[],"categories_sizes":[],"default_left":[0,0,0,0,0,0,0,0,0,0,0,0,0,0,0,0,0,0,0,0,0,0,0,0,0,0,0],"id":24,"left_children":[1,3,5,7,9,11,-1,-1,-1,-1,13,15,17,-1,19,-1,-1,21,23,-1,25,-1,-1,-1,-1,-1,-1],"loss_changes":[6.7189875E0,4.4498706E0,4.139911E0,4.6599226E0,3.16087E0,3.586248E0,0E0,0E0,0E0,0E0,1.5617857E0,1.3128557E0,6.54337E0,0E0,2.1792932E0,0E0,0E0,4.3980455E0,2.36489E0,0E0,3.2242181E0,0E0,0E0,0E0,0E0,0E0,0E0],"parents":[2147483647,0,0,1,1,2,2,3,3,4,4,5,5,10,10,11,11,12,12,14,14,17,17,18,18,20,20],"right_children":[2,4,6,8,10,12,-1,-1,-1,-1,14,16,18,-1,20,-1,-1,22,24,-1,26,-1,-1,-1,-1,-1,-1],"split_conditions":[5.2518797E10,1.2707319E0,7.5790066E10,3.967284E1,3.280362E10,1.1227789E5,-1.9042317E-2,-1.5480779E-2,4.5264836E-2,8.237652E-3,4.7691203E10,-2.957327E0,1.155955E5,-3.311164E-2,1.5285313E-1,1.29328165E-2,4.8016284E-2,6.950653E10,4.943197E1,-3.0695066E-2,1.0356233E5,-3.2343335E-2,2.0683374E-2,3.940744E-3,4.7811605E-2,2.8734207E-2,-2.2129647E-2],"split_indices":[17,30,17,0,17,6,0,0,0,0,17,23,6,0,25,0,0,17,2,0,7,0,0,0,0,0,0],"split_type":[0,0,0,0,0,0,0,0,0,0,0,0,0,0,0,0,0,0,0,0,0,0,0,0,0,0,0],"sum_hessian":[1.0846117E2,5.6714092E1,5.1747074E1,1.0795624E1,4.591847E1,4.484078E1,6.9062963E0,5.050555E0,5.7450686E0,9.227998E0,3.6690468E1,1.6236572E1,2.8604208E1,1.916776E1,1.7522709E1,5.211692E0,1.1024879E1,1.4934373E1,1.3669835E1,7.0943336E0,1.0428375E1,9.751359E0,5.1830134E0,5.2302017E0,8.439633E0,5.235243E0,5.1931324E0],"tree_param":{"num_deleted":"0","num_feature":"40","num_nodes":"27","size_leaf_vector":"1"}},{"base_weights":[-9.460294E-2,-2.1634643E-1,6.200479E-1,3.071493E-3,-3.8766924E-1,1.3475063E-2,4.2378258E-2,-2.5044588E-2,1.7118363E-1,-4.97014E-1,7.992673E-3,4.445638E-2,-7.428279E-2,-3.0801935E-2,-2.2252744E-1,-2.4145363E-2,2.0007093E-2,1.943535E-3,-2.3346048E-2],"categories":[],"categories_nodes":[],"categories_segments":[],"categories_sizes":[],"default_left":[0,0,0,0,0,0,0,0,0,0,0,0,0,0,0,0,0,0,0],"id":25,"left_children":[1,3,5,7,9,-1,-1,-1,11,13,-1,-1,15,-1,17,-1,-1,-1,-1],"loss_changes":[8.67798E0,3.2410734E0,8.1636286E-1,3.2787375E0,2.992076E0,0E0,0E0,0E0,5.336917E0,1.1014986E0,0E0,0E0,4.6143646E0,0E0,9.593483E-1,0E0,0E0,0E0,0E0],"parents":[2147483647,0,0,1,1,2,2,3,3,4,4,8,8,9,9,12,12,14,14],"right_children":[2,4,6,8,10,-1,-1,-1,12,14,-1,-1,16,-1,18,-1,-1,-1,-1],"split_conditions":[7.588431E1,1.748785E0,2.1655818E3,-2.86349E-1,4.5566274E3,1.3475063E-2,4.2378258E-2,-2.5044588E-2,2.8477026E1,1.760468E0,7.992673E-3,4.445638E-2,8.422622E0,-3.0801935E-2,-8.070674E-1,-2.4145363E-2,2.0007093E-2,1.943535E-3,-2.3346048E-2],"split_indices":[1,30,11,9,20,0,0,0,0,24,0,0,32,0,8,0,0,0,0],"split_type":[0,0,0,0,0,0,0,0,0,0,0,0,0,0,0,0,0,0,0],"sum_hessian":[9.76644E1,8.416395E1,1.350045E1,3.70769E1,4.7087048E1,6.3463626E0,7.154087E0,8.630426E0,2.8446474E1,3.9477882E1,7.6091657E0,6.6835403E0,2.1762932E1,2.6414991E1,1.3062892E1,1.1795934E1,9.966999E0,6.5204883E0,6.542403E0],"tree_param":{"num_deleted":"0","num_feature":"40","num_nodes":"19","size_leaf_vector":"1"}},{"base_weights":[7.921827E-2,1.834945E-1,-3.148293E-2,1.2202451E-1,4.0748656E-2,3.1307623E-1,-1.6267532E-1,-3.6653906E-2,5.248262E-1,3.7340052E-2,-3.9928052E-1,3.4517515E-1,-2.6567062E-2,-3.075927E-3,6.5498996E-1,6.2037716E-3,-5.279105E-1,3.4669966E-2,-1.7055484E-3,3.9356895E-2,4.305083E-3,-6.6077295E-3,-3.1347673E-2],"categories":[],"categories_nodes":[],"categories_segments":[],"categories_sizes":[],"default_left":[0,0,0,0,0,0,0,0,0,0,0,0,0,0,0,0,0,0,0,0,0,0,0],"id":26,"left_children":[1,3,-1,5,-1,7,9,11,13,-1,15,17,-1,-1,19,-1,21,-1,-1,-1,-1,-1,-1],"loss_changes":[7.6614947E0,3.316556E0,0E0,4.619505E0,0E0,3.818942E0,7.5941153E0,3.9529371E0,2.5260115E0,0E0,1.9755096E0,1.6348238E0,0E0,0E0,1.817687E0,0E0,7.285323E-1,0E0,0E0,0E0,0E0,0E0,0E0],"parents":[2147483647,0,0,1,1,3,3,5,5,6,6,7,7,8,8,10,10,11,11,14,14,16,16],"right_children":[2,4,-1,6,-1,8,10,12,14,-1,16,18,-1,-1,20,-1,22,-1,-1,-1,-1,-1,-1],"split_conditions":[1.1672363E5,7.5790066E10,-3.148293E-2,4.999393E10,4.0748656E-2,3.693049E10,8.542327E-2,6.1169124E-1,8.351069E-2,3.7340052E-2,1.1993741E-1,-5.252685E-1,-2.6567062E-2,-3.075927E-3,4.289953E3,6.2037716E-3,1.04706516E5,3.4669966E-2,-1.7055484E-3,3.9356895E-2,4.305083E-3,-6.6077295E-3,-3.1347673E-2],"split_indices":[3,17,0,17,0,17,16,24,16,0,15,9,0,0,20,0,3,0,0,0,0,0,0],"split_type":[0,0,0,0,0,0,0,0,0,0,0,0,0,0,0,0,0,0,0,0,0,0,0],"sum_hessian":[1.016877E2,8.9416664E1,1.2271031E1,8.27164E1,6.7002645E0,4.96498E1,3.30666E1,1.8858086E1,3.0791712E1,6.294084E0,2.6772516E1,1.0699594E1,8.158493E0,5.549983E0,2.524173E1,5.1355453E0,2.1636972E1,5.2839036E0,5.41569E0,2.00296E1,5.2121305E0,5.00039E0,1.6636581E1],"tree_param":{"num_deleted":"0","num_feature":"40","num_nodes":"23","size_leaf_vector":"1"}},{"base_weights":[4.7798514E-2,-6.432593E-2,3.960383E-2,4.494049E-1,-1.3397154E-1,-0E0,4.1179698E-2,-3.274901E-2,-4.0054318E-2,4.162705E-1,-2.1068771E-1,-0E0,4.293935E-2,-5.95382E-2,-4.9893284E-1,-1.5426978E-2,1.6157059E-2,-1.4733468E-2,1.8380607E-2,-3.203387E-2,-6.1849137E-3],"categories":[],"categories_nodes":[],"categories_segments":[],"categories_sizes":[],"default_left":[0,0,0,0,0,0,0,0,0,0,0,0,0,0,0,0,0,0,0,0,0],"id":27,"left_children":[1,3,-1,5,7,-1,-1,-1,9,11,13,15,-1,17,19,-1,-1,-1,-1,-1,-1],"loss_changes":[9.164749E0,3.4263277E0,0E0,1.9765177E0,4.042271E0,0E0,0E0,0E0,5.741811E0,3.6907938E0,2.261358E0,1.226779E0,0E0,3.787096E0,8.1057405E-1,0E0,0E0,0E0,0E0,0E0,0E0],"parents":[2147483647,0,0,1,1,3,3,4,4,8,8,9,9,10,10,11,11,13,13,14,14],"right_children":[2,4,-1,6,8,-1,-1,-1,10,12,14,16,-1,18,20,-1,-1,-1,-1,-1,-1],"split_conditions":[1.16018664E5,-1.8195994E3,3.960383E-2,-1.11093235E1,-1.55594E0,-0E0,4.1179698E-2,-3.274901E-2,4.5296364E1,2.9390674E0,1.4031127E-1,-5.360023E-2,4.293935E-2,1.9007077E0,8.4949434E-1,-1.5426978E-2,1.6157059E-2,-1.4733468E-2,1.8380607E-2,-3.203387E-2,-6.1849137E-3],"split_indices":[5,11,0,26,8,0,0,0,2,21,16,22,0,29,15,0,0,0,0,0,0],"split_type":[0,0,0,0,0,0,0,0,0,0,0,0,0,0,0,0,0,0,0,0,0],"sum_hessian":[1.0733832E2,9.396225E1,1.3376065E1,1.0395173E1,8.356708E1,5.088382E0,5.3067913E0,1.1688115E1,7.187896E1,1.9011337E1,5.2867626E1,1.0305259E1,8.7060795E0,3.5700523E1,1.7167103E1,5.303281E0,5.0019774E0,2.3376722E1,1.23238E1,1.1753371E1,5.4137306E0],"tree_param":{"num_deleted":"0","num_feature":"40","num_nodes":"21","size_leaf_vector":"1"}},{"base_weights":[-8.588204E-2,-2.0416486E-1,6.5458363E-1,-8.515499E-2,-3.9109764E-1,4.3214094E-2,1.2920116E-2,-3.2026502E-1,2.5663936E-1,-5.0673544E-1,5.5212555E-3,-4.509576E-1,6.4535863E-3,-1.4833509E-2,4.7821602E-1,-3.216307E-2,-3.2509775E-3,-3.0806444E-3,-5.41788E-1,-0E0,3.5815354E-2,-3.1308986E-2,-1.15514835E-2],"categories":[],"categories_nodes":[],"categories_segments":[],"categories_sizes":[],"default_left":[0,0,0,0,0,0,0,0,0,0,0,0,0,0,0,0,0,0,0,0,0,0,0],"id":28,"left_children":[1,3,5,7,9,-1,-1,11,13,15,-1,17,-1,-1,19,-1,-1,-1,21,-1,-1,-1,-1],"loss_changes":[8.464775E0,1.7731559E0,7.688451E-1,4.309615E0,1.9406481E0,0E0,0E0,1.9542482E0,2.831327E0,1.4669981E0,0E0,7.897587E-1,0E0,0E0,1.774668E0,0E0,0E0,0E0,2.9202366E-1,0E0,0E0,0E0,0E0],"parents":[2147483647,0,0,1,1,2,2,3,3,4,4,7,7,8,8,9,9,11,11,14,14,18,18],"right_children":[2,4,6,8,10,-1,-1,12,14,16,-1,18,-1,-1,20,-1,-1,-1,22,-1,-1,-1,-1],"split_conditions":[7.588431E1,1.2741861E0,1.1848888E0,4.310696E1,8.2591064E1,4.3214094E-2,1.2920116E-2,-8.779085E-1,4.6378083E0,1.692495E-1,5.5212555E-3,-9.124999E0,6.4535863E-3,-1.4833509E-2,-3.5406563E0,-3.216307E-2,-3.2509775E-3,-3.0806444E-3,1.1339881E5,-0E0,3.5815354E-2,-3.1308986E-2,-1.15514835E-2],"split_indices":[1,25,31,1,0,0,0,25,31,16,0,25,0,0,25,0,0,0,7,0,0,0,0],"split_type":[0,0,0,0,0,0,0,0,0,0,0,0,0,0,0,0,0,0,0,0,0,0,0],"sum_hessian":[9.46355E1,8.23415E1,1.2293997E1,5.1527348E1,3.081415E1,7.1013327E0,5.1926646E0,3.0738691E1,2.0788658E1,2.5194069E1,5.6200814E0,2.398224E1,6.7564497E0,5.718502E0,1.5070156E1,1.8724129E1,6.4699388E0,5.0622363E0,1.8920006E1,5.448822E0,9.621334E0,1.3827983E1,5.092022E0],"tree_param":{"num_deleted":"0","num_feature":"40","num_nodes":"23","size_leaf_vector":"1"}},{"base_weights":[3.7663452E-2,1.264329E-1,-3.101029E-2,5.898064E-1,2.9645838E-2,4.272721E-2,6.165526E-3,2.2119656E-1,-2.1977028E-1,-2.8980827E-2,3.4110606E-1,9.965788E-2,-4.0847233E-1,4.7611438E-2,2.1005145E-1,2.1295266E-2,-1.2143862E-2,-5.7502866E-1,6.796586E-3,2.6570166E-2,-9.136985E-3,-3.3475652E-2,-1.3422228E-2],"categories":[],"categories_nodes":[],"categories_segments":[],"categories_sizes":[],"default_left":[0,0,0,0,0,0,0,0,0,0,0,0,0,0,0,0,0,0,0,0,0,0,0],"id":29,"left_children":[1,3,-1,5,7,-1,-1,9,11,-1,13,15,17,-1,19,-1,-1,21,-1,-1,-1,-1,-1],"loss_changes":[6.3962483E0,4.2723064E0,0E0,1.8387923E0,3.9423745E0,0E0,0E0,4.669871E0,2.2220497E0,0E0,3.004435E0,1.6701791E0,2.1912873E0,0E0,4.6202593E0,0E0,0E0,2.4227428E-1,0E0,0E0,0E0,0E0,0E0],"parents":[2147483647,0,0,1,1,3,3,4,4,7,7,8,8,10,10,11,11,12,12,14,14,17,17],"right_children":[2,4,-1,6,8,-1,-1,10,12,-1,14,16,18,-1,20,-1,-1,22,-1,-1,-1,-1,-1],"split_conditions":[1.1672363E5,-4.3880277E0,-3.101029E-2,9.529931E-2,9.483772E-1,4.272721E-2,6.165526E-3,2.7159923E10,1.858767E0,-2.8980827E-2,3.0617383E0,7.894544E-1,1.2293413E0,4.7611438E-2,5.0312335E10,2.1295266E-2,-1.2143862E-2,3.152391E0,6.796586E-3,2.6570166E-2,-9.136985E-3,-3.3475652E-2,-1.3422228E-2],"split_indices":[3,24,0,15,18,0,0,17,29,0,32,15,19,0,17,0,0,23,0,0,0,0,0],"split_type":[0,0,0,0,0,0,0,0,0,0,0,0,0,0,0,0,0,0,0,0,0,0,0],"sum_hessian":[1.0803003E2,9.603182E1,1.1998212E1,1.5534151E1,8.0497665E1,9.242695E0,6.291456E0,4.5821213E1,3.4676456E1,5.359585E0,4.0461628E1,1.285608E1,2.1820375E1,5.903588E0,3.455804E1,6.6094556E0,6.2466245E0,1.6806108E1,5.014268E0,1.8953457E1,1.5604582E1,1.16926565E1,5.1134515E0],"tree_param":{"num_deleted":"0","num_feature":"40","num_nodes":"23","size_leaf_vector":"1"}},{"base_weights":[3.7149042E-2,-5.3334888E-2,6.2362015E-1,2.5861744E-2,-1.1395159E-1,8.260175E-3,4.4183567E-2,5.124277E-2,-4.369985E-1,-2.4228542E-1,2.5974405E-1,-3.156447E-2,-1.8837427E-1,-2.8058005E-2,4.2288087E-2,4.343861E-1,-2.2564769E-2,-2.9843722E-2,1.2009032E-2,-1.8067999E-2,2.7471313E-2,7.568942E-5,2.7789444E-2],"categories":[],"categories_nodes":[],"categories_segments":[],"categories_sizes":[],"default_left":[0,0,0,0,0,0,0,0,0,0,0,0,0,0,0,0,0,0,0,0,0,0,0],"id":30,"left_children":[1,3,5,-1,7,-1,-1,9,11,13,15,-1,17,-1,19,21,-1,-1,-1,-1,-1,-1,-1],"loss_changes":[5.509255E0,3.1051152E0,1.4032855E0,0E0,4.4181986E0,0E0,0E0,3.413199E0,1.1485415E0,2.166491E0,4.2514524E0,0E0,2.6133528E0,0E0,2.8662117E0,1.3545504E0,0E0,0E0,0E0,0E0,0E0,0E0,0E0],"parents":[2147483647,0,0,1,1,2,2,4,4,7,7,8,8,9,9,10,10,12,12,14,14,15,15],"right_children":[2,4,6,-1,8,-1,-1,10,12,14,16,-1,18,-1,20,22,-1,-1,-1,-1,-1,-1,-1],"split_conditions":[1.1605122E5,-2.0212351E3,-1.7817768E0,2.5861744E-2,1.4031127E-1,8.260175E-3,4.4183567E-2,-3.739985E-1,4.6440116E10,3.0222425E1,8.6264527E-1,-3.156447E-2,5.3530926E1,-2.8058005E-2,1.9002709E0,4.846085E0,-2.2564769E-2,-2.9843722E-2,1.2009032E-2,-1.8067999E-2,2.7471313E-2,7.568942E-5,2.7789444E-2],"split_indices":[5,11,24,0,16,0,0,25,17,0,15,0,0,0,29,32,0,0,0,0,0,0,0],"split_type":[0,0,0,0,0,0,0,0,0,0,0,0,0,0,0,0,0,0,0,0,0,0,0],"sum_hessian":[1.0111707E2,8.824128E1,1.2875795E1,7.592491E0,8.064879E1,5.3915024E0,7.4842925E0,5.3713497E1,2.6935291E1,2.2041632E1,3.1671864E1,1.40300045E1,1.2905286E1,1.0101742E1,1.1939889E1,2.5851955E1,5.81991E0,6.525621E0,6.3796654E0,6.698555E0,5.241334E0,6.064526E0,1.9787428E1],"tree_param":{"num_deleted":"0","num_feature":"40","num_nodes":"23","size_leaf_vector":"1"}},{"base_weights":[-5.8773983E-2,-1.5444408E-1,4.48648E-1,-2.0354258E-1,2.4658633E-2,3.602552E-2,-4.4034477E-3,-2.5012514E-1,1.9047147E-2,1.8466876E-1,-3.2827199E-1,2.1961698E-2,-5.043001E-3,-5.417006E-1,-2.1274702E-1,-1.1388184E-2,-3.125223E-2,5.3879693E-3,-1.5623051E-2],"categories":[],"categories_nodes":[],"categories_segments":[],"categories_sizes":[],"default_left":[0,0,0,0,0,0,0,0,0,0,0,0,0,0,0,0,0,0,0],"id":31,"left_children":[1,3,5,7,-1,-1,-1,9,-1,11,13,-1,-1,15,17,-1,-1,-1,-1],"loss_changes":[4.788822E0,2.7174683E0,2.4041996E0,2.211446E0,0E0,0E0,0E0,2.5619297E0,0E0,9.2100775E-1,1.3527298E0,0E0,0E0,3.2267332E-1,1.4144595E0,0E0,0E0,0E0,0E0],"parents":[2147483647,0,0,1,1,2,2,3,3,7,7,9,9,10,10,13,13,14,14],"right_children":[2,4,6,8,-1,-1,-1,10,-1,12,14,-1,-1,16,18,-1,-1,-1,-1],"split_conditions":[2.8678655E3,9.2524216E1,3.5958691E3,1.1484091E5,2.4658633E-2,3.602552E-2,-4.4034477E-3,7.751877E4,1.9047147E-2,3.967284E1,-6.510133E-1,2.1961698E-2,-5.043001E-3,-1.3684341E3,-1.4743631E0,-1.1388184E-2,-3.125223E-2,5.3879693E-3,-1.5623051E-2],"split_indices":[10,0,11,7,0,0,0,14,0,0,22,0,0,11,8,0,0,0,0],"split_type":[0,0,0,0,0,0,0,0,0,0,0,0,0,0,0,0,0,0,0],"sum_hessian":[9.682555E1,8.221694E1,1.4608601E1,7.720391E1,5.013029E0,9.593232E0,5.015368E0,7.219337E1,5.0105467E0,1.0596084E1,6.1597282E1,5.5023417E0,5.0937414E0,2.003276E1,4.156452E1,5.2373962E0,1.4795364E1,9.60572E0,3.1958803E1],"tree_param":{"num_deleted":"0","num_feature":"40","num_nodes":"19","size_leaf_vector":"1"}},{"base_weights":[1.7110785E-2,2.8089422E-1,-1.7288588E-1,-1.3149305E-1,4.5007375E-1,2.0838039E-1,-4.9616948E-1,2.4787836E-2,-3.1511616E-2,6.969503E-1,9.979707E-2,-2.4425004E-2,3.9202264E-1,4.2192563E-3,-6.110392E-1,4.957303E-2,1.6166762E-2,-1.36547955E-2,3.2931145E-2,6.46784E-1,-1.1655245E-2,-1.457877E-2,-3.3230674E-2,1.1877226E-2,3.9613497E-2],"categories":[],"categories_nodes":[],"categories_segments":[],"categories_sizes":[],"default_left":[0,0,0,0,0,0,0,0,0,0,0,0,0,0,0,0,0,0,0,0,0,0,0,0,0],"id":32,"left_children":[1,3,5,7,9,11,13,-1,-1,15,17,-1,19,-1,21,-1,-1,-1,-1,23,-1,-1,-1,-1,-1],"loss_changes":[5.4293327E0,3.262905E0,7.8583217E0,4.6515656E0,2.6729727E0,3.9347162E0,2.3955412E0,0E0,0E0,1.6175613E0,3.3081114E0,0E0,3.994743E0,0E0,2.0604897E-1,0E0,0E0,0E0,0E0,7.413521E-1,0E0,0E0,0E0,0E0,0E0],"parents":[2147483647,0,0,1,1,2,2,3,3,4,4,5,5,6,6,9,9,10,10,12,12,14,14,19,19],"right_children":[2,4,6,8,10,12,14,-1,-1,16,18,-1,20,-1,22,-1,-1,-1,-1,24,-1,-1,-1,-1,-1],"split_conditions":[4.5813244E1,3.2906933E1,4.8308986E10,9.4440516E4,3.7352245E1,-4.3199202E-1,2.565638E3,2.4787836E-2,-3.1511616E-2,4.32957E1,5.5931427E1,-2.4425004E-2,7.588431E1,4.2192563E-3,7.3720247E-1,4.957303E-2,1.6166762E-2,-1.36547955E-2,3.2931145E-2,5.2441055E1,-1.1655245E-2,-1.457877E-2,-3.3230674E-2,1.1877226E-2,3.9613497E-2],"split_indices":[1,2,17,4,0,8,20,0,0,2,0,0,1,0,18,0,0,0,0,2,0,0,0,0,0],"split_type":[0,0,0,0,0,0,0,0,0,0,0,0,0,0,0,0,0,0,0,0,0,0,0,0,0],"sum_hessian":[1.06146576E2,4.446338E1,6.1683193E1,1.2827382E1,3.1635998E1,2.8324564E1,3.3358627E1,5.595526E0,7.231856E0,1.780896E1,1.3827038E1,5.447593E0,2.2876972E1,5.410196E0,2.7948433E1,8.884336E0,8.924623E0,8.492515E0,5.3345227E0,1.6342255E1,6.5347166E0,5.207151E0,2.2741282E1,5.1567817E0,1.1185473E1],"tree_param":{"num_deleted":"0","num_feature":"40","num_nodes":"25","size_leaf_vector":"1"}},{"base_weights":[3.5305534E-2,-6.369145E-2,3.578715E-2,-2.6018462E-1,1.8299459E-1,2.1751245E-2,-4.0727273E-1,-2.4390494E-2,4.6125612E-1,-3.0236846E-2,-1.8869752E-1,6.53717E-1,-1.5052626E-2,-3.9930546E-1,1.6392434E-2,4.0561063E-3,4.8487183E-2,-3.5646472E-3,-3.27512E-2],"categories":[],"categories_nodes":[],"categories_segments":[],"categories_sizes":[],"default_left":[0,0,0,0,0,0,0,0,0,0,0,0,0,0,0,0,0,0,0],"id":33,"left_children":[1,3,-1,5,7,-1,9,-1,11,-1,13,15,-1,17,-1,-1,-1,-1,-1],"loss_changes":[7.1185565E0,4.4958253E0,0E0,5.4540167E0,7.8713403E0,0E0,1.673244E0,0E0,4.5723395E0,0E0,2.5555117E0,4.166379E0,0E0,1.2540889E0,0E0,0E0,0E0,0E0,0E0],"parents":[2147483647,0,0,1,1,3,3,4,4,6,6,8,8,10,10,11,11,13,13],"right_children":[2,4,-1,6,8,-1,10,-1,12,-1,14,16,-1,18,-1,-1,-1,-1,-1],"split_conditions":[1.16149234E5,2.9829016E0,3.578715E-2,9.883148E-1,7.860772E4,2.1751245E-2,2.733586E3,-2.4390494E-2,7.520394E10,-3.0236846E-2,3.9143815E0,-3.4790964E0,-1.5052626E-2,2.856705E-1,1.6392434E-2,4.0561063E-3,4.8487183E-2,-3.5646472E-3,-3.27512E-2],"split_indices":[5,21,0,30,14,0,20,0,17,0,25,23,0,24,0,0,0,0,0],"split_type":[0,0,0,0,0,0,0,0,0,0,0,0,0,0,0,0,0,0,0],"sum_hessian":[1.0303257E2,9.0609245E1,1.2423325E1,5.0630844E1,3.99784E1,8.380956E0,4.224989E1,1.1395311E1,2.8583088E1,2.1028336E1,2.1221552E1,2.3039831E1,5.5432577E0,1.5373842E1,5.84771E0,8.753277E0,1.4286553E1,7.4664307E0,7.907411E0],"tree_param":{"num_deleted":"0","num_feature":"40","num_nodes":"19","size_leaf_vector":"1"}},{"base_weights":[-5.3783126E-2,-1.153469E-1,3.0815858E-2,7.683213E-2,-2.5714818E-1,-1.844381E-1,4.3915924E-1,7.4955836E-2,-4.0075725E-1,-3.5314485E-1,1.2167967E-2,-7.6716556E-4,4.192896E-2,-1.7831488E-2,2.6836513E-2,-4.7753242E-1,2.4129476E-3,8.43973E-3,-3.0438667E-2,-2.8641406E-2,-0E0],"categories":[],"categories_nodes":[],"categories_segments":[],"categories_sizes":[],"default_left":[0,0,0,0,0,0,0,0,0,0,0,0,0,0,0,0,0,0,0,0,0],"id":34,"left_children":[1,3,-1,5,7,9,11,13,15,17,-1,-1,-1,-1,-1,19,-1,-1,-1,-1,-1],"loss_changes":[3.9593282E0,2.4471269E0,0E0,3.7045565E0,2.5142171E0,1.7300246E0,3.0688899E0,3.4280453E0,1.3157516E0,2.3887537E0,0E0,0E0,0E0,0E0,0E0,1.4036555E0,0E0,0E0,0E0,0E0,0E0],"parents":[2147483647,0,0,1,1,3,3,4,4,5,5,6,6,7,7,8,8,9,9,15,15],"right_children":[2,4,-1,6,8,10,12,14,16,18,-1,-1,-1,-1,-1,20,-1,-1,-1,-1,-1],"split_conditions":[7.431435E1,1.748785E0,3.0815858E-2,2.466937E0,-1.5394521E3,1.1387014E5,5.012708E1,2.396194E-1,4.1831494E3,9.2765087E-1,1.2167967E-2,-7.6716556E-4,4.192896E-2,-1.7831488E-2,2.6836513E-2,3.365731E0,2.4129476E-3,8.43973E-3,-3.0438667E-2,-2.8641406E-2,-0E0],"split_indices":[2,30,0,21,10,7,2,15,20,29,0,0,0,0,0,9,0,0,0,0,0],"split_type":[0,0,0,0,0,0,0,0,0,0,0,0,0,0,0,0,0,0,0,0,0],"sum_hessian":[9.446574E1,8.741207E1,7.053666E0,3.7008507E1,5.0403564E1,2.1627857E1,1.538065E1,1.5150019E1,3.5253544E1,1.5803736E1,5.8241224E0,7.526929E0,7.8537207E0,7.836746E0,7.3132725E0,3.0241837E1,5.0117083E0,5.1786075E0,1.0625129E1,2.4989408E1,5.2524285E0],"tree_param":{"num_deleted":"0","num_feature":"40","num_nodes":"21","size_leaf_vector":"1"}},{"base_weights":[9.691743E-3,1.288088E-1,-3.955834E-1,5.43253E-2,4.0674087E-2,-3.209957E-2,2.1675827E-2,2.1380731E-1,-2.3086694E-1,4.1650397E-1,-2.2295472E-1,-4.9538597E-1,8.4912896E-2,5.8440175E-2,7.5373363E-1,-3.0007938E-2,2.1164503E-3,-7.33325E-3,-3.214835E-2,2.630126E-2,-1.3173717E-2,2.6712874E-2,-1.5558079E-2,4.7197696E-2,1.1690336E-2],"categories":[],"categories_nodes":[],"categories_segments":[],"categories_sizes":[],"default_left":[0,0,0,0,0,0,0,0,0,0,0,0,0,0,0,0,0,0,0,0,0,0,0,0,0],"id":35,"left_children":[1,3,5,7,-1,-1,-1,9,11,13,15,17,19,21,23,-1,-1,-1,-1,-1,-1,-1,-1,-1,-1],"loss_changes":[5.133729E0,4.0886745E0,5.2220635E0,3.49656E0,0E0,0E0,0E0,4.4835424E0,2.3761475E0,4.0080233E0,1.6968994E0,6.119306E-1,2.1925876E0,3.32421E0,1.3823986E0,0E0,0E0,0E0,0E0,0E0,0E0,0E0,0E0,0E0,0E0],"parents":[2147483647,0,0,1,1,2,2,3,3,7,7,8,8,9,9,10,10,11,11,12,12,13,13,14,14],"right_children":[2,4,6,8,-1,-1,-1,10,12,14,16,18,20,22,24,-1,-1,-1,-1,-1,-1,-1,-1,-1,-1],"split_conditions":[1.1346006E5,1.0661153E5,1.12565664E5,1.1121066E5,4.0674087E-2,-3.209957E-2,2.1675827E-2,2.0259125E0,1.0845957E5,1.0014043E5,3.7028196E10,-8.4656995E2,-1.7211723E0,-9.452268E-1,1.0139075E5,-3.0007938E-2,2.1164503E-3,-7.33325E-3,-3.214835E-2,2.630126E-2,-1.3173717E-2,2.6712874E-2,-1.5558079E-2,4.7197696E-2,1.1690336E-2],"split_indices":[4,14,14,13,0,0,0,24,5,13,17,12,9,9,14,0,0,0,0,0,0,0,0,0,0],"split_type":[0,0,0,0,0,0,0,0,0,0,0,0,0,0,0,0,0,0,0,0,0,0,0,0,0],"sum_hessian":[1.0484014E2,8.174334E1,2.3096802E1,7.4828384E1,6.914954E0,1.8072079E1,5.024723E0,4.837667E1,2.6451715E1,3.3230217E1,1.5146452E1,1.4256985E1,1.219473E1,1.683014E1,1.640008E1,5.888411E0,9.25804E0,5.0338426E0,9.223142E0,5.2829046E0,6.9118257E0,7.2813516E0,9.548787E0,1.1269236E1,5.1308436E0],"tree_param":{"num_deleted":"0","num_feature":"40","num_nodes":"25","size_leaf_vector":"1"}},{"base_weights":[1.6381657E-2,-9.873979E-2,3.6516774E-2,2.3784809E-2,-1.7181595E-1,-5.243283E-1,-3.4851156E-2,-1.2854538E-2,-3.1099236E-2,1.3676073E-1,-4.595587E-1,-2.8792312E-2,2.6016173E-1,-3.186746E-2,-3.5849665E-4,1.5729325E-3,2.5821006E-2],"categories":[],"categories_nodes":[],"categories_segments":[],"categories_sizes":[],"default_left":[0,0,0,0,0,0,0,0,0,0,0,0,0,0,0,0,0],"id":36,"left_children":[1,3,-1,-1,5,7,9,-1,-1,11,13,-1,15,-1,-1,-1,-1],"loss_changes":[8.816681E0,3.9014473E0,0E0,0E0,3.8972824E0,3.456769E-1,4.505747E0,0E0,0E0,3.9612904E0,1.3636308E0,0E0,2.159561E0,0E0,0E0,0E0,0E0],"parents":[2147483647,0,0,1,1,4,4,5,5,6,6,9,9,10,10,12,12],"right_children":[2,4,-1,-1,6,8,10,-1,-1,12,14,-1,16,-1,-1,-1,-1],"split_conditions":[1.16149234E5,9.801504E-1,3.6516774E-2,2.3784809E-2,2.658746E3,1.1070142E2,2.4074962E0,-1.2854538E-2,-3.1099236E-2,1.3779124E0,5.1626354E-1,-2.8792312E-2,3.0138807E0,-3.186746E-2,-3.5849665E-4,1.5729325E-3,2.5821006E-2],"split_indices":[5,30,0,0,20,11,30,0,0,29,15,0,21,0,0,0,0],"split_type":[0,0,0,0,0,0,0,0,0,0,0,0,0,0,0,0,0],"sum_hessian":[1.046243E2,9.0718094E1,1.3906199E1,9.461924E0,8.125617E1,2.1741306E1,5.951487E1,7.0648613E0,1.4676444E1,4.270255E1,1.6812317E1,5.6424007E0,3.706015E1,1.1616921E1,5.1953964E0,2.0382425E1,1.6677723E1],"tree_param":{"num_deleted":"0","num_feature":"40","num_nodes":"17","size_leaf_vector":"1"}},{"base_weights":[-7.042176E-2,-1.9561777E-1,3.722953E-1,-2.5722155E-1,2.521196E-2,6.011366E-1,-8.209928E-3,-4.144836E-1,2.539826E-2,4.5191195E-2,6.103319E-3,-5.6297034E-1,-1.8626365E-1,2.3143704E-1,-1.9085404E-2,-1.2039266E-2,-3.1300947E-2,1.1645494E-2,-2.2753796E-2,4.6296972E-1,-1.2447117E-2,4.2281162E-2,-0E0],"categories":[],"categories_nodes":[],"categories_segments":[],"categories_sizes":[],"default_left":[0,0,0,0,0,0,0,0,0,0,0,0,0,0,0,0,0,0,0,0,0,0,0],"id":37,"left_children":[1,3,5,7,-1,9,-1,11,13,-1,-1,15,17,19,-1,-1,-1,-1,-1,21,-1,-1,-1],"loss_changes":[5.2041574E0,3.2631004E0,2.6773515E0,3.0769525E0,0E0,1.9359708E0,0E0,1.3129668E0,2.175983E0,0E0,0E0,2.892437E-1,2.2829843E0,2.0752444E0,0E0,0E0,0E0,0E0,0E0,2.133794E0,0E0,0E0,0E0],"parents":[2147483647,0,0,1,1,2,2,3,3,5,5,7,7,8,8,11,11,12,12,13,13,19,19],"right_children":[2,4,6,8,-1,10,-1,12,14,-1,-1,16,18,20,-1,-1,-1,-1,-1,22,-1,-1,-1],"split_conditions":[2.1422498E0,4.271898E0,3.6368901E3,1.1327311E5,2.521196E-2,1.3017104E1,-8.209928E-3,-4.1968888E-1,1.1781639E0,4.5191195E-2,6.103319E-3,8.40764E4,4.652221E1,9.690618E-1,-1.9085404E-2,-1.2039266E-2,-3.1300947E-2,1.1645494E-2,-2.2753796E-2,4E0,-1.2447117E-2,4.2281162E-2,-0E0],"split_indices":[8,29,11,7,0,26,0,9,18,0,0,3,1,22,0,0,0,0,0,33,0,0,0],"split_type":[0,0,0,0,0,0,0,0,0,0,0,0,0,0,0,0,0,0,0,0,0,0,0],"sum_hessian":[9.189792E1,7.2250275E1,1.9647642E1,6.71177E1,5.132576E0,1.3819038E1,5.8286033E0,4.305003E1,2.406767E1,7.7972217E0,6.0218167E0,2.492689E1,1.812314E1,1.6429667E1,7.638004E0,5.1278987E0,1.9798992E1,6.987971E0,1.113517E1,1.1251225E1,5.178442E0,5.656238E0,5.5949874E0],"tree_param":{"num_deleted":"0","num_feature":"40","num_nodes":"23","size_leaf_vector":"1"}},{"base_weights":[9.170609E-3,8.3617024E-2,-2.9623298E-2,1.8686524E-1,-2.660272E-1,4.825131E-1,4.9153835E-2,1.1302947E-2,-4.929405E-1,2.3477788E-1,4.554663E-2,-2.5626043E-2,1.7903379E-1,-1.0636554E-2,-3.232258E-2,-1.5077789E-2,2.679354E-2,6.216372E-1,-6.412896E-2,4.4767722E-2,1.179977E-2,-1.580738E-2,2.0871205E-2],"categories":[],"categories_nodes":[],"categories_segments":[],"categories_sizes":[],"default_left":[0,0,0,0,0,0,0,0,0,0,0,0,0,0,0,0,0,0,0,0,0,0,0],"id":38,"left_children":[1,3,-1,5,7,9,11,-1,13,15,-1,-1,17,-1,-1,-1,-1,19,21,-1,-1,-1,-1],"loss_changes":[4.682766E0,3.4384065E0,0E0,2.9134402E0,2.5546484E0,2.112183E0,3.8118036E0,0E0,4.3319488E-1,2.7793605E0,0E0,0E0,4.6884007E0,0E0,0E0,0E0,0E0,1.2980738E0,3.5567195E0,0E0,0E0,0E0,0E0],"parents":[2147483647,0,0,1,1,3,3,4,4,5,5,6,6,8,8,9,9,12,12,17,17,18,18],"right_children":[2,4,-1,6,8,10,12,-1,14,16,-1,-1,18,-1,-1,-1,-1,20,22,-1,-1,-1,-1],"split_conditions":[1.161076E5,3.055391E0,-2.9623298E-2,9.5944266E4,2.4809744E3,9.0186305E4,1.0084188E5,1.1302947E-2,4.792795E0,3.6960657E0,4.554663E-2,-2.5626043E-2,1.5833251E0,-1.0636554E-2,-3.232258E-2,-1.5077789E-2,2.679354E-2,4.923045E1,1.4382248E1,4.4767722E-2,1.179977E-2,-1.580738E-2,2.0871205E-2],"split_indices":[3,24,0,7,20,5,7,0,24,21,0,0,29,0,0,0,0,1,31,0,0,0,0],"split_type":[0,0,0,0,0,0,0,0,0,0,0,0,0,0,0,0,0,0,0,0,0,0,0],"sum_hessian":[1.03580124E2,9.3088585E1,1.0491537E1,7.244692E1,2.0641659E1,2.199553E1,5.0451397E1,6.3765287E0,1.426513E1,1.5065354E1,6.930175E0,8.777302E0,4.1674095E1,6.1239862E0,8.141144E0,5.2967134E0,9.768641E0,1.4370952E1,2.7303143E1,7.4804873E0,6.8904643E0,1.8284943E1,9.018199E0],"tree_param":{"num_deleted":"0","num_feature":"40","num_nodes":"23","size_leaf_vector":"1"}},{"base_weights":[4.8139103E-2,-1.2374033E-1,3.1170923E-1,-3.8218233E-1,1.040535E-1,-1.5554286E-2,4.3205795E-1,-5.058688E-1,1.0574467E-4,2.7070257E-1,-2.7726186E-2,4.637559E-3,5.7208955E-1,-3.0443206E-2,-6.750623E-3,-0E0,5.8888704E-1,4.996044E-3,7.0124066E-1,2.3587935E-2,-2.0016646E-2,4.1364346E-2,1.12290215E-2,1.9680422E-2,4.22826E-2],"categories":[],"categories_nodes":[],"categories_segments":[],"categories_sizes":[],"default_left":[0,0,0,0,0,0,0,0,0,0,0,0,0,0,0,0,0,0,0,0,0,0,0,0,0],"id":39,"left_children":[1,3,5,7,9,-1,11,13,-1,15,-1,-1,17,-1,-1,19,21,-1,23,-1,-1,-1,-1,-1,-1],"loss_changes":[4.4139714E0,3.523023E0,3.0301359E0,1.3784146E0,3.6093483E0,0E0,1.4386859E0,6.577873E-1,0E0,2.301948E0,0E0,0E0,1.2409534E0,0E0,0E0,3.0137105E0,7.655058E-1,0E0,3.2423973E-1,0E0,0E0,0E0,0E0,0E0,0E0],"parents":[2147483647,0,0,1,1,2,2,3,3,4,4,6,6,7,7,9,9,12,12,15,15,16,16,18,18],"right_children":[2,4,6,8,10,-1,12,14,-1,16,-1,-1,18,-1,-1,20,22,-1,24,-1,-1,-1,-1,-1,-1],"split_conditions":[1.0153433E0,-6.6628814E-1,1.4604713E0,9.690618E-1,8.236972E0,-1.5554286E-2,1.0231213E5,4.8744114E1,1.0574467E-4,1.1147951E5,-2.7726186E-2,4.637559E-3,1.6009759E0,-3.0443206E-2,-6.750623E-3,4.2024387E1,1.0394374E0,4.996044E-3,1.3217273E-1,2.3587935E-2,-2.0016646E-2,4.1364346E-2,1.12290215E-2,1.9680422E-2,4.22826E-2],"split_indices":[19,25,31,22,26,0,6,2,0,13,0,0,30,0,0,2,24,0,16,0,0,0,0,0,0],"split_type":[0,0,0,0,0,0,0,0,0,0,0,0,0,0,0,0,0,0,0,0,0,0,0,0,0],"sum_hessian":[9.516741E1,5.7694664E1,3.7472748E1,2.6917187E1,3.077748E1,5.677315E0,3.1795431E1,2.0320787E1,6.5963993E0,2.5153368E1,5.62411E0,9.982818E0,2.1812614E1,1.5190587E1,5.1302004E0,1.3988977E1,1.1164391E1,5.232151E0,1.6580463E1,6.2437873E0,7.7451897E0,5.8142414E0,5.3501496E0,6.7082605E0,9.872203E0],"tree_param":{"num_deleted":"0","num_feature":"40","num_nodes":"25","size_leaf_vector":"1"}},{"base_weights":[-8.56569E-2,-1.7915167E-1,5.0429916E-1,-4.135027E-1,-6.558837E-2,3.8732223E-2,3.4710125E-3,-5.3139246E-1,1.8498367E-3,1.6091152E-1,-3.074169E-1,-3.0533433E-2,-1.1567822E-2,-1.8767639E-1,4.0565458E-1,-5.137007E-1,1.338883E-3,7.1718977E-3,-2.2543022E-2,-1.9744249E-2,7.586862E-1,-3.0210817E-2,-1.1738609E-2,-2.1017453E-2,2.3764594E-2,5.1815283E-2,1.5238044E-2],"categories":[],"categories_nodes":[],"categories_segments":[],"categories_sizes":[],"default_left":[0,0,0,0,0,0,0,0,0,0,0,0,0,0,0,0,0,0,0,0,0,0,0,0,0,0,0],"id":40,"left_children":[1,3,5,7,9,-1,-1,11,-1,13,15,-1,-1,17,19,21,23,-1,-1,-1,25,-1,-1,-1,-1,-1,-1],"loss_changes":[5.22359E0,2.1000166E0,1.3816738E0,1.4605932E0,3.1602838E0,0E0,0E0,2.741909E-1,0E0,2.6258814E0,1.8285987E0,0E0,0E0,1.2054212E0,5.392917E0,2.0141602E-1,2.5987668E0,0E0,0E0,0E0,1.1689501E0,0E0,0E0,0E0,0E0,0E0,0E0],"parents":[2147483647,0,0,1,1,2,2,3,3,4,4,7,7,9,9,10,10,13,13,14,14,15,15,16,16,20,20],"right_children":[2,4,6,8,10,-1,-1,12,-1,14,16,-1,-1,18,20,22,24,-1,-1,-1,26,-1,-1,-1,-1,-1,-1],"split_conditions":[7.588431E1,-3.684334E0,1.1587253E0,2.4841733E0,1.2741861E0,3.8732223E-2,3.4710125E-3,6.9939065E-1,1.8498367E-3,4.6378083E0,2.1618588E0,-3.0533433E-2,-1.1567822E-2,4.391348E1,3.4837547E-1,1.1129206E0,1.7138815E0,7.1718977E-3,-2.2543022E-2,-1.9744249E-2,3.1696423E3,-3.0210817E-2,-1.1738609E-2,-2.1017453E-2,2.3764594E-2,5.1815283E-2,1.5238044E-2],"split_indices":[1,25,31,30,25,0,0,23,0,31,24,0,0,0,15,18,29,0,0,0,20,0,0,0,0,0,0],"split_type":[0,0,0,0,0,0,0,0,0,0,0,0,0,0,0,0,0,0,0,0,0,0,0,0,0,0,0],"sum_hessian":[9.2654175E1,8.0726654E1,1.1927524E1,2.5200586E1,5.5526066E1,6.7315655E0,5.195958E0,2.0007343E1,5.1932435E0,2.8630983E1,2.6895082E1,1.4743237E1,5.2641063E0,1.1737633E1,1.689335E1,1.5919294E1,1.0975788E1,5.231217E0,6.506416E0,5.046965E0,1.1846386E1,1.0867833E1,5.0514607E0,5.756337E0,5.2194505E0,6.417917E0,5.428469E0],"tree_param":{"num_deleted":"0","num_feature":"40","num_nodes":"27","size_leaf_vector":"1"}},{"base_weights":[4.613888E-2,1.2287134E-1,-2.9153282E-2,1.6566871E-1,-2.3317546E-2,4.495829E-1,2.7903186E-2,-1.8715369E-2,7.3235804E-1,2.5300503E-1,-2.9288188E-1,4.1811377E-2,1.9130746E-2,7.219041E-2,3.4129184E-2,2.08618E-2,-2.8339893E-2,-2.3466678E-2,1.2383926E-2],"categories":[],"categories_nodes":[],"categories_segments":[],"categories_sizes":[],"default_left":[0,0,0,0,0,0,0,0,0,0,0,0,0,0,0,0,0,0,0],"id":41,"left_children":[1,3,-1,5,-1,7,9,-1,11,13,15,-1,-1,17,-1,-1,-1,-1,-1],"loss_changes":[5.103295E0,2.4354198E0,0E0,3.4282272E0,0E0,7.0278945E0,4.5004435E0,0E0,3.5359287E-1,2.7316175E0,5.2271204E0,0E0,0E0,2.6753602E0,0E0,0E0,0E0,0E0,0E0],"parents":[2147483647,0,0,1,1,3,3,5,5,6,6,8,8,9,9,10,10,13,13],"right_children":[2,4,-1,6,-1,8,10,-1,12,14,16,-1,-1,18,-1,-1,-1,-1,-1],"split_conditions":[1.1672363E5,7.431435E1,-2.9153282E-2,2.658746E3,-2.3317546E-2,9.4362724E-1,1.0580168E5,-1.8715369E-2,9.442543E-2,-3.430073E-1,3.6474186E1,4.1811377E-2,1.9130746E-2,4.091204E0,3.4129184E-2,2.08618E-2,-2.8339893E-2,-2.3466678E-2,1.2383926E-2],"split_indices":[3,2,0,20,0,29,4,0,16,8,1,0,0,21,0,0,0,0,0],"split_type":[0,0,0,0,0,0,0,0,0,0,0,0,0,0,0,0,0,0,0],"sum_hessian":[1.0417045E2,9.370645E1,1.0463996E1,8.8189476E1,5.516975E0,2.7835466E1,6.0354008E1,6.9394464E0,2.089602E1,3.5773792E1,2.4580217E1,1.4818272E1,6.0777493E0,2.616252E1,9.611273E0,6.594889E0,1.7985329E1,5.8539677E0,2.0308552E1],"tree_param":{"num_deleted":"0","num_feature":"40","num_nodes":"19","size_leaf_vector":"1"}},{"base_weights":[3.4215357E-2,-1.9419618E-1,2.6497406E-1,1.7859277E-1,-3.5437027E-1,3.8055605E-1,-1.939451E-2,-6.5672793E-3,3.1481303E-2,-4.7650158E-1,-7.972902E-2,1.2992728E-1,6.012166E-1,5.112996E-4,-3.0202106E-2,1.1228743E-2,-2.1762779E-2,-1.029072E-1,2.6722854E-2,1.6300835E-3,7.595096E-1,2.0994255E-2,-2.284455E-2,1.4661509E-2,4.5625918E-2],"categories":[],"categories_nodes":[],"categories_segments":[],"categories_sizes":[],"default_left":[0,0,0,0,0,0,0,0,0,0,0,0,0,0,0,0,0,0,0,0,0,0,0,0,0],"id":42,"left_children":[1,3,5,7,9,11,-1,-1,-1,13,15,17,19,-1,-1,-1,-1,21,-1,-1,23,-1,-1,-1,-1],"loss_changes":[5.67788E0,3.3015766E0,4.197134E0,2.4653277E0,1.1893992E0,2.4058204E0,0E0,0E0,0E0,1.6810403E0,1.5498164E0,2.2773004E0,2.0652456E0,0E0,0E0,0E0,0E0,3.0391521E0,0E0,0E0,9.438391E-1,0E0,0E0,0E0,0E0],"parents":[2147483647,0,0,1,1,2,2,3,3,4,4,5,5,9,9,10,10,11,11,12,12,17,17,20,20],"right_children":[2,4,6,8,10,12,-1,-1,-1,14,16,18,20,-1,-1,-1,-1,22,-1,-1,24,-1,-1,-1,-1],"split_conditions":[5.2518797E10,3.280362E10,7.5790066E10,3.6778712E-1,1.1132507E5,1.000779E0,-1.939451E-2,-6.5672793E-3,3.1481303E-2,4.3445354E1,9.622465E-1,2.9829016E0,1.6255571E0,5.112996E-4,-3.0202106E-2,1.1228743E-2,-2.1762779E-2,1.128898E5,2.6722854E-2,1.6300835E-3,-2.0559056E0,2.0994255E-2,-2.284455E-2,1.4661509E-2,4.5625918E-2],"split_indices":[17,17,17,24,13,19,0,0,0,2,19,21,30,0,0,0,0,7,0,0,22,0,0,0,0],"split_type":[0,0,0,0,0,0,0,0,0,0,0,0,0,0,0,0,0,0,0,0,0,0,0,0,0],"sum_hessian":[1.05612854E2,5.29382E1,5.267465E1,1.5687596E1,3.7250607E1,4.523635E1,7.4382977E0,9.5868435E0,6.1007533E0,2.5023636E1,1.222697E1,2.2136013E1,2.3100338E1,5.2238464E0,1.979979E1,6.6349835E0,5.5919867E0,1.4365881E1,7.7701316E0,5.43056E0,1.7669779E1,5.610768E0,8.755113E0,5.2477484E0,1.24220295E1],"tree_param":{"num_deleted":"0","num_feature":"40","num_nodes":"25","size_leaf_vector":"1"}},{"base_weights":[-6.260172E-2,-1.6217604E-1,3.472529E-2,-2.3109746E-1,1.9706825E-2,-3.8174522E-1,-5.7373852E-3,-4.5415998E-1,-1.5960181E-3,-2.0211404E-2,1.7664437E-1,-8.086531E-3,-5.553535E-1,4.3426827E-1,-1.2486751E-2,-1.4399121E-2,-3.0895233E-2,3.0905614E-2,1.1523506E-2],"categories":[],"categories_nodes":[],"categories_segments":[],"categories_sizes":[],"default_left":[0,0,0,0,0,0,0,0,0,0,0,0,0,0,0,0,0,0,0],"id":43,"left_children":[1,3,-1,5,-1,7,9,11,-1,-1,13,-1,15,17,-1,-1,-1,-1,-1],"loss_changes":[6.8678555E0,3.1705744E0,0E0,2.42491E0,0E0,1.0325413E0,2.3021896E0,8.8959885E-1,0E0,0E0,2.4738512E0,0E0,1.6168404E-1,2.9085135E-1,0E0,0E0,0E0,0E0,0E0],"parents":[2147483647,0,0,1,1,3,3,5,5,6,6,7,7,10,10,12,12,13,13],"right_children":[2,4,-1,6,-1,8,10,12,-1,-1,14,-1,16,18,-1,-1,-1,-1,-1],"split_conditions":[7.588431E1,6.3787E0,3.472529E-2,2.4453209E2,1.9706825E-2,1.7689122E0,2.4017007E0,8.885172E4,-1.5960181E-3,-2.0211404E-2,1.7793778E0,-8.086531E-3,2.959586E0,9.096148E2,-1.2486751E-2,-1.4399121E-2,-3.0895233E-2,3.0905614E-2,1.1523506E-2],"split_indices":[1,24,0,11,0,22,21,13,0,0,30,0,21,10,0,0,0,0,0],"split_type":[0,0,0,0,0,0,0,0,0,0,0,0,0,0,0,0,0,0,0],"sum_hessian":[8.9311646E1,7.974191E1,9.569733E0,7.163181E1,8.110102E0,4.2250626E1,2.9381191E1,3.4520645E1,7.7299786E0,9.015313E0,2.0365877E1,9.796663E0,2.4723984E1,1.2829911E1,7.5359664E0,6.053085E0,1.8670898E1,5.418395E0,7.411516E0],"tree_param":{"num_deleted":"0","num_feature":"40","num_nodes":"19","size_leaf_vector":"1"}},{"base_weights":[8.850924E-3,1.2740253E-1,-3.9943808E-1,4.351512E-1,-7.6076332E-3,-3.1024003E-2,1.3247087E-2,-1.01008415E-2,3.9303347E-2,-2.0694402E-1,4.7675675E-1,1.9043496E-2,-2.0826874E-2,1.0988255E-1,-4.988043E-1,5.7996315E-4,3.7349578E-2,-1.4823738E-2,3.5523883E-1,-4.928594E-3,-3.2769464E-2,-3.5059487E-3,3.4730017E-2],"categories":[],"categories_nodes":[],"categories_segments":[],"categories_sizes":[],"default_left":[0,0,0,0,0,0,0,0,0,0,0,0,0,0,0,0,0,0,0,0,0,0,0],"id":44,"left_children":[1,3,5,7,9,-1,-1,11,-1,13,15,-1,-1,17,19,-1,-1,-1,21,-1,-1,-1,-1],"loss_changes":[4.746517E0,3.227252E0,3.4319668E0,3.7713404E0,5.283005E0,0E0,0E0,1.9513295E0,0E0,3.707543E0,1.9132521E0,0E0,0E0,2.0448716E0,1.1564703E0,0E0,0E0,0E0,1.9445773E0,0E0,0E0,0E0,0E0],"parents":[2147483647,0,0,1,1,2,2,3,3,4,4,7,7,9,9,10,10,13,13,14,14,18,18],"right_children":[2,4,6,8,10,-1,-1,12,-1,14,16,-1,-1,18,20,-1,-1,-1,22,-1,-1,-1,-1],"split_conditions":[1.14111805E5,2.6731575E3,1.12022945E5,3.693049E10,1.4382248E1,-3.1024003E-2,1.3247087E-2,9.300491E4,3.9303347E-2,4.7952814E10,-2.733324E3,1.9043496E-2,-2.0826874E-2,-9.8768115E2,2.897717E3,5.7996315E-4,3.7349578E-2,-1.4823738E-2,2.8685447E3,-4.928594E-3,-3.2769464E-2,-3.5059487E-3,3.4730017E-2],"split_indices":[3,20,14,17,31,0,0,5,0,17,10,0,0,11,20,0,0,0,20,0,0,0,0],"split_type":[0,0,0,0,0,0,0,0,0,0,0,0,0,0,0,0,0,0,0,0,0,0,0],"sum_hessian":[9.657248E1,7.556435E1,2.100813E1,2.2589756E1,5.297459E1,1.5926055E1,5.082073E0,1.025904E1,1.2330717E1,3.8081608E1,1.4892982E1,5.1356635E0,5.123376E0,1.8394495E1,1.9687115E1,5.991953E0,8.901029E0,6.693257E0,1.1701238E1,6.1741304E0,1.3512984E1,5.4140024E0,6.2872353E0],"tree_param":{"num_deleted":"0","num_feature":"40","num_nodes":"23","size_leaf_vector":"1"}},{"base_weights":[8.935101E-2,-1.8702435E-1,2.8138155E-1,2.777539E-2,-3.0758573E-2,-1.9818498E-1,4.605938E-1,-2.5758883E-2,2.809143E-1,-3.0028895E-2,2.1163752E-2,2.4149403E-1,4.0063225E-2,1.1153779E-2,3.629798E-2,-1.02649294E-1,5.8398265E-1,-1.5238518E-2,2.3049947E-2,8.092801E-3,-2.3316452E-2,3.574238E-2,1.4389803E-2],"categories":[],"categories_nodes":[],"categories_segments":[],"categories_sizes":[],"default_left":[0,0,0,0,0,0,0,0,0,0,0,0,0,0,0,0,0,0,0,0,0,0,0],"id":45,"left_children":[1,3,5,7,-1,9,11,-1,13,-1,-1,15,-1,17,-1,19,21,-1,-1,-1,-1,-1,-1],"loss_changes":[5.2041473E0,3.7643938E0,5.0833726E0,3.9023015E0,0E0,4.339509E0,2.8755274E0,0E0,2.2634804E0,0E0,0E0,3.3474648E0,0E0,2.0488636E0,0E0,1.492451E0,2.3937082E-1,0E0,0E0,0E0,0E0,0E0,0E0],"parents":[2147483647,0,0,1,1,2,2,3,3,5,5,6,6,8,8,11,11,13,13,15,15,16,16],"right_children":[2,4,6,8,-1,10,12,-1,14,-1,-1,16,-1,18,-1,20,22,-1,-1,-1,-1,-1,-1],"split_conditions":[1.1114137E5,3.2934764E-1,2.6376602E3,-2.0500143E0,-3.0758573E-2,1.13572266E5,4.4883594E-2,-2.5758883E-2,4.4541124E-1,-3.0028895E-2,2.1163752E-2,1.0004982E0,4.0063225E-2,9.6529865E-1,3.629798E-2,9.69533E0,-7.401712E1,-1.5238518E-2,2.3049947E-2,8.092801E-3,-2.3316452E-2,3.574238E-2,1.4389803E-2],"split_indices":[13,9,20,9,0,7,25,0,22,0,0,19,0,19,0,31,11,0,0,0,0,0,0],"split_type":[0,0,0,0,0,0,0,0,0,0,0,0,0,0,0,0,0,0,0,0,0,0,0],"sum_hessian":[9.588793E1,3.9107998E1,5.6779934E1,2.6509731E1,1.2598268E1,1.5265652E1,4.1514282E1,7.9747143E0,1.8535017E1,9.384038E0,5.881614E0,2.6483826E1,1.50304575E1,1.23182E1,6.2168164E0,1.3413661E1,1.3070165E1,7.295092E0,5.023108E0,7.92776E0,5.485901E0,7.85045E0,5.219714E0],"tree_param":{"num_deleted":"0","num_feature":"40","num_nodes":"23","size_leaf_vector":"1"}},{"base_weights":[-9.333599E-2,-1.6902529E-1,3.8327762E-1,-2.2913511E-1,2.3646674E-1,2.961193E-2,1.6570969E-3,-1.3053557E-2,-4.2249885E-1,2.5720617E-2,-3.295928E-3,-1.4247237E-1,2.4364082E-2,-5.270745E-1,-1.6490713E-1,1.4112757E-1,-3.9390886E-1,-9.9237105E-3,-3.0989254E-2,9.82304E-3,-2.2276256E-2,-6.799914E-3,2.3351176E-2,-2.9333428E-2,-2.5444913E-3],"categories":[],"categories_nodes":[],"categories_segments":[],"categories_sizes":[],"default_left":[0,0,0,0,0,0,0,0,0,0,0,0,0,0,0,0,0,0,0,0,0,0,0,0,0],"id":46,"left_children":[1,3,5,7,9,-1,-1,11,13,-1,-1,15,-1,17,19,21,23,-1,-1,-1,-1,-1,-1,-1,-1],"loss_changes":[3.522367E0,2.103261E0,8.939483E-1,3.0412996E0,1.0145783E0,0E0,0E0,2.3793814E0,8.8792944E-1,0E0,0E0,2.1985526E0,0E0,6.12679E-1,1.4228766E0,1.4066842E0,9.770274E-1,0E0,0E0,0E0,0E0,0E0,0E0,0E0,0E0],"parents":[2147483647,0,0,1,1,2,2,3,3,4,4,7,7,8,8,11,11,13,13,14,14,15,15,16,16],"right_children":[2,4,6,8,10,-1,-1,12,14,-1,-1,16,-1,18,20,22,24,-1,-1,-1,-1,-1,-1,-1,-1],"split_conditions":[7.588431E1,4.8636065E0,1.1848888E0,1.748785E0,9.2551555E4,2.961193E-2,1.6570969E-3,1.21755375E5,1.1785377E5,2.5720617E-2,-3.295928E-3,1.0729811E5,2.4364082E-2,2.7100652E3,-1.7211723E0,-3.1254E-2,9.9709284E-1,-9.9237105E-3,-3.0989254E-2,9.82304E-3,-2.2276256E-2,-6.799914E-3,2.3351176E-2,-2.9333428E-2,-2.5444913E-3],"split_indices":[1,21,31,30,13,0,0,13,13,0,0,4,0,20,9,23,18,0,0,0,0,0,0,0,0],"split_type":[0,0,0,0,0,0,0,0,0,0,0,0,0,0,0,0,0,0,0,0,0,0,0,0,0],"sum_hessian":[9.5439415E1,8.309808E1,1.23413315E1,7.2963554E1,1.0134526E1,7.116905E0,5.2244267E0,3.520598E1,3.7757576E1,5.0876226E0,5.046903E0,2.8697956E1,6.508023E0,2.5834892E1,1.1922681E1,1.3505664E1,1.5192293E1,6.6135306E0,1.9221363E1,5.1868367E0,6.7358446E0,7.448054E0,6.05761E0,9.085086E0,6.1072073E0],"tree_param":{"num_deleted":"0","num_feature":"40","num_nodes":"25","size_leaf_vector":"1"}},{"base_weights":[4.1803464E-2,1.722312E-1,-4.3937007E-1,2.8646457E-1,-1.4976525E-1,-3.100062E-2,6.0825576E-3,-5.27977E-3,4.057437E-1,-3.0194795E-1,1.2379178E-2,2.2905156E-2,-2.1998012E-2,5.8672553E-1,4.2882174E-2,2.5691476E-3,-3.1767085E-2,5.255499E-3,6.811849E-1,2.0748777E-2,-2.8561775E-2,3.937667E-2,1.4329913E-2],"categories":[],"categories_nodes":[],"categories_segments":[],"categories_sizes":[],"default_left":[0,0,0,0,0,0,0,0,0,0,0,0,0,0,0,0,0,0,0,0,0,0,0],"id":47,"left_children":[1,3,5,7,9,-1,-1,11,13,15,-1,-1,-1,17,19,-1,-1,-1,21,-1,-1,-1,-1],"loss_changes":[6.4573565E0,3.0439951E0,2.3441076E0,2.1483097E0,1.3921196E0,0E0,0E0,3.8872921E0,2.749864E0,2.0135012E0,0E0,0E0,0E0,1.1495552E0,3.796203E0,0E0,0E0,0E0,6.5429306E-1,0E0,0E0,0E0,0E0],"parents":[2147483647,0,0,1,1,2,2,3,3,4,4,7,7,8,8,9,9,13,13,14,14,18,18],"right_children":[2,4,6,8,10,-1,-1,12,14,16,-1,-1,-1,18,20,-1,-1,-1,22,-1,-1,-1,-1],"split_conditions":[1.1361438E5,2.2316883E0,1.12022945E5,3.9619488E1,5.7625446E2,-3.100062E-2,6.0825576E-3,-3.8525482E2,8.97278E2,3E0,1.2379178E-2,2.2905156E-2,-2.1998012E-2,3.238098E10,1.0593102E5,2.5691476E-3,-3.1767085E-2,5.255499E-3,6.056522E10,2.0748777E-2,-2.8561775E-2,3.937667E-2,1.4329913E-2],"split_indices":[4,23,14,2,12,0,0,12,11,33,0,0,0,17,4,0,0,0,17,0,0,0,0],"split_type":[0,0,0,0,0,0,0,0,0,0,0,0,0,0,0,0,0,0,0,0,0,0,0],"sum_hessian":[1.01112236E2,8.021807E1,2.0894165E1,5.9522446E1,2.0695623E1,1.5860397E1,5.0337667E0,1.7307493E1,4.2214954E1,1.5319926E1,5.375697E0,8.2397375E0,9.067755E0,2.7571024E1,1.46439295E1,7.702619E0,7.617307E0,5.040856E0,2.2530169E1,9.42216E0,5.2217693E0,1.6762964E1,5.7672048E0],"tree_param":{"num_deleted":"0","num_feature":"40","num_nodes":"23","size_leaf_vector":"1"}},{"base_weights":[1.6315822E-2,-7.952398E-2,5.6261504E-1,1.4341208E-1,-2.4682845E-1,4.7590546E-3,3.9937936E-2,-1.22985244E-1,5.759177E-1,1.9974591E-2,-3.4427962E-1,1.6384466E-2,-4.4462216E-1,1.0037678E-2,3.7896093E-2,4.1294103E-3,-4.4289732E-1,-2.9998718E-2,-5.704434E-3,-2.7930677E-2,-3.7792379E-3],"categories":[],"categories_nodes":[],"categories_segments":[],"categories_sizes":[],"default_left":[0,0,0,0,0,0,0,0,0,0,0,0,0,0,0,0,0,0,0,0,0],"id":48,"left_children":[1,3,5,7,9,-1,-1,11,13,-1,15,-1,17,-1,-1,-1,19,-1,-1,-1,-1],"loss_changes":[5.340796E0,3.2530396E0,1.5166774E0,4.407121E0,3.2654033E0,0E0,0E0,3.596821E0,7.430496E-1,0E0,1.9207301E0,0E0,5.995648E-1,0E0,0E0,0E0,1.4249363E0,0E0,0E0,0E0,0E0],"parents":[2147483647,0,0,1,1,2,2,3,3,4,4,7,7,8,8,10,10,12,12,16,16],"right_children":[2,4,6,8,10,-1,-1,12,14,-1,16,-1,18,-1,-1,-1,20,-1,-1,-1,-1],"split_conditions":[1.16149234E5,-5.7610596E2,-2.2138326E0,-1.2906841E0,9.801504E-1,4.7590546E-3,3.9937936E-2,-2.186047E3,8.3397204E-1,1.9974591E-2,-1.3916231E-2,1.6384466E-2,-1.55594E0,1.0037678E-2,3.7896093E-2,4.1294103E-3,3.1890479E3,-2.9998718E-2,-5.704434E-3,-2.7930677E-2,-3.7792379E-3],"split_indices":[5,10,24,8,30,0,0,10,18,0,28,0,8,0,0,0,10,0,0,0,0],"split_type":[0,0,0,0,0,0,0,0,0,0,0,0,0,0,0,0,0,0,0,0,0],"sum_hessian":[9.9229675E1,8.499074E1,1.4238937E1,3.624232E1,4.8748417E1,5.392098E0,8.846839E0,2.2727802E1,1.3514519E1,5.8466215E0,4.2901794E1,9.327905E0,1.3399898E1,5.28109E0,8.233429E0,7.891569E0,3.5010227E1,8.355205E0,5.0446935E0,2.6019972E1,8.990255E0],"tree_param":{"num_deleted":"0","num_feature":"40","num_nodes":"21","size_leaf_vector":"1"}},{"base_weights":[-7.016008E-2,-1.6378139E-1,3.3745268E-1,-2.131811E-1,2.0384135E-2,5.6070626E-1,-7.025353E-3,-1.2709704E-1,-2.6684193E-2,1.1422963E-2,3.7398662E-2,-2.145738E-1,1.4887075E-2,-2.7986684E-1,1.0040047E-2,2.8420023E-3,-1.9300977E-2],"categories":[],"categories_nodes":[],"categories_segments":[],"categories_sizes":[],"default_left":[0,0,0,0,0,0,0,0,0,0,0,0,0,0,0,0,0],"id":49,"left_children":[1,3,5,7,-1,9,-1,11,-1,-1,-1,13,-1,15,-1,-1,-1],"loss_changes":[3.6887727E0,2.2884123E0,2.04115E0,1.886549E0,0E0,5.160415E-1,0E0,2.2588024E0,0E0,0E0,0E0,1.4184885E0,0E0,1.6196837E0,0E0,0E0,0E0],"parents":[2147483647,0,0,1,1,2,2,3,3,5,5,7,7,11,11,13,13],"right_children":[2,4,6,8,-1,10,-1,12,-1,-1,-1,14,-1,16,-1,-1,-1],"split_conditions":[2.1491652E0,7.3996706E0,3.3811472E3,1.1804658E0,2.0384135E-2,9.607456E4,-7.025353E-3,1.0637202E0,-2.6684193E-2,1.1422963E-2,3.7398662E-2,3.1829195E0,1.4887075E-2,2.6800644E1,1.0040047E-2,2.8420023E-3,-1.9300977E-2],"split_indices":[8,24,11,18,0,3,0,18,0,0,0,23,0,0,0,0,0],"split_type":[0,0,0,0,0,0,0,0,0,0,0,0,0,0,0,0,0],"sum_hessian":[9.466961E1,7.7673035E1,1.6996574E1,7.223103E1,5.442002E0,1.1609778E1,5.3867955E0,5.8284836E1,1.39462E1,5.177635E0,6.4321437E0,4.8938435E1,9.346399E0,4.2780685E1,6.157749E0,1.0140003E1,3.2640682E1],"tree_param":{"num_deleted":"0","num_feature":"40","num_nodes":"17","size_leaf_vector":"1"}},{"base_weights":[8.520176E-3,-5.55531E-2,3.6730077E-2,3.5074126E-2,-2.9387906E-2,3.2916588E-1,-1.3774917E-1,-2.790146E-2,5.476233E-1,2.8677803E-1,-3.185027E-1,6.8986243E-1,-0E0,3.3744063E-2,-1.8122183E-2,-1.9838397E-1,-2.9211206E-2,8.85821E-3,4.3275576E-2,2.8145058E-2,-2.0324344E-2],"categories":[],"categories_nodes":[],"categories_segments":[],"categories_sizes":[],"default_left":[0,0,0,0,0,0,0,0,0,0,0,0,0,0,0,0,0,0,0,0,0],"id":50,"left_children":[1,3,-1,5,-1,7,9,-1,11,13,15,17,-1,-1,-1,19,-1,-1,-1,-1,-1],"loss_changes":[4.772447E0,4.557682E0,0E0,4.1398826E0,0E0,6.1554556E0,4.0076256E0,0E0,1.936831E0,4.2038836E0,9.6783996E-1,1.5172939E0,0E0,0E0,0E0,4.4661565E0,0E0,0E0,0E0,0E0,0E0],"parents":[2147483647,0,0,1,1,3,3,5,5,6,6,8,8,9,9,10,10,11,11,15,15],"right_children":[2,4,-1,6,-1,8,10,-1,12,14,16,18,-1,-1,-1,20,-1,-1,-1,-1,-1],"split_conditions":[7.5790066E10,1.156404E5,3.6730077E-2,1.7138815E0,-2.9387906E-2,3.3571777E-1,7.783913E4,-2.790146E-2,2.9542383E3,4.1841993E0,3.794327E3,1.1505656E0,-0E0,3.3744063E-2,-1.8122183E-2,-1.2906841E0,-2.9211206E-2,8.85821E-3,4.3275576E-2,2.8145058E-2,-2.0324344E-2],"split_indices":[17,3,0,29,0,31,14,0,20,29,20,29,0,0,0,8,0,0,0,0,0],"split_type":[0,0,0,0,0,0,0,0,0,0,0,0,0,0,0,0,0,0,0,0,0],"sum_hessian":[9.924702E1,9.1921165E1,7.325848E0,7.91835E1,1.2737666E1,2.9188202E1,4.9995296E1,5.3695054E0,2.3818695E1,1.4589597E1,3.54057E1,1.8709059E1,5.1096377E0,9.202732E0,5.386865E0,2.584531E1,9.56039E0,5.4319115E0,1.3277146E1,5.0791693E0,2.0766142E1],"tree_param":{"num_deleted":"0","num_feature":"40","num_nodes":"21","size_leaf_vector":"1"}},{"base_weights":[5.69058E-2,-1.0312971E-2,5.174373E-1,1.9420636E-1,-1.7466098E-1,5.776344E-3,3.799372E-2,-2.8121801E-2,5.98048E-1,1.0659401E-2,-4.2223963E-1,-2.8633568E-1,1.9695008E-2,9.391654E-3,4.111513E-2,-3.1878665E-1,3.6524895E-1,-3.0172288E-2,-7.340648E-3,-2.6952524E-2,1.0890183E-2,-3.0839989E-2,9.824474E-3,3.9188735E-2,1.8692057E-3],"categories":[],"categories_nodes":[],"categories_segments":[],"categories_sizes":[],"default_left":[0,0,0,0,0,0,0,0,0,0,0,0,0,0,0,0,0,0,0,0,0,0,0,0,0],"id":51,"left_children":[1,3,5,7,9,-1,-1,11,13,15,17,19,-1,-1,-1,21,23,-1,-1,-1,-1,-1,-1,-1,-1],"loss_changes":[3.1916304E0,3.0295196E0,1.102109E0,3.6595173E0,2.3509102E0,0E0,0E0,2.9954503E0,1.0677943E0,3.5647871E0,9.2262673E-1,2.340751E0,0E0,0E0,0E0,2.5693674E0,1.9208143E0,0E0,0E0,0E0,0E0,0E0,0E0,0E0,0E0],"parents":[2147483647,0,0,1,1,2,2,3,3,4,4,7,7,8,8,9,9,10,10,11,11,15,15,16,16],"right_children":[2,4,6,8,10,-1,-1,12,14,16,18,20,-1,-1,-1,22,24,-1,-1,-1,-1,-1,-1,-1,-1],"split_conditions":[1.16018664E5,4.5296364E1,-9.342905E-1,-6.6628815E-3,1.2861706E-1,5.776344E-3,3.799372E-2,1.0237103E0,2.658746E3,5.2657368E1,4.3609345E-1,-1.3571251E3,1.9695008E-2,9.391654E-3,4.111513E-2,1.9007077E0,1.0372321E5,-3.0172288E-2,-7.340648E-3,-2.6952524E-2,1.0890183E-2,-3.0839989E-2,9.824474E-3,3.9188735E-2,1.8692057E-3],"split_indices":[5,2,24,27,16,0,0,19,20,1,22,10,0,0,0,29,7,0,0,0,0,0,0,0,0],"split_type":[0,0,0,0,0,0,0,0,0,0,0,0,0,0,0,0,0,0,0,0,0,0,0,0,0],"sum_hessian":[1.0029039E2,8.818016E1,1.2110232E1,3.8936424E1,4.9243736E1,5.2672415E0,6.842991E0,2.5551966E1,1.3384459E1,2.8479198E1,2.0764538E1,1.6199055E1,9.352913E0,5.537877E0,7.8465815E0,1.4669162E1,1.3810036E1,1.1587184E1,9.177353E0,1.08761635E1,5.3228903E0,9.292075E0,5.377086E0,5.321497E0,8.488539E0],"tree_param":{"num_deleted":"0","num_feature":"40","num_nodes":"25","size_leaf_vector":"1"}},{"base_weights":[-2.8277013E-2,-1.5197678E-1,4.5639694E-1,-2.3344336E-1,1.7750062E-1,-2.1371886E-3,6.6762275E-1,-1.3076726E-1,-2.931737E-2,2.6534269E-2,-4.487921E-3,1.8981377E-2,4.290811E-2,1.7449856E-2,-2.245629E-1,1.04862414E-1,-3.4941253E-1,-1.1104604E-2,2.0552073E-2,-2.9226912E-2,-1.0191378E-2],"categories":[],"categories_nodes":[],"categories_segments":[],"categories_sizes":[],"default_left":[0,0,0,0,0,0,0,0,0,0,0,0,0,0,0,0,0,0,0,0,0],"id":52,"left_children":[1,3,5,7,9,-1,11,13,-1,-1,-1,-1,-1,-1,15,17,19,-1,-1,-1,-1],"loss_changes":[5.473514E0,2.0099325E0,2.0432296E0,2.00061E0,1.4908139E0,0E0,2.7541304E-1,2.2010632E0,0E0,0E0,0E0,0E0,0E0,0E0,1.7256217E0,1.278614E0,8.2207465E-1,0E0,0E0,0E0,0E0],"parents":[2147483647,0,0,1,1,2,2,3,3,4,4,6,6,7,7,14,14,15,15,16,16],"right_children":[2,4,6,8,10,-1,12,14,-1,-1,-1,-1,-1,-1,16,18,20,-1,-1,-1,-1],"split_conditions":[2.1491652E0,3.1829195E0,9.483772E-1,1.1781639E0,9.4378793E-1,-2.1371886E-3,7.567302E1,1E0,-2.931737E-2,2.6534269E-2,-4.487921E-3,1.8981377E-2,4.290811E-2,1.7449856E-2,2.81853E1,-7.8009766E-1,8.504107E-1,-1.1104604E-2,2.0552073E-2,-2.9226912E-2,-1.0191378E-2],"split_indices":[8,23,18,18,18,0,1,33,0,0,0,0,0,0,0,26,19,0,0,0,0],"split_type":[0,0,0,0,0,0,0,0,0,0,0,0,0,0,0,0,0,0,0,0,0],"sum_hessian":[8.9645996E1,7.212964E1,1.7516357E1,5.8307507E1,1.382213E1,5.304851E0,1.2211506E1,4.6447647E1,1.1859859E1,5.6905446E0,8.131586E0,6.262744E0,5.9487615E0,6.9764023E0,3.9471245E1,1.0671858E1,2.8799387E1,5.1357036E0,5.5361543E0,9.597327E0,1.9202059E1],"tree_param":{"num_deleted":"0","num_feature":"40","num_nodes":"21","size_leaf_vector":"1"}},{"base_weights":[4.568434E-2,2.879878E-1,-1.3448535E-1,-6.9478983E-3,4.1187042E-1,1.6459297E-1,-4.2504933E-1,4.9857146E-1,-2.2174628E-3,-1.691213E-2,3.5481787E-1,4.145047E-3,-5.6322247E-1,-0E0,6.0675526E-1,-6.9734864E-3,5.6404006E-1,-1.4194173E-2,-3.1020237E-2,4.182366E-2,3.13501E-1,1.3738795E-2,3.7512362E-2,2.5693504E-2,3.6766918E-4],"categories":[],"categories_nodes":[],"categories_segments":[],"categories_sizes":[],"default_left":[0,0,0,0,0,0,0,0,0,0,0,0,0,0,0,0,0,0,0,0,0,0,0,0,0],"id":53,"left_children":[1,3,5,-1,7,9,11,13,-1,-1,15,-1,17,-1,19,-1,21,-1,-1,-1,23,-1,-1,-1,-1],"loss_changes":[4.5145006E0,2.418503E0,5.227063E0,0E0,1.437603E0,2.957488E0,2.2281628E0,1.6159029E0,0E0,0E0,2.4109888E0,0E0,1.19680405E-1,0E0,1.254425E0,0E0,5.4764175E-1,0E0,0E0,0E0,7.065742E-1,0E0,0E0,0E0,0E0],"parents":[2147483647,0,0,1,1,2,2,4,4,5,5,6,6,7,7,10,10,12,12,14,14,16,16,20,20],"right_children":[2,4,6,-1,8,10,12,14,-1,-1,16,-1,18,-1,20,-1,22,-1,-1,-1,24,-1,-1,-1,-1],"split_conditions":[4.5813244E1,3.2906933E1,4.8308986E10,-6.9478983E-3,1.13966164E5,-5.793221E2,2.565638E3,-1.8124231E3,-2.2174628E-3,-1.691213E-2,1.0832481E0,4.145047E-3,1.0139075E5,-0E0,3.697236E1,-6.9734864E-3,2.6172673E3,-1.4194173E-2,-3.1020237E-2,4.182366E-2,1.04706516E5,1.3738795E-2,3.7512362E-2,2.5693504E-2,3.6766918E-4],"split_indices":[1,2,17,0,7,11,20,11,0,0,31,0,14,0,1,0,20,0,0,0,3,0,0,0,0],"split_type":[0,0,0,0,0,0,0,0,0,0,0,0,0,0,0,0,0,0,0,0,0,0,0,0,0],"sum_hessian":[1.0117258E2,4.312798E1,5.8044598E1,9.490671E0,3.363731E1,2.8647268E1,2.9397331E1,2.8371822E1,5.2654867E0,7.504982E0,2.1142286E1,6.2173777E0,2.3179955E1,5.150954E0,2.322087E1,6.2446713E0,1.48976145E1,5.249439E0,1.7930515E1,1.1791067E1,1.1429802E1,7.0141478E0,7.8834667E0,6.300847E0,5.128955E0],"tree_param":{"num_deleted":"0","num_feature":"40","num_nodes":"25","size_leaf_vector":"1"}},{"base_weights":[-1.5226833E-3,-7.180114E-2,5.075412E-1,4.286731E-2,-4.1462937E-1,9.276844E-3,3.5940725E-2,-2.303262E-1,2.710141E-1,-5.2593535E-1,-4.830286E-3,-2.7747428E-2,3.5662167E-2,4.1705477E-1,-1.0138004E-2,-1.2117895E-2,-3.1282008E-2,3.2609895E-1,-2.3359144E-2,1.4772955E-1,6.3903695E-1,-2.4519567E-3,3.373807E-2,-8.221476E-3,2.360541E-2,4.4499733E-2,4.662642E-3],"categories":[],"categories_nodes":[],"categories_segments":[],"categories_sizes":[],"default_left":[0,0,0,0,0,0,0,0,0,0,0,0,0,0,0,0,0,0,0,0,0,0,0,0,0,0,0],"id":54,"left_children":[1,3,5,7,9,-1,-1,11,13,15,-1,-1,17,19,-1,-1,-1,21,-1,23,25,-1,-1,-1,-1,-1,-1],"loss_changes":[3.5968194E0,3.5758765E0,6.042249E-1,4.292566E0,6.9263196E-1,0E0,0E0,2.7654252E0,2.70802E0,2.2532701E-1,0E0,0E0,2.7549555E0,1.5747075E0,0E0,0E0,0E0,1.6746826E0,0E0,1.5981898E0,1.9446406E0,0E0,0E0,0E0,0E0,0E0,0E0],"parents":[2147483647,0,0,1,1,2,2,3,3,4,4,7,7,8,8,9,9,12,12,13,13,17,17,19,19,20,20],"right_children":[2,4,6,8,10,-1,-1,12,14,16,-1,-1,18,20,-1,-1,-1,22,-1,24,26,-1,-1,-1,-1,-1,-1],"split_conditions":[1.16149234E5,6.762723E1,-6.725125E-1,-2.4054114E2,3.7045987E0,9.276844E-3,3.5940725E-2,9.810877E-1,1.685561E-1,2.4697573E3,-4.830286E-3,-2.7747428E-2,2.3128917E0,1.8513938E0,-1.0138004E-2,-1.2117895E-2,-3.1282008E-2,3.1960417E3,-2.3359144E-2,1.1133643E5,2.8528585E0,-2.4519567E-3,3.373807E-2,-8.221476E-3,2.360541E-2,4.4499733E-2,4.662642E-3],"split_indices":[5,0,23,12,23,0,0,19,16,20,0,0,30,29,0,0,0,20,0,7,30,0,0,0,0,0,0],"split_type":[0,0,0,0,0,0,0,0,0,0,0,0,0,0,0,0,0,0,0,0,0,0,0,0,0,0,0],"sum_hessian":[9.973594E1,8.8564606E1,1.117133E1,6.6803566E1,2.1761044E1,5.3574605E0,5.81387E0,3.0196733E1,3.660683E1,1.54021845E1,6.358859E0,1.3279508E1,1.6917225E1,2.8234383E1,8.372446E0,5.1599936E0,1.024219E1,1.1072344E1,5.8448815E0,1.3712885E1,1.4521499E1,5.6094646E0,5.462879E0,7.082245E0,6.63064E0,9.389985E0,5.131514E0],"tree_param":{"num_deleted":"0","num_feature":"40","num_nodes":"27","size_leaf_vector":"1"}},{"base_weights":[-5.3790886E-2,-4.1879794E-1,7.651274E-2,-2.7247561E-2,-2.3299E-3,2.60111E-2,1.127054E-3,-7.477081E-2,2.8070519E-2,-2.8220952E-2,2.1555169E-2,-3.2635558E-1,2.0171915E-1,-2.6264563E-4,-2.9025061E-2,2.2422021E-2,-1.5359292E-3],"categories":[],"categories_nodes":[],"categories_segments":[],"categories_sizes":[],"default_left":[0,0,0,0,0,0,0,0,0,0,0,0,0,0,0,0,0],"id":55,"left_children":[1,3,5,-1,-1,-1,7,9,-1,-1,11,13,15,-1,-1,-1,-1],"loss_changes":[4.309228E0,1.0341411E0,2.1677904E0,0E0,0E0,0E0,2.5544345E0,2.5073586E0,0E0,0E0,2.813644E0,1.1801658E0,1.7656531E0,0E0,0E0,0E0,0E0],"parents":[2147483647,0,0,1,1,2,2,6,6,7,7,10,10,11,11,12,12],"right_children":[2,4,6,-1,-1,-1,8,10,-1,-1,12,14,16,-1,-1,-1,-1],"split_conditions":[-3.684334E-2,2.5098011E0,7.7413625E4,-2.7247561E-2,-2.3299E-3,2.60111E-2,7.6660416E1,4.189129E10,2.8070519E-2,-2.8220952E-2,2.3922145E0,5.564913E2,1.748785E0,-2.6264563E-4,-2.9025061E-2,2.2422021E-2,-1.5359292E-3],"split_indices":[27,30,14,0,0,0,2,17,0,0,21,11,30,0,0,0,0],"split_type":[0,0,0,0,0,0,0,0,0,0,0,0,0,0,0,0,0],"sum_hessian":[8.820944E1,2.28251E1,6.5384346E1,1.6499844E1,6.3252573E0,8.445868E0,5.6938477E1,5.0751564E1,6.186911E0,7.7146764E0,4.303689E1,1.4216748E1,2.882014E1,6.905753E0,7.3109946E0,1.3738416E1,1.5081725E1],"tree_param":{"num_deleted":"0","num_feature":"40","num_nodes":"17","size_leaf_vector":"1"}},{"base_weights":[-5.597882E-2,5.0436188E-2,-3.8104132E-1,3.2915312E-1,-8.4154345E-2,4.6006492E-3,-2.8298823E-2,-2.0948816E-2,5.7831067E-1,2.5562596E-1,-2.2300349E-1,4.0434584E-2,1.2933001E-2,-1.2625173E-3,2.8718824E-2,-4.0748426E-1,8.2489364E-2,-0E0,-3.0707449E-2,2.4373654E-2,-1.0694386E-2],"categories":[],"categories_nodes":[],"categories_segments":[],"categories_sizes":[],"default_left":[0,0,0,0,0,0,0,0,0,0,0,0,0,0,0,0,0,0,0,0,0],"id":56,"left_children":[1,3,5,7,9,-1,-1,-1,11,13,15,-1,-1,-1,-1,17,19,-1,-1,-1,-1],"loss_changes":[3.2311873E0,2.6737702E0,2.1127956E0,4.583336E0,2.3032885E0,0E0,0E0,0E0,1.0042238E0,1.3308299E0,2.0156612E0,0E0,0E0,0E0,0E0,1.8352313E0,1.7702475E0,0E0,0E0,0E0,0E0],"parents":[2147483647,0,0,1,1,2,2,3,3,4,4,8,8,9,9,10,10,15,15,16,16],"right_children":[2,4,6,8,10,-1,-1,-1,12,14,16,-1,-1,-1,-1,18,20,-1,-1,-1,-1],"split_conditions":[1.12599234E5,1.7138815E0,4.705035E1,3.862768E1,7.3190486E-1,4.6006492E-3,-2.8298823E-2,-2.0948816E-2,1.303623E-1,-1.0515841E3,1.1804658E0,4.0434584E-2,1.2933001E-2,-1.2625173E-3,2.8718824E-2,-3.9102978E-1,1.3210139E0,-0E0,-3.0707449E-2,2.4373654E-2,-1.0694386E-2],"split_indices":[3,29,2,2,18,0,0,0,22,11,18,0,0,0,0,22,18,0,0,0,0],"split_type":[0,0,0,0,0,0,0,0,0,0,0,0,0,0,0,0,0,0,0,0,0],"sum_hessian":[9.089847E1,6.888496E1,2.201351E1,2.2203085E1,4.6681873E1,6.17638E0,1.5837131E1,5.2765636E0,1.6926521E1,1.3089376E1,3.3592495E1,8.765919E0,8.160603E0,7.2807703E0,5.808606E0,2.0940466E1,1.265203E1,7.416057E0,1.3524409E1,5.2165384E0,7.4354916E0],"tree_param":{"num_deleted":"0","num_feature":"40","num_nodes":"21","size_leaf_vector":"1"}},{"base_weights":[6.7947623E-3,-6.981029E-2,4.9334744E-1,4.72204E-2,-3.3394095E-1,3.711473E-3,3.665371E-2,-3.0946022E-1,1.456573E-1,2.0048949E-4,-5.2140236E-1,-2.8763745E-2,1.853462E-3,3.330956E-2,1.39742205E-2,-3.0208325E-2,-1.2603255E-2,-2.435597E-2,1.4081337E-1,-1.2071581E-2,2.0843409E-2],"categories":[],"categories_nodes":[],"categories_segments":[],"categories_sizes":[],"default_left":[0,0,0,0,0,0,0,0,0,0,0,0,0,0,0,0,0,0,0,0,0],"id":57,"left_children":[1,3,5,7,9,-1,-1,11,13,-1,15,-1,-1,-1,17,-1,-1,-1,19,-1,-1],"loss_changes":[3.8444197E0,2.765628E0,1.276681E0,2.1920848E0,1.7906628E0,0E0,0E0,1.3119693E0,3.2943754E0,0E0,1.5958405E-1,0E0,0E0,0E0,2.6037927E0,0E0,0E0,0E0,3.6215212E0,0E0,0E0],"parents":[2147483647,0,0,1,1,2,2,3,3,4,4,7,7,8,8,10,10,14,14,18,18],"right_children":[2,4,6,8,10,-1,-1,12,14,-1,16,-1,-1,