{"learner":{"attributes":{"scikit_learn":"{\"_estimator_type\": \"classifier\"}"},"feature_names":["rsi_7","rsi_14","rsi_21","ema_8","ema_12","ema_21","ema_26","ema_50","ema_12_26_cross","ema_8_21_cross","macd","macd_signal","macd_hist","bb_upper","bb_lower","bb_position","bb_width","volume_sma_20","volume_ratio","volume_trend","atr_14","atr_pct","return_1d","return_3d","return_5d","return_10d","return_20d","momentum_10","momentum_20","volatility_10","volatility_20","dist_to_high_20","dist_to_low_20","day_of_week","is_weekend","fear_greed","fed_funds_rate","treasury_10y","treasury_2y","yield_curve"],"feature_types":["float","float","float","float","float","float","float","float","float","float","float","float","float","float","float","float","float","float","float","float","float","float","float","float","float","float","float","float","float","float","float","float","float","int","int","int","float","float","float","float"],"gradient_booster":{"model":{"cats":{"enc":[],"feature_segments":[],"sorted_idx":[]},"gbtree_model_param":{"num_parallel_tree":"1","num_trees":"600"},"iteration_indptr":[0,3,6,9,12,15,18,21,24,27,30,33,36,39,42,45,48,51,54,57,60,63,66,69,72,75,78,81,84,87,90,93,96,99,102,105,108,111,114,117,120,123,126,129,132,135,138,141,144,147,150,153,156,159,162,165,168,171,174,177,180,183,186,189,192,195,198,201,204,207,210,213,216,219,222,225,228,231,234,237,240,243,246,249,252,255,258,261,264,267,270,273,276,279,282,285,288,291,294,297,300,303,306,309,312,315,318,321,324,327,330,333,336,339,342,345,348,351,354,357,360,363,366,369,372,375,378,381,384,387,390,393,396,399,402,405,408,411,414,417,420,423,426,429,432,435,438,441,444,447,450,453,456,459,462,465,468,471,474,477,480,483,486,489,492,495,498,501,504,507,510,513,516,519,522,525,528,531,534,537,540,543,546,549,552,555,558,561,564,567,570,573,576,579,582,585,588,591,594,597,600],"tree_info":[0,1,2,0,1,2,0,1,2,0,1,2,0,1,2,0,1,2,0,1,2,0,1,2,0,1,2,0,1,2,0,1,2,0,1,2,0,1,2,0,1,2,0,1,2,0,1,2,0,1,2,0,1,2,0,1,2,0,1,2,0,1,2,0,1,2,0,1,2,0,1,2,0,1,2,0,1,2,0,1,2,0,1,2,0,1,2,0,1,2,0,1,2,0,1,2,0,1,2,0,1,2,0,1,2,0,1,2,0,1,2,0,1,2,0,1,2,0,1,2,0,1,2,0,1,2,0,1,2,0,1,2,0,1,2,0,1,2,0,1,2,0,1,2,0,1,2,0,1,2,0,1,2,0,1,2,0,1,2,0,1,2,0,1,2,0,1,2,0,1,2,0,1,2,0,1,2,0,1,2,0,1,2,0,1,2,0,1,2,0,1,2,0,1,2,0,1,2,0,1,2,0,1,2,0,1,2,0,1,2,0,1,2,0,1,2,0,1,2,0,1,2,0,1,2,0,1,2,0,1,2,0,1,2,0,1,2,0,1,2,0,1,2,0,1,2,0,1,2,0,1,2,0,1,2,0,1,2,0,1,2,0,1,2,0,1,2,0,1,2,0,1,2,0,1,2,0,1,2,0,1,2,0,1,2,0,1,2,0,1,2,0,1,2,0,1,2,0,1,2,0,1,2,0,1,2,0,1,2,0,1,2,0,1,2,0,1,2,0,1,2,0,1,2,0,1,2,0,1,2,0,1,2,0,1,2,0,1,2,0,1,2,0,1,2,0,1,2,0,1,2,0,1,2,0,1,2,0,1,2,0,1,2,0,1,2,0,1,2,0,1,2,0,1,2,0,1,2,0,1,2,0,1,2,0,1,2,0,1,2,0,1,2,0,1,2,0,1,2,0,1,2,0,1,2,0,1,2,0,1,2,0,1,2,0,1,2,0,1,2,0,1,2,0,1,2,0,1,2,0,1,2,0,1,2,0,1,2,0,1,2,0,1,2,0,1,2,0,1,2,0,1,2,0,1,2,0,1,2,0,1,2,0,1,2,0,1,2,0,1,2,0,1,2,0,1,2,0,1,2,0,1,2,0,1,2,0,1,2,0,1,2,0,1,2,0,1,2,0,1,2,0,1,2,0,1,2,0,1,2,0,1,2,0,1,2,0,1,2,0,1,2,0,1,2,0,1,2,0,1,2,0,1,2,0,1,2,0,1,2,0,1,2,0,1,2,0,1,2,0,1,2,0,1,2,0,1,2,0,1,2,0,1,2,0,1,2,0,1,2,0,1,2,0,1,2,0,1,2,0,1,2,0,1,2,0,1,2,0,1,2,0,1,2,0,1,2,0,1,2],"trees":[{"base_weights":[1.4678001E-1,8.1663674E-1,4.9115278E-2,1.4766482E-2,5.3599793E-2,-2.7923783E-2,1.3411593E-1,4.67113E-2,2.0338958E-2,-3.873709E-1,2.2960734E-1,-3.2571048E-2,-1.1524724E-1,6.6746306E-1,1.806207E-2,1.4528753E-2,-2.7209444E-2,-6.782802E-4,5.5453163E-2,1.8377464E-2,-2.6389947E-2],"categories":[],"categories_nodes":[],"categories_segments":[],"categories_sizes":[],"default_left":[0,0,0,0,0,0,0,0,0,0,0,0,0,0,0,0,0,0,0,0,0],"id":0,"left_children":[1,3,5,-1,-1,-1,7,-1,9,11,13,-1,15,17,19,-1,-1,-1,-1,-1,-1],"loss_changes":[7.2104006E0,1.4205608E0,5.1492333E0,0E0,0E0,0E0,7.884349E0,0E0,6.733187E0,1.7657757E0,4.770453E0,0E0,2.7151582E0,5.200749E0,7.1399136E0,0E0,0E0,0E0,0E0,0E0,0E0],"parents":[2147483647,0,0,1,1,2,2,6,6,8,8,9,9,10,10,12,12,13,13,14,14],"right_children":[2,4,6,-1,-1,-1,8,-1,10,12,14,-1,16,18,20,-1,-1,-1,-1,-1,-1],"split_conditions":[1.6588745E-1,1.7429454E2,1.1312792E2,1.4766482E-2,5.3599793E-2,-2.7923783E-2,1.1953557E2,4.67113E-2,2.4063015E-1,1.5559406E2,3.6340272E0,-3.2571048E-2,2.0035635E2,2.9232852E0,2.4751976E0,1.4528753E-2,-2.7209444E-2,-6.782802E-4,5.5453163E-2,1.8377464E-2,-2.6389947E-2],"split_indices":[16,3,14,0,0,0,14,0,16,7,30,0,3,29,11,0,0,0,0,0,0],"split_type":[0,0,0,0,0,0,0,0,0,0,0,0,0,0,0,0,0,0,0,0,0],"sum_hessian":[1.1115118E2,1.307661E1,9.807457E1,5.1372395E0,7.93937E0,1.1208523E1,8.686605E1,9.807457E0,7.705859E1,2.5686197E1,5.1372395E1,1.2142566E1,1.3543632E1,1.587874E1,3.5493652E1,7.0053263E0,6.538305E0,6.538305E0,9.340435E0,2.1950024E1,1.3543632E1],"tree_param":{"num_deleted":"0","num_feature":"40","num_nodes":"21","size_leaf_vector":"1"}},{"base_weights":[-4.1801375E-1,-5.214934E-1,-1.7957056E-2,-5.5505437E-1,-4.1622943E-3,2.442792E-1,-2.8023819E-2,-5.914476E-1,-1.2017589E-2,2.5625108E-2,-0E0,-1.622443E-2,-3.098902E-2],"categories":[],"categories_nodes":[],"categories_segments":[],"categories_sizes":[],"default_left":[0,0,0,0,0,0,0,0,0,0,0,0,0],"id":1,"left_children":[1,3,5,7,-1,9,-1,11,-1,-1,-1,-1,-1],"loss_changes":[3.604251E0,9.217739E-1,2.934326E0,5.1652145E-1,0E0,8.591794E-1,0E0,1.3627625E-1,0E0,0E0,0E0,0E0,0E0],"parents":[2147483647,0,0,1,1,2,2,3,3,5,5,7,7],"right_children":[2,4,6,8,-1,10,-1,12,-1,-1,-1,-1,-1],"split_conditions":[3.4670455E0,9.150906E0,1.3329006E0,1.6289705E0,-4.1622943E-3,4.4918346E0,-2.8023819E-2,-1.1194141E1,-1.2017589E-2,2.5625108E-2,-0E0,-1.622443E-2,-3.098902E-2],"split_indices":[9,21,19,12,0,9,0,24,0,0,0,0,0],"split_type":[0,0,0,0,0,0,0,0,0,0,0,0,0],"sum_hessian":[8.759329E1,6.91526E1,1.8440693E1,6.3774063E1,5.3785357E0,1.2677977E1,5.762717E0,5.6090443E1,7.6836224E0,5.3785357E0,7.2994413E0,6.91526E0,4.9175182E1],"tree_param":{"num_deleted":"0","num_feature":"40","num_nodes":"13","size_leaf_vector":"1"}},{"base_weights":[1.2563814E-1,4.3230504E-1,-1.1875224E-1,-1.3735376E-1,6.466143E-1,-3.4124145E-1,3.112769E-1,-2.703998E-2,1.4901112E-2,7.9528254E-1,-7.836247E-3,-5.5699654E-2,-3.6896836E-2,-1.3741906E-2,6.1015934E-1,9.927862E-1,7.251191E-4,-3.461876E-2,2.8843734E-1,4.6109267E-2,7.813116E-3,5.8698524E-2,3.3163205E-2,3.984799E-2,-8.222389E-3],"categories":[],"categories_nodes":[],"categories_segments":[],"categories_sizes":[],"default_left":[0,0,0,0,0,0,0,0,0,0,0,0,0,0,0,0,0,0,0,0,0,0,0,0,0],"id":2,"left_children":[1,3,5,7,9,11,13,-1,-1,15,-1,17,-1,-1,19,21,-1,-1,23,-1,-1,-1,-1,-1,-1],"loss_changes":[7.975914E0,5.890459E0,5.7745557E0,2.5697415E0,4.3125496E0,4.371219E0,3.8028576E0,0E0,0E0,4.4198036E0,0E0,5.561098E0,0E0,0E0,1.7364717E0,4.319477E-1,0E0,0E0,3.963966E0,0E0,0E0,0E0,0E0,0E0,0E0],"parents":[2147483647,0,0,1,1,2,2,3,3,4,4,5,5,6,6,9,9,11,11,14,14,15,15,18,18],"right_children":[2,4,6,8,10,12,14,-1,-1,16,-1,18,-1,-1,20,22,-1,-1,24,-1,-1,-1,-1,-1,-1],"split_conditions":[1.6219113E2,3.5978532E9,8.0259814E9,1.42472E2,4.906838E0,2.7303618E-1,-2.1319816E0,-2.703998E-2,1.4901112E-2,1.5842659E2,-7.836247E-3,2.8689177E0,-3.6896836E-2,-1.3741906E-2,6.1112568E1,1.6575453E1,7.251191E-4,-3.461876E-2,1.7567436E2,4.6109267E-2,7.813116E-3,5.8698524E-2,3.3163205E-2,3.984799E-2,-8.222389E-3],"split_indices":[6,17,17,5,9,16,8,0,0,7,0,29,0,0,0,32,0,0,5,0,0,0,0,0,0],"split_type":[0,0,0,0,0,0,0,0,0,0,0,0,0,0,0,0,0,0,0,0,0,0,0,0,0],"sum_hessian":[1.0431817E2,4.6104904E1,5.8213264E1,1.2574065E1,3.3530838E1,3.8653606E1,1.9559656E1,6.5198855E0,6.054179E0,2.8408073E1,5.1227674E0,2.3285305E1,1.5368301E1,6.5198855E0,1.3039771E1,2.2353893E1,6.054179E0,7.9170036E0,1.5368301E1,6.985592E0,6.054179E0,1.2574065E1,9.779828E0,6.985592E0,8.3827095E0],"tree_param":{"num_deleted":"0","num_feature":"40","num_nodes":"25","size_leaf_vector":"1"}},{"base_weights":[2.1519236E-1,-1.7788234E-1,4.3344763E-1,1.7559387E-1,-3.373401E-2,-2.7933213E-1,5.5785865E-1,-4.917628E-1,8.790591E-1,-3.259516E-2,6.0412055E-3,9.039687E-1,1.5471332E-1,-3.3700418E-2,-7.956357E-3,5.4912563E-2,2.313105E-2,1.0773398E0,2.067675E-2,4.144256E-1,-1.6939884E-2,5.8664173E-2,3.0008024E-2,-1.2579046E-2,4.3658834E-2],"categories":[],"categories_nodes":[],"categories_segments":[],"categories_sizes":[],"default_left":[0,0,0,0,0,0,0,0,0,0,0,0,0,0,0,0,0,0,0,0,0,0,0,0,0],"id":3,"left_children":[1,3,5,7,-1,9,11,13,15,-1,-1,17,19,-1,-1,-1,-1,21,-1,23,-1,-1,-1,-1,-1],"loss_changes":[9.711033E0,7.285808E0,6.609909E0,1.1905754E1,0E0,1.8189266E0,8.426426E0,6.0161304E-1,4.576187E-1,0E0,0E0,2.2198963E0,3.9995146E0,0E0,0E0,0E0,0E0,2.0273209E-1,0E0,6.475361E0,0E0,0E0,0E0,0E0,0E0],"parents":[2147483647,0,0,1,1,2,2,3,3,5,5,6,6,7,7,8,8,11,11,12,12,17,17,19,19],"right_children":[2,4,6,8,-1,10,12,14,16,-1,-1,18,20,-1,-1,-1,-1,22,-1,24,-1,-1,-1,-1,-1],"split_conditions":[1.5559406E2,8.8266535E0,-1.607818E1,3.352151E0,-3.373401E-2,1.1483563E1,4.7120384E1,6.909202E1,1.4032314E2,-3.259516E-2,6.0412055E-3,2.380259E1,1.080097E1,-3.3700418E-2,-7.956357E-3,5.4912563E-2,2.313105E-2,4.0446253E0,2.067675E-2,9.1763525E0,-1.6939884E-2,5.8664173E-2,3.0008024E-2,-1.2579046E-2,4.3658834E-2],"split_indices":[7,20,25,29,0,20,2,1,3,0,0,31,20,0,0,0,0,24,0,20,0,0,0,0,0],"split_type":[0,0,0,0,0,0,0,0,0,0,0,0,0,0,0,0,0,0,0,0,0,0,0,0,0],"sum_hessian":[1.10997925E2,3.9530624E1,7.14673E1,2.3357096E1,1.6173527E1,1.0315925E1,6.115138E1,1.20676565E1,1.128944E1,5.1457157E0,5.1702094E0,3.210129E1,2.9050085E1,6.938998E0,5.128658E0,6.1663833E0,5.123057E0,2.268235E1,9.418944E0,1.927134E1,9.778745E0,1.7496143E1,5.186205E0,7.9554186E0,1.1315922E1],"tree_param":{"num_deleted":"0","num_feature":"40","num_nodes":"25","size_leaf_vector":"1"}},{"base_weights":[-4.189964E-1,-5.68314E-1,-4.906254E-2,-6.075713E-1,-5.465753E-3,3.643333E-2,-3.5389957E-1,-1.5566379E-2,-3.1837333E-2,-2.7284652E-2,5.2244923E-5],"categories":[],"categories_nodes":[],"categories_segments":[],"categories_sizes":[],"default_left":[0,0,0,0,0,0,0,0,0,0,0],"id":4,"left_children":[1,3,5,7,-1,-1,9,-1,-1,-1,-1],"loss_changes":[5.1353455E0,1.0710258E0,6.9743195E0,2.3760033E-1,0E0,0E0,1.5003917E0,0E0,0E0,0E0,0E0],"parents":[2147483647,0,0,1,1,2,2,3,3,6,6],"right_children":[2,4,6,8,-1,-1,10,-1,-1,-1,-1],"split_conditions":[6.8087715E-1,9.150906E0,7.5804037E-1,5.476077E-1,-5.465753E-3,3.643333E-2,9.329207E0,-1.5566379E-2,-3.1837333E-2,-2.7284652E-2,5.2244923E-5],"split_indices":[15,21,15,19,0,0,24,0,0,0,0],"split_type":[0,0,0,0,0,0,0,0,0,0,0],"sum_hessian":[9.359066E1,6.610279E1,2.7487865E1,6.039571E1,5.7070823E0,7.2563605E0,2.0231506E1,6.768405E0,5.3627304E1,1.2968393E1,7.263112E0],"tree_param":{"num_deleted":"0","num_feature":"40","num_nodes":"11","size_leaf_vector":"1"}},{"base_weights":[1.4665592E-1,5.6887954E-2,7.115532E-2,6.992507E-1,-1.3656756E-2,5.1168125E-2,7.0708133E-3,-3.5358556E-2,8.242551E-2,7.457484E-1,-3.0960483E-2,6.6194423E-3,5.6492954E-2,1.3166745E-1,-5.284863E-1,1.0622097E-2,-2.5071451E-2,-3.5910856E-2,-5.0471616E-3],"categories":[],"categories_nodes":[],"categories_segments":[],"categories_sizes":[],"default_left":[0,0,0,0,0,0,0,0,0,0,0,0,0,0,0,0,0,0,0],"id":5,"left_children":[1,-1,3,5,7,-1,-1,-1,9,11,13,-1,-1,15,17,-1,-1,-1,-1],"loss_changes":[8.502866E0,0E0,5.898094E0,2.1176019E0,6.5907855E0,0E0,0E0,0E0,6.566591E0,2.723486E0,6.122648E0,0E0,0E0,2.9751456E0,1.35922E0,0E0,0E0,0E0,0E0],"parents":[2147483647,0,0,2,2,3,3,4,4,8,8,9,9,10,10,13,13,14,14],"right_children":[2,-1,4,6,8,-1,-1,-1,10,12,14,-1,-1,16,18,-1,-1,-1,-1],"split_conditions":[1.2975763E2,5.6887954E-2,-1.5909932E1,2.9339442E-1,1.4690154E2,5.1168125E-2,7.0708133E-3,-3.5358556E-2,7.3890405E0,1.3366008E2,1.2124627E0,6.6194423E-3,5.6492954E-2,2.2162111E2,7.237709E9,1.0622097E-2,-2.5071451E-2,-3.5910856E-2,-5.0471616E-3],"split_indices":[6,0,25,16,13,0,0,0,20,14,18,0,0,4,17,0,0,0,0],"split_type":[0,0,0,0,0,0,0,0,0,0,0,0,0,0,0,0,0,0,0],"sum_hessian":[1.1532826E2,7.073943E0,1.0825432E2,1.2157026E1,9.60973E1,7.0481386E0,5.1088877E0,1.1046347E1,8.505095E1,1.1730552E1,7.33204E1,5.1353207E0,6.595231E0,5.5660744E1,1.7659653E1,5.009207E1,5.5686727E0,1.1598723E1,6.060929E0],"tree_param":{"num_deleted":"0","num_feature":"40","num_nodes":"19","size_leaf_vector":"1"}},{"base_weights":[2.1846887E-1,4.7429347E-1,-1.3492309E-2,8.776956E-1,-2.3769781E-2,-2.6227534E-1,3.063529E-1,1.7858097E-2,5.434952E-2,3.3931833E-2,-3.0453536E-1,1.8606571E-2,-4.7999018E-1,-1.1157097E-1,7.793897E-1,-3.142814E-2,1.12598E-2,-3.3638805E-2,-5.8574383E-3,1.9916413E-2,-3.3086587E-2,2.1137353E-2,4.834071E-2],"categories":[],"categories_nodes":[],"categories_segments":[],"categories_sizes":[],"default_left":[0,0,0,0,0,0,0,0,0,0,0,0,0,0,0,0,0,0,0,0,0,0,0],"id":6,"left_children":[1,3,5,7,9,11,13,-1,-1,-1,15,-1,17,19,21,-1,-1,-1,-1,-1,-1,-1,-1],"loss_changes":[6.5797553E0,1.066253E1,4.727373E0,2.6448116E0,4.976099E0,4.829546E0,5.266197E0,0E0,0E0,0E0,3.30681E0,0E0,1.6305294E0,4.355499E0,2.7904034E-1,0E0,0E0,0E0,0E0,0E0,0E0,0E0,0E0],"parents":[2147483647,0,0,1,1,2,2,3,3,4,4,5,5,6,6,10,10,12,12,13,13,14,14],"right_children":[2,4,6,8,10,12,14,-1,-1,-1,16,-1,18,20,22,-1,-1,-1,-1,-1,-1,-1,-1],"split_conditions":[4.679493E1,2.3304968E1,3.1182013E0,2E0,-1.0575313E1,-1.4113297E0,1.9174343E1,1.7858097E-2,5.434952E-2,3.3931833E-2,-8.988353E-1,1.8606571E-2,6.061161E0,4E0,4.8859274E-1,-3.142814E-2,1.12598E-2,-3.3638805E-2,-5.8574383E-3,1.9916413E-2,-3.3086587E-2,2.1137353E-2,4.834071E-2],"split_indices":[2,31,8,33,10,8,26,0,0,0,12,0,25,33,23,0,0,0,0,0,0,0,0],"split_type":[0,0,0,0,0,0,0,0,0,0,0,0,0,0,0,0,0,0,0,0,0,0,0],"sum_hessian":[1.08995346E2,5.153975E1,5.7455593E1,2.816572E1,2.3374031E1,3.259505E1,2.4860542E1,8.990323E0,1.9175398E1,6.1685567E0,1.7205473E1,8.029382E0,2.456567E1,1.3492646E1,1.1367896E1,1.0676842E1,6.528632E0,1.5304336E1,9.261333E0,7.0514464E0,6.4411993E0,5.221403E0,6.1464934E0],"tree_param":{"num_deleted":"0","num_feature":"40","num_nodes":"23","size_leaf_vector":"1"}},{"base_weights":[-3.7788314E-1,-4.426962E-1,7.021302E-3,-5.351559E-1,-2.4931341E-1,-5.802914E-1,-9.397855E-3,5.747234E-4,-3.7125802E-1,-1.2055941E-2,-3.0918468E-2,-2.6260233E-2,-3.2346116E-3],"categories":[],"categories_nodes":[],"categories_segments":[],"categories_sizes":[],"default_left":[0,0,0,0,0,0,0,0,0,0,0,0,0],"id":7,"left_children":[1,3,-1,5,7,9,-1,-1,11,-1,-1,-1,-1],"loss_changes":[3.0998192E0,1.2182999E0,0E0,6.4297295E-1,9.337747E-1,3.599825E-1,0E0,0E0,8.2426953E-1,0E0,0E0,0E0,0E0],"parents":[2147483647,0,0,1,1,3,3,4,4,5,5,8,8],"right_children":[2,4,-1,6,8,10,-1,-1,12,-1,-1,-1,-1],"split_conditions":[7.7562895E0,5.2258415E1,7.021302E-3,9.150906E0,1.5959805E0,5.476077E-1,-9.397855E-3,5.747234E-4,9.143479E0,-1.2055941E-2,-3.0918468E-2,-2.6260233E-2,-3.2346116E-3],"split_indices":[11,1,0,21,24,19,0,0,24,0,0,0,0],"split_type":[0,0,0,0,0,0,0,0,0,0,0,0,0],"sum_hessian":[8.8524796E1,7.898657E1,9.538226E0,5.189176E1,2.709481E1,4.507295E1,6.81881E0,8.659686E0,1.8435123E1,5.554615E0,3.9518333E1,1.1580447E1,6.8546762E0],"tree_param":{"num_deleted":"0","num_feature":"40","num_nodes":"13","size_leaf_vector":"1"}},{"base_weights":[1.2765159E-1,5.3181827E-2,6.003663E-2,2.3594107E-1,-3.1317207E-1,-2.7000614E-2,6.4797735E-1,-3.6282293E-2,2.7674E-2,-3.514213E-1,2.971346E-1,-2.4885524E-3,8.290355E-1,-3.3286754E-2,4.4152746E-1,1.0856135E-2,-6.0165554E-1,4.8448212E-2,-7.7832355E-3,9.7922575E-1,1.3288761E-2,4.3617185E-2,-7.4989037E-3,-3.5069562E-2,-1.5117141E-2,2.3905743E-2,-3.326815E-2,5.8570143E-2,2.1732423E-2],"categories":[],"categories_nodes":[],"categories_segments":[],"categories_sizes":[],"default_left":[0,0,0,0,0,0,0,0,0,0,0,0,0,0,0,0,0,0,0,0,0,0,0,0,0,0,0,0,0],"id":8,"left_children":[1,-1,3,5,7,9,11,-1,13,15,17,-1,19,-1,21,-1,23,-1,25,27,-1,-1,-1,-1,-1,-1,-1,-1,-1],"loss_changes":[6.7737613E0,0E0,6.8659964E0,7.7881227E0,4.789549E0,4.7624946E0,3.644535E0,0E0,5.7623496E0,3.4021752E0,4.716937E0,0E0,1.5039701E0,0E0,3.4327548E0,0E0,1.7019272E-1,0E0,5.570338E0,1.1212864E0,0E0,0E0,0E0,0E0,0E0,0E0,0E0,0E0,0E0],"parents":[2147483647,0,0,2,2,3,3,4,4,5,5,6,6,8,8,9,9,10,10,12,12,14,14,16,16,18,18,19,19],"right_children":[2,-1,4,6,8,10,12,-1,14,16,18,-1,20,-1,22,-1,24,-1,26,28,-1,-1,-1,-1,-1,-1,-1,-1,-1],"split_conditions":[1.2975763E2,5.3181827E-2,1.6510206E1,4.679493E1,7.791507E-1,2.380259E1,-1.2175843E0,-3.6282293E-2,1.3307799E2,-2.9570632E0,8.334089E-1,-2.4885524E-3,6.4962924E-1,-3.3286754E-2,1.5164257E1,1.0856135E-2,-3.0768031E-2,4.8448212E-2,3.6594516E-1,6.310831E0,1.3288761E-2,4.3617185E-2,-7.4989037E-3,-3.5069562E-2,-1.5117141E-2,2.3905743E-2,-3.326815E-2,5.8570143E-2,2.1732423E-2],"split_indices":[6,0,32,2,15,31,8,0,14,8,19,0,15,0,25,0,11,0,16,11,0,0,0,0,0,0,0,0,0],"split_type":[0,0,0,0,0,0,0,0,0,0,0,0,0,0,0,0,0,0,0,0,0,0,0,0,0,0,0,0,0],"sum_hessian":[1.0881768E2,6.2392206E0,1.0257846E2,7.015028E1,3.242818E1,4.3245113E1,2.6905172E1,1.429435E1,1.813383E1,2.1725155E1,2.1519957E1,5.578803E0,2.1326368E1,6.459955E0,1.1673874E1,6.557929E0,1.5167227E1,6.140556E0,1.53794E1,1.6113707E1,5.2126627E0,6.5775013E0,5.096373E0,1.0118234E1,5.0489926E0,8.913726E0,6.465675E0,1.0924039E1,5.1896677E0],"tree_param":{"num_deleted":"0","num_feature":"40","num_nodes":"29","size_leaf_vector":"1"}},{"base_weights":[1.07987225E-1,-2.0450486E-1,3.0424178E-1,6.3601315E-2,-6.083247E-1,6.579098E-1,4.7011092E-2,5.202396E-2,-3.0664396E-1,-3.497657E-2,-1.4849043E-2,1.7766046E-4,8.6394113E-1,-1.0148349E-1,3.9208908E-2,-3.19938E-2,1.6108096E-2,4.8839338E-2,2.0219682E-2,2.9636327E-2,-3.0222225E-1,1.0133146E-2,-5.344475E-1,-3.557045E-2,-4.874173E-3],"categories":[],"categories_nodes":[],"categories_segments":[],"categories_sizes":[],"default_left":[0,0,0,0,0,0,0,0,0,0,0,0,0,0,0,0,0,0,0,0,0,0,0,0,0],"id":9,"left_children":[1,3,5,7,9,11,13,-1,15,-1,-1,-1,17,19,-1,-1,-1,-1,-1,-1,21,-1,23,-1,-1],"loss_changes":[7.01234E0,4.862942E0,6.2766533E0,1.0242406E1,1.9869375E-1,3.8576384E0,4.7266364E0,0E0,4.5223036E0,0E0,0E0,0E0,6.1543083E-1,5.1094375E0,0E0,0E0,0E0,0E0,0E0,0E0,3.4689095E0,0E0,1.3846183E0,0E0,0E0],"parents":[2147483647,0,0,1,1,2,2,3,3,4,4,5,5,6,6,8,8,12,12,13,13,20,20,22,22],"right_children":[2,4,6,8,10,12,14,-1,16,-1,-1,-1,18,20,-1,-1,-1,-1,-1,-1,22,-1,24,-1,-1],"split_conditions":[1.5559406E2,8.8266535E0,6.367667E9,1.4188528E2,5.6588316E0,-1.2632992E1,2.0948468E2,5.202396E-2,3.9122074E0,-3.497657E-2,-1.4849043E-2,1.7766046E-4,5E0,3.6340272E0,3.9208908E-2,-3.19938E-2,1.6108096E-2,4.8839338E-2,2.0219682E-2,2.9636327E-2,-4.366359E0,1.0133146E-2,7.935243E-1,-3.557045E-2,-4.874173E-3],"split_indices":[7,20,17,4,23,25,7,0,29,0,0,0,33,30,0,0,0,0,0,0,11,0,15,0,0],"split_type":[0,0,0,0,0,0,0,0,0,0,0,0,0,0,0,0,0,0,0,0,0,0,0,0,0],"sum_hessian":[1.1216443E2,4.305587E1,6.910856E1,2.6233591E1,1.6822277E1,2.8279915E1,4.0828648E1,6.7867813E0,1.944681E1,1.1798083E1,5.0241947E0,7.1318207E0,2.1148094E1,3.4587948E1,6.240701E0,1.2803237E1,6.6435738E0,1.5900459E1,5.247634E0,7.2084055E0,2.7379541E1,8.530314E0,1.8849228E1,1.2806097E1,6.0431304E0],"tree_param":{"num_deleted":"0","num_feature":"40","num_nodes":"25","size_leaf_vector":"1"}},{"base_weights":[-4.057317E-1,-5.188832E-1,-1.5822129E-1,-5.549133E-1,-8.030717E-3,3.3885956E-1,-4.3268818E-1,-5.8197445E-1,-1.4322757E-2,-4.0164017E-3,3.7006553E-2,-3.014697E-2,-5.8372538E-3,-1.8089319E-2,-3.184576E-2],"categories":[],"categories_nodes":[],"categories_segments":[],"categories_sizes":[],"default_left":[0,0,0,0,0,0,0,0,0,0,0,0,0,0,0],"id":10,"left_children":[1,3,5,7,-1,9,11,13,-1,-1,-1,-1,-1,-1,-1],"loss_changes":[2.449236E0,6.5218353E-1,4.362371E0,1.5731621E-1,0E0,2.0428276E0,9.566853E-1,2.754116E-1,0E0,0E0,0E0,0E0,0E0,0E0,0E0],"parents":[2147483647,0,0,1,1,2,2,3,3,5,5,6,6,7,7],"right_children":[2,4,6,8,-1,10,12,14,-1,-1,-1,-1,-1,-1,-1],"split_conditions":[6.3766813E-1,9.150906E0,7.5804037E-1,6.26541E1,-8.030717E-3,9.5818406E-1,9.329207E0,3.0456836E0,-1.4322757E-2,-4.0164017E-3,3.7006553E-2,-3.014697E-2,-5.8372538E-3,-1.8089319E-2,-3.184576E-2],"split_indices":[15,21,15,0,0,18,24,29,0,0,0,0,0,0,0],"split_type":[0,0,0,0,0,0,0,0,0,0,0,0,0,0,0],"sum_hessian":[9.180259E1,6.1971405E1,2.9831186E1,5.5556274E1,6.4151325E0,1.0398943E1,1.9432243E1,4.9069614E1,6.4866576E0,5.3552246E0,5.043718E0,1.1831664E1,7.60058E0,1.1676887E1,3.7392727E1],"tree_param":{"num_deleted":"0","num_feature":"40","num_nodes":"15","size_leaf_vector":"1"}},{"base_weights":[1.6190727E-1,2.1598417E-1,-3.214511E-2,-2.758193E-1,3.0307287E-1,1.3611077E-2,-3.338864E-2,4.1402876E-1,-2.1899097E-1,1.2168374E-1,7.460712E-1,-2.7689403E-2,6.385085E-3,4.3861426E-2,-3.0389784E-2,8.853191E-1,1.9926347E-3,8.08175E-3,-2.8650118E-2,1.4239766E-2,5.0246608E-2],"categories":[],"categories_nodes":[],"categories_segments":[],"categories_sizes":[],"default_left":[0,0,0,0,0,0,0,0,0,0,0,0,0,0,0,0,0,0,0,0,0],"id":11,"left_children":[1,3,-1,5,7,-1,-1,9,11,13,15,-1,-1,-1,17,19,-1,-1,-1,-1,-1],"loss_changes":[4.7757387E0,4.4386787E0,0E0,3.5805376E0,5.148575E0,0E0,0E0,6.834646E0,1.9405222E0,4.680896E0,3.1633816E0,0E0,0E0,0E0,3.672542E0,1.5809994E0,0E0,0E0,0E0,0E0,0E0],"parents":[2147483647,0,0,1,1,3,3,4,4,7,7,8,8,9,9,10,10,14,14,15,15],"right_children":[2,4,-1,6,8,-1,-1,10,12,14,16,-1,-1,-1,18,20,-1,-1,-1,-1,-1],"split_conditions":[2.1946133E2,1.6709676E-1,-3.214511E-2,1.709927E2,3.744522E0,1.3611077E-2,-3.338864E-2,-1.7819891E0,1.0392279E1,1.1183647E2,4.283506E0,-2.7689403E-2,6.385085E-3,4.3861426E-2,4.208726E-1,4.7790268E1,1.9926347E-3,8.08175E-3,-2.8650118E-2,1.4239766E-2,5.0246608E-2],"split_indices":[6,16,0,4,8,0,0,10,25,14,22,0,0,0,15,2,0,0,0,0,0],"split_type":[0,0,0,0,0,0,0,0,0,0,0,0,0,0,0,0,0,0,0,0,0],"sum_hessian":[1.06523026E2,1.0061816E2,5.9048667E0,1.4638261E1,8.59799E1,6.12477E0,8.513491E0,7.123795E1,1.4741943E1,3.8770393E1,3.2467556E1,7.3424854E0,7.3994584E0,5.807282E0,3.296311E1,2.679005E1,5.6775055E0,2.4729448E1,8.2336645E0,5.150199E0,2.1639853E1],"tree_param":{"num_deleted":"0","num_feature":"40","num_nodes":"21","size_leaf_vector":"1"}},{"base_weights":[1.6783653E-1,-2.5964326E-1,4.0523255E-1,2.9550437E-2,-4.248624E-1,6.151099E-1,-2.4950428E-1,-5.969481E-1,1.7902559E-2,-7.3367255E-3,7.519385E-1,3.8653094E-2,-3.3400264E-2,-3.617427E-2,-1.109921E-2,8.826494E-1,1.0512358E-2,-2.4440194E-2,2.8311804E-2,5.200814E-2,6.021192E-1,1.0715518E-3,5.2730765E-2],"categories":[],"categories_nodes":[],"categories_segments":[],"categories_sizes":[],"default_left":[0,0,0,0,0,0,0,0,0,0,0,0,0,0,0,0,0,0,0,0,0,0,0],"id":12,"left_children":[1,3,5,-1,7,9,11,13,-1,-1,15,17,-1,-1,-1,19,-1,-1,-1,-1,21,-1,-1],"loss_changes":[1.1235236E1,5.795472E0,9.941478E0,0E0,4.793142E0,5.814749E0,2.2379348E0,1.0828257E0,0E0,0E0,2.9744282E0,3.4452474E0,0E0,0E0,0E0,8.3273697E-1,0E0,0E0,0E0,0E0,4.0246806E0,0E0,0E0],"parents":[2147483647,0,0,1,1,2,2,4,4,5,5,6,6,7,7,10,10,11,11,15,15,20,20],"right_children":[2,4,6,-1,8,10,12,14,-1,-1,16,18,-1,-1,-1,20,-1,-1,-1,-1,22,-1,-1],"split_conditions":[1.5559406E2,3.295972E9,8.062213E9,2.9550437E-2,1.56175785E1,-1.607818E1,1.831374E2,5.8147507E0,1.7902559E-2,-7.3367255E-3,6.8087715E-1,8.964662E-1,-3.3400264E-2,-3.617427E-2,-1.109921E-2,5.8336527E9,1.0512358E-2,-2.4440194E-2,2.8311804E-2,5.200814E-2,1.7931621E2,1.0715518E-3,5.2730765E-2],"split_indices":[7,17,17,0,25,25,14,24,0,0,15,18,0,0,0,17,0,0,0,0,7,0,0],"split_type":[0,0,0,0,0,0,0,0,0,0,0,0,0,0,0,0,0,0,0,0,0,0,0],"sum_hessian":[1.0853136E2,3.85676E1,6.996375E1,5.754978E0,3.2812622E1,5.314217E1,1.6821587E1,2.7199406E1,5.6132164E0,7.9689283E0,4.517324E1,1.0358187E1,6.4634013E0,1.9442175E1,7.757231E0,3.5736042E1,9.4372E0,5.1216846E0,5.2365017E0,2.0923506E1,1.4812535E1,7.0428295E0,7.769706E0],"tree_param":{"num_deleted":"0","num_feature":"40","num_nodes":"23","size_leaf_vector":"1"}},{"base_weights":[-4.155874E-1,-5.118436E-1,-2.2558473E-2,-9.850976E-3,-5.5672836E-1,2.0330248E-2,-1.9828591E-2,-5.9810513E-1,-1.4332685E-2,-1.6501322E-2,-3.176918E-2],"categories":[],"categories_nodes":[],"categories_segments":[],"categories_sizes":[],"default_left":[0,0,0,0,0,0,0,0,0,0,0],"id":13,"left_children":[1,3,5,-1,7,-1,-1,9,-1,-1,-1],"loss_changes":[3.1766176E0,7.840023E-1,3.066686E0,0E0,4.0157127E-1,0E0,0E0,1.9433975E-1,0E0,0E0,0E0],"parents":[2147483647,0,0,1,1,2,2,4,4,7,7],"right_children":[2,4,6,-1,8,-1,-1,10,-1,-1,-1],"split_conditions":[3.4670455E0,-1.1194141E1,7.5804037E-1,-9.850976E-3,4.283506E0,2.0330248E-2,-1.9828591E-2,-7.54195E0,-1.4332685E-2,-1.6501322E-2,-3.176918E-2],"split_indices":[9,24,15,0,22,0,0,11,0,0,0],"split_type":[0,0,0,0,0,0,0,0,0,0,0],"sum_hessian":[8.4685356E1,6.757813E1,1.7107218E1,9.382955E0,5.819518E1,7.8011913E0,9.306026E0,4.9089558E1,9.105622E0,7.5232687E0,4.1566288E1],"tree_param":{"num_deleted":"0","num_feature":"40","num_nodes":"11","size_leaf_vector":"1"}},{"base_weights":[1.3137965E-1,-9.1136985E-2,3.5937095E-1,-4.8984E-1,9.0344526E-2,-1.7369106E-2,4.8954022E-1,-1.0016195E-2,-3.3379383E-2,4.7210655E-1,-2.1046235E-1,7.0163304E-1,-3.4422904E-2,5.4282725E-2,-1.2075765E-2,2.7696325E-2,-4.864436E-1,8.509533E-1,1.4536509E-2,1.6019102E-2,-2.0245953E-2,-3.0771395E-2,-6.716359E-3,5.838988E-1,5.4173864E-2,4.7736943E-2,-0E0],"categories":[],"categories_nodes":[],"categories_segments":[],"categories_sizes":[],"default_left":[0,0,0,0,0,0,0,0,0,0,0,0,0,0,0,0,0,0,0,0,0,0,0,0,0,0,0],"id":14,"left_children":[1,3,5,7,9,-1,11,-1,-1,13,15,17,19,-1,-1,-1,21,23,-1,-1,-1,-1,-1,25,-1,-1,-1],"loss_changes":[5.5602794E0,4.0962706E0,5.150204E0,6.8890095E-1,4.578413E0,0E0,5.21591E0,0E0,0E0,8.027793E0,4.9528193E0,1.6639118E0,1.9924926E0,0E0,0E0,0E0,6.1279154E-1,6.6085243E-1,0E0,0E0,0E0,0E0,0E0,2.9452238E0,0E0,0E0,0E0],"parents":[2147483647,0,0,1,1,2,2,3,3,4,4,6,6,9,9,10,10,11,11,12,12,16,16,17,17,23,23],"right_children":[2,4,6,8,10,-1,12,-1,-1,14,16,18,20,-1,-1,-1,22,24,-1,-1,-1,-1,-1,26,-1,-1,-1],"split_conditions":[5.915077E0,4.6630505E1,-9.725297E0,-8.723324E0,2.4063015E-1,-1.7369106E-2,1.1526272E0,-1.0016195E-2,-3.3379383E-2,4.8575454E0,5.1361458E1,1.6744473E0,1.3798024E1,5.4282725E-2,-1.2075765E-2,2.7696325E-2,2.4258292E0,1.0581207E1,1.4536509E-2,1.6019102E-2,-2.0245953E-2,-3.0771395E-2,-6.716359E-3,-1.4304231E0,5.4173864E-2,4.7736943E-2,-0E0],"split_indices":[21,2,10,26,16,0,19,0,0,21,2,22,20,0,0,0,12,32,0,0,0,0,0,12,0,0,0],"split_type":[0,0,0,0,0,0,0,0,0,0,0,0,0,0,0,0,0,0,0,0,0,0,0,0,0,0,0],"sum_hessian":[1.0742702E2,5.444805E1,5.2978966E1,1.6672207E1,3.7775845E1,7.8609686E0,4.5117996E1,7.365257E0,9.306951E0,1.654329E1,2.1232555E1,3.201183E1,1.3106168E1,8.690387E0,7.8529015E0,5.2691274E0,1.59634285E1,2.2515497E1,9.496331E0,6.626074E0,6.480094E0,1.0928428E1,5.0350013E0,1.2314012E1,1.0201485E1,7.2109237E0,5.103088E0],"tree_param":{"num_deleted":"0","num_feature":"40","num_nodes":"27","size_leaf_vector":"1"}},{"base_weights":[9.205632E-2,-2.6830098E-1,2.9300243E-1,4.7423868E-3,-5.925212E-1,6.364389E-1,3.5041724E-3,4.7786523E-2,-3.590046E-1,-3.4019645E-2,-1.5592815E-2,5.8843656E-3,8.068163E-1,-1.388513E-1,3.541883E-2,-3.370191E-2,4.686898E-3,4.7266353E-2,1.7648807E-2,-4.5508984E-1,9.497822E-2,-3.418571E-2,-1.1595238E-3,3.7299316E-2,-2.2147098E-1,-2.2359662E-2,5.986971E-3],"categories":[],"categories_nodes":[],"categories_segments":[],"categories_sizes":[],"default_left":[0,0,0,0,0,0,0,0,0,0,0,0,0,0,0,0,0,0,0,0,0,0,0,0,0,0,0],"id":15,"left_children":[1,3,5,7,9,11,13,-1,15,-1,-1,-1,17,19,-1,-1,-1,-1,-1,21,23,-1,-1,-1,25,-1,-1],"loss_changes":[7.853459E0,3.4937162E0,6.85025E0,7.9681883E0,1.300292E-1,2.6103735E0,4.0596666E0,0E0,2.4703777E0,0E0,0E0,0E0,1.0145483E0,2.5261405E0,0E0,0E0,0E0,0E0,0E0,1.3374183E0,4.269803E0,0E0,0E0,0E0,1.1571195E0,0E0,0E0],"parents":[2147483647,0,0,1,1,2,2,3,3,4,4,5,5,6,6,8,8,12,12,13,13,19,19,20,20,24,24],"right_children":[2,4,6,8,10,12,14,-1,16,-1,-1,-1,18,20,-1,-1,-1,-1,-1,22,24,-1,-1,-1,26,-1,-1],"split_conditions":[1.5559406E2,8.753257E0,6.367667E9,1.4188528E2,4.0249457E0,-1.2632991E-1,2.1987444E2,4.7786523E-2,1.6510206E1,-3.4019645E-2,-1.5592815E-2,5.8843656E-3,1.143325E0,4.3979235E0,3.541883E-2,-3.370191E-2,4.686898E-3,4.7266353E-2,1.7648807E-2,1.9387961E2,1.8136133E2,-3.418571E-2,-1.1595238E-3,3.7299316E-2,1.36125555E1,-2.2359662E-2,5.986971E-3],"split_indices":[7,20,17,4,24,27,5,0,32,0,0,0,19,29,0,0,0,0,0,7,5,0,0,0,20,0,0],"split_type":[0,0,0,0,0,0,0,0,0,0,0,0,0,0,0,0,0,0,0,0,0,0,0,0,0,0,0],"sum_hessian":[1.0633489E2,3.7769638E1,6.8565254E1,2.0870447E1,1.689919E1,3.0654945E1,3.7910305E1,5.4000072E0,1.5470441E1,1.1513866E1,5.3853254E0,8.142125E0,2.2512821E1,3.209048E1,5.8198256E0,8.964632E0,6.505809E0,1.6250055E1,6.262766E0,1.3420959E1,1.866952E1,8.242989E0,5.1779714E0,5.766061E0,1.290346E1,7.755439E0,5.1480203E0],"tree_param":{"num_deleted":"0","num_feature":"40","num_nodes":"27","size_leaf_vector":"1"}},{"base_weights":[-3.698456E-1,-4.5209298E-1,-1.9531667E-2,-6.905844E-3,-4.937289E-1,2.824735E-2,-2.4142241E-2,-3.106514E-2,-3.419815E-1,-0E0,-5.0722456E-1,-2.9806584E-2,-1.0010703E-2],"categories":[],"categories_nodes":[],"categories_segments":[],"categories_sizes":[],"default_left":[0,0,0,0,0,0,0,0,0,0,0,0,0],"id":16,"left_children":[1,3,5,-1,7,-1,-1,-1,9,-1,11,-1,-1],"loss_changes":[2.252678E0,7.1332645E-1,4.735923E0,0E0,7.826748E-1,0E0,0E0,0E0,1.6071701E0,0E0,3.230729E-1,0E0,0E0],"parents":[2147483647,0,0,1,1,2,2,4,4,8,8,10,10],"right_children":[2,4,6,-1,8,-1,-1,-1,10,-1,12,-1,-1],"split_conditions":[3.5606792E0,-1.1194141E1,1.2714225E1,-6.905844E-3,9.933426E-1,2.824735E-2,-2.4142241E-2,-3.106514E-2,3.793479E0,-0E0,1.1533151E0,-2.9806584E-2,-1.0010703E-2],"split_indices":[9,24,25,0,24,0,0,0,24,0,18,0,0],"split_type":[0,0,0,0,0,0,0,0,0,0,0,0,0],"sum_hessian":[7.912769E1,6.3615852E1,1.5511842E1,8.234983E0,5.5380867E1,6.666597E0,8.845244E0,2.8047802E1,2.7333067E1,9.206736E0,1.8126331E1,1.3073054E1,5.0532765E0],"tree_param":{"num_deleted":"0","num_feature":"40","num_nodes":"13","size_leaf_vector":"1"}},{"base_weights":[1.4188346E-1,2.9565546E-1,-1.8185352E-1,4.3685007E-1,-2.577855E-1,-3.4391478E-2,1.3026029E-1,2.1203978E-1,6.990767E-1,-0E0,-3.0981947E-2,5.1527137E-1,-3.2074623E-2,6.913058E-1,-1.4385551E-1,5.056282E-3,8.3669734E-1,4.6961937E-2,-5.1493975E-3,4.7352985E-2,1.4143387E-2,1.5851724E-1,-2.7579654E-2,4.8698947E-2,1.758963E-2,2.3520973E-2,-9.396394E-3],"categories":[],"categories_nodes":[],"categories_segments":[],"categories_sizes":[],"default_left":[0,0,0,0,0,0,0,0,0,0,0,0,0,0,0,0,0,0,0,0,0,0,0,0,0,0,0],"id":17,"left_children":[1,3,5,7,9,-1,11,13,15,-1,-1,17,-1,19,21,-1,23,-1,-1,-1,-1,25,-1,-1,-1,-1,-1],"loss_changes":[5.318578E0,5.767442E0,5.5768213E0,3.1791487E0,1.4312037E0,0E0,6.8519683E0,5.7594833E0,1.9715309E0,0E0,0E0,4.194007E0,0E0,1.1024642E0,2.5390663E0,0E0,9.203682E-1,0E0,0E0,0E0,0E0,1.3993752E0,0E0,0E0,0E0,0E0,0E0],"parents":[2147483647,0,0,1,1,2,2,3,3,4,4,6,6,7,7,8,8,11,11,13,13,14,14,16,16,21,21],"right_children":[2,4,6,8,10,-1,12,14,16,-1,-1,18,-1,20,22,-1,24,-1,-1,-1,-1,26,-1,-1,-1,-1,-1],"split_conditions":[1.7970872E2,3.6122544E0,2.1369254E2,4.679493E1,1.639811E2,-3.4391478E-2,2.0910486E2,3.641166E1,1.3761354E2,-0E0,-3.0981947E-2,4.8946872E-1,-3.2074623E-2,1.4374928E2,1.5400192E2,5.056282E-3,1.3618004E0,4.6961937E-2,-5.1493975E-3,4.7352985E-2,1.4143387E-2,7.6142156E-1,-2.7579654E-2,4.8698947E-2,1.758963E-2,2.3520973E-2,-9.396394E-3],"split_indices":[7,8,13,2,5,0,7,1,6,0,0,12,0,3,6,0,12,0,0,0,0,22,0,0,0,0,0],"split_type":[0,0,0,0,0,0,0,0,0,0,0,0,0,0,0,0,0,0,0,0,0,0,0,0,0,0,0],"sum_hessian":[1.0452942E2,7.1136086E1,3.3393333E1,5.6988464E1,1.4147621E1,1.2403045E1,2.0990288E1,3.1862392E1,2.5126074E1,8.79836E0,5.3492618E0,1.4312164E1,6.678124E0,1.3295952E1,1.856644E1,5.161444E0,1.996463E1,8.278092E0,6.034072E0,7.214709E0,6.0812426E0,1.0870783E1,7.695657E0,1.4612776E1,5.3518534E0,5.684166E0,5.1866174E0],"tree_param":{"num_deleted":"0","num_feature":"40","num_nodes":"27","size_leaf_vector":"1"}},{"base_weights":[1.7975748E-1,-1.4985652E-1,3.663894E-1,1.4795141E-1,-3.1317264E-2,-2.6007488E-2,4.6260494E-1,4.784831E-2,-1.9718984E-1,6.754974E-1,7.221525E-2,-3.31343E-2,1.3826664E-2,8.2181996E-1,-1.06157735E-2,-1.8955266E-2,3.564795E-1,4.859462E-2,5.036895E-1,-6.040326E-4,4.172674E-2,2.0914755E-3,4.7298964E-2],"categories":[],"categories_nodes":[],"categories_segments":[],"categories_sizes":[],"default_left":[0,0,0,0,0,0,0,0,0,0,0,0,0,0,0,0,0,0,0,0,0,0,0],"id":18,"left_children":[1,3,5,7,-1,-1,9,-1,11,13,15,-1,-1,17,-1,-1,19,-1,21,-1,-1,-1,-1],"loss_changes":[6.890009E0,5.8956323E0,6.308243E0,7.4233932E0,0E0,0E0,5.2671337E0,0E0,4.3485126E0,5.650852E0,3.2343154E0,0E0,0E0,1.0859642E0,0E0,0E0,2.820415E0,0E0,2.692386E0,0E0,0E0,0E0,0E0],"parents":[2147483647,0,0,1,1,2,2,3,3,6,6,8,8,9,9,10,10,13,13,16,16,18,18],"right_children":[2,4,6,8,-1,-1,10,-1,12,14,16,-1,-1,18,-1,-1,20,-1,22,-1,-1,-1,-1],"split_conditions":[1.5559406E2,8.8266535E0,-3.243905E0,1.4188528E2,-3.1317264E-2,-2.6007488E-2,6.2235184E0,4.784831E-2,1.6510206E1,8.182743E1,2.9655808E-1,-3.31343E-2,1.3826664E-2,3.7938848E0,-1.06157735E-2,-1.8955266E-2,9.7662205E-1,4.859462E-2,1.9126439E2,-6.040326E-4,4.172674E-2,2.0914755E-3,4.7298964E-2],"split_indices":[7,20,12,4,0,0,21,0,32,0,16,0,0,30,0,0,18,0,7,0,0,0,0],"split_type":[0,0,0,0,0,0,0,0,0,0,0,0,0,0,0,0,0,0,0,0,0,0,0],"sum_hessian":[1.09758095E2,3.9556995E1,7.0201096E1,2.4637844E1,1.4919152E1,6.3398356E0,6.386126E1,6.92429E0,1.7713552E1,4.0686882E1,2.3174377E1,8.839637E0,8.873917E0,3.5090504E1,5.5963807E0,8.69078E0,1.4483598E1,2.223309E1,1.2857414E1,8.610681E0,5.872917E0,6.935601E0,5.921813E0],"tree_param":{"num_deleted":"0","num_feature":"40","num_nodes":"23","size_leaf_vector":"1"}},{"base_weights":[-3.7577757E-1,-4.915312E-1,-1.10451445E-1,-5.310249E-1,-5.422715E-3,2.9698733E-2,-4.1132772E-1,-1.0364357E-2,-5.6125295E-1,-2.9206937E-2,-8.445945E-3,-1.1341566E-2,-2.995646E-2],"categories":[],"categories_nodes":[],"categories_segments":[],"categories_sizes":[],"default_left":[0,0,0,0,0,0,0,0,0,0,0,0,0],"id":19,"left_children":[1,3,5,7,-1,-1,9,-1,11,-1,-1,-1,-1],"loss_changes":[2.4311428E0,7.4319553E-1,5.891136E0,3.0903816E-1,0E0,0E0,6.3952804E-1,0E0,3.6506462E-1,0E0,0E0,0E0,0E0],"parents":[2147483647,0,0,1,1,2,2,3,3,6,6,8,8],"right_children":[2,4,6,8,-1,-1,10,-1,12,-1,-1,-1,-1],"split_conditions":[6.8087715E-1,9.150906E0,-2.0196611E-2,-1.0332629E1,-5.422715E-3,2.9698733E-2,9.3288106E-1,-1.0364357E-2,-1.4691184E1,-2.9206937E-2,-8.445945E-3,-1.1341566E-2,-2.995646E-2],"split_indices":[15,21,23,23,0,0,15,0,26,0,0,0,0],"split_type":[0,0,0,0,0,0,0,0,0,0,0,0,0],"sum_hessian":[8.188599E1,5.615698E1,2.572901E1,5.0321754E1,5.835224E0,7.3093934E0,1.8419617E1,5.2509117E0,4.5070843E1,9.68968E0,8.729937E0,5.5649586E0,3.9505882E1],"tree_param":{"num_deleted":"0","num_feature":"40","num_nodes":"13","size_leaf_vector":"1"}},{"base_weights":[1.2323431E-1,2.077382E-1,-2.6833331E-2,2.0057732E-2,4.9038595E-1,3.6231023E-1,-2.0810942E-1,7.9199463E-1,4.7122214E-2,-1.03389874E-1,4.062857E-2,1.7156222E-1,-4.8240846E-1,2.1060783E-2,4.4307195E-2,2.929697E-2,-2.3173262E-1,-2.6239475E-2,2.1316594E-2,-8.83356E-3,2.3428185E-2,-9.379028E-3,-3.0577702E-2,3.4098437E-3,-2.492805E-2],"categories":[],"categories_nodes":[],"categories_segments":[],"categories_sizes":[],"default_left":[0,0,0,0,0,0,0,0,0,0,0,0,0,0,0,0,0,0,0,0,0,0,0,0,0],"id":20,"left_children":[1,3,-1,5,7,9,11,13,15,17,-1,19,21,-1,-1,-1,23,-1,-1,-1,-1,-1,-1,-1,-1],"loss_changes":[6.214861E0,5.1591616E0,0E0,4.8068423E0,5.09433E0,5.333496E0,3.9353805E0,2.9952717E-1,2.7245617E0,3.1172295E0,0E0,1.764292E0,6.3233614E-1,0E0,0E0,0E0,1.0207999E0,0E0,0E0,0E0,0E0,0E0,0E0,0E0,0E0],"parents":[2147483647,0,0,1,1,3,3,4,4,5,5,6,6,7,7,8,8,9,9,11,11,12,12,16,16],"right_children":[2,4,-1,6,8,10,12,14,16,18,-1,20,22,-1,-1,-1,24,-1,-1,-1,-1,-1,-1,-1,-1],"split_conditions":[7.47469E0,4.9516277E1,-2.6833331E-2,1.5878351E2,3.011327E0,8.50357E0,-1.7440122E0,-1.7902387E0,4.380233E0,-2.265454E0,4.062857E-2,1.7018274E2,-1.4691184E1,2.1060783E-2,4.4307195E-2,2.929697E-2,3.4441123E0,-2.6239475E-2,2.1316594E-2,-8.83356E-3,2.3428185E-2,-9.379028E-3,-3.0577702E-2,3.4098437E-3,-2.492805E-2],"split_indices":[11,2,0,7,9,20,12,23,21,11,0,3,26,0,0,0,9,0,0,0,0,0,0,0,0],"split_type":[0,0,0,0,0,0,0,0,0,0,0,0,0,0,0,0,0,0,0,0,0,0,0,0,0],"sum_hessian":[1.09039536E2,9.740325E1,1.163628E1,5.9391537E1,3.801172E1,2.3696686E1,3.569485E1,2.2017845E1,1.5993873E1,1.1918155E1,1.177853E1,1.4975901E1,2.071895E1,5.7822437E0,1.6235601E1,5.20121E0,1.0792663E1,6.7480745E0,5.17008E0,6.9249115E0,8.050989E0,7.2940574E0,1.3424892E1,5.25519E0,5.5374727E0],"tree_param":{"num_deleted":"0","num_feature":"40","num_nodes":"25","size_leaf_vector":"1"}},{"base_weights":[1.5926021E-1,-1.2090499E-1,3.0353186E-1,2.5411198E-2,-3.2036883E-1,5.802367E-1,8.6745575E-2,-3.241855E-2,1.5726635E-2,-3.4621458E-3,7.2179335E-1,2.7172413E-1,-2.4886733E-2,1.3965047E-2,4.6537768E-2,3.984825E-2,1.5896665E-2,2.3933714E-2,-2.4827768E-1,-3.146763E-2,3.9605265E-3],"categories":[],"categories_nodes":[],"categories_segments":[],"categories_sizes":[],"default_left":[0,0,0,0,0,0,0,0,0,0,0,0,0,0,0,0,0,0,0,0,0],"id":21,"left_children":[1,3,5,-1,7,9,11,-1,-1,-1,13,15,-1,-1,-1,-1,17,-1,19,-1,-1],"loss_changes":[4.3797636E0,4.768179E0,4.150821E0,0E0,6.2167034E0,2.953929E0,4.574774E0,0E0,0E0,0E0,1.9828577E0,4.2229376E0,0E0,0E0,0E0,0E0,2.923458E0,0E0,1.9774652E0,0E0,0E0],"parents":[2147483647,0,0,1,1,2,2,4,4,5,5,6,6,10,10,11,11,16,16,18,18],"right_children":[2,4,6,-1,8,10,12,-1,-1,-1,14,16,-1,-1,-1,-1,18,-1,20,-1,-1],"split_conditions":[1.5559406E2,1.4607428E2,1.5404991E2,2.5411198E-2,5.8147507E0,1.4325066E2,2.2414494E1,-3.241855E-2,1.5726635E-2,-3.4621458E-3,2.6516802E0,4.7120384E1,-2.4886733E-2,1.3965047E-2,4.6537768E-2,3.984825E-2,3.7938848E0,2.3933714E-2,9.515775E-1,-3.146763E-2,3.9605265E-3],"split_indices":[7,13,14,0,24,3,31,0,0,0,30,2,0,0,0,0,30,0,19,0,0],"split_type":[0,0,0,0,0,0,0,0,0,0,0,0,0,0,0,0,0,0,0,0,0],"sum_hessian":[1.0599686E2,3.584917E1,7.014769E1,8.13651E0,2.771266E1,2.9876137E1,4.0271553E1,1.8362522E1,9.350137E0,5.311362E0,2.4564775E1,3.1126661E1,9.144894E0,8.782452E0,1.5782323E1,9.374235E0,2.1752426E1,7.7473254E0,1.4005101E1,6.188074E0,7.817027E0],"tree_param":{"num_deleted":"0","num_feature":"40","num_nodes":"21","size_leaf_vector":"1"}},{"base_weights":[-3.370708E-1,-4.2998233E-1,3.983675E-4,-2.0372915E-1,-4.872534E-1,2.092191E-2,-1.9322801E-2,-2.6888544E-2,3.5303303E-3,-5.8381306E-3,-5.3308487E-1,-3.047129E-2,-3.6518165E-1,3.4420022E-3,-2.8891707E-2],"categories":[],"categories_nodes":[],"categories_segments":[],"categories_sizes":[],"default_left":[0,0,0,0,0,0,0,0,0,0,0,0,0,0,0],"id":22,"left_children":[1,3,5,7,9,-1,-1,-1,-1,-1,11,-1,13,-1,-1],"loss_changes":[2.646615E0,6.783085E-1,3.1878033E0,1.4840201E0,7.399645E-1,0E0,0E0,0E0,0E0,0E0,2.5587177E-1,0E0,1.6548448E0,0E0,0E0],"parents":[2147483647,0,0,1,1,2,2,3,3,4,4,10,10,12,12],"right_children":[2,4,6,8,10,-1,-1,-1,-1,-1,12,-1,14,-1,-1],"split_conditions":[3.4670455E0,-6.801584E0,1.2714225E1,-8.287568E0,1.4905003E0,2.092191E-2,-1.9322801E-2,-2.6888544E-2,3.5303303E-3,-5.8381306E-3,5.2067146E1,-3.047129E-2,-1.4382302E0,3.4420022E-3,-2.8891707E-2],"split_indices":[9,10,25,11,31,0,0,0,0,0,1,0,23,0,0],"split_type":[0,0,0,0,0,0,0,0,0,0,0,0,0,0,0],"sum_hessian":[8.2033165E1,6.4341064E1,1.7692102E1,1.4269966E1,5.00711E1,8.588313E0,9.103789E0,6.166117E0,8.103849E0,6.1429014E0,4.39282E1,2.798087E1,1.59473295E1,5.3118744E0,1.0635456E1],"tree_param":{"num_deleted":"0","num_feature":"40","num_nodes":"15","size_leaf_vector":"1"}},{"base_weights":[1.6455558E-1,3.583616E-1,-3.1176263E-2,4.5693137E-2,2.0993291E-1,-4.823545E-1,1.836314E-1,-3.5615325E-1,5.8262163E-1,-0E0,-3.330336E-2,-2.7466169E-2,4.095776E-1,3.029557E-3,-2.7331272E-2,5.249495E-2,2.244821E-1,5.0082214E-2,7.088141E-1,5.6004536E-1,-2.3728421E-2,2.5652824E-2,-2.4973873E-2,4.4702597E-2,1.5187256E-2,7.5149774E-3,4.4188574E-2],"categories":[],"categories_nodes":[],"categories_segments":[],"categories_sizes":[],"default_left":[0,0,0,0,0,0,0,0,0,0,0,0,0,0,0,0,0,0,0,0,0,0,0,0,0,0,0],"id":23,"left_children":[1,3,5,-1,7,9,11,13,15,-1,-1,-1,17,-1,-1,-1,19,21,23,25,-1,-1,-1,-1,-1,-1,-1],"loss_changes":[4.2461176E0,4.313036E0,5.524265E0,0E0,9.857244E0,1.6533909E0,6.5639973E0,1.5605116E0,4.3230333E0,0E0,0E0,0E0,3.1157823E0,0E0,0E0,0E0,4.3196716E0,4.0373197E0,8.200102E-1,1.3830202E0,0E0,0E0,0E0,0E0,0E0,0E0,0E0],"parents":[2147483647,0,0,1,1,2,2,4,4,5,5,6,6,7,7,8,8,12,12,16,16,17,17,18,18,19,19],"right_children":[2,4,6,-1,8,10,12,14,16,-1,-1,-1,18,-1,-1,-1,20,22,24,26,-1,-1,-1,-1,-1,-1,-1],"split_conditions":[1.6219113E2,2.922269E0,1.5404991E2,4.5693137E-2,8.50357E0,-1.10916E1,3.5020673E0,8.540359E-1,4.3896194E1,-0E0,-3.330336E-2,-2.7466169E-2,2.4751976E0,3.029557E-3,-2.7331272E-2,5.249495E-2,1.4955553E2,-8.988353E-1,1.5662174E1,5.462148E0,-2.3728421E-2,2.5652824E-2,-2.4973873E-2,4.4702597E-2,1.5187256E-2,7.5149774E-3,4.4188574E-2],"split_indices":[6,29,14,0,20,24,30,18,0,0,0,0,11,0,0,0,6,12,32,29,0,0,0,0,0,0,0],"split_type":[0,0,0,0,0,0,0,0,0,0,0,0,0,0,0,0,0,0,0,0,0,0,0,0,0,0,0],"sum_hessian":[1.097773E2,5.4999233E1,5.4778065E1,1.0367554E1,4.463168E1,1.7416586E1,3.7361477E1,1.7629637E1,2.7002043E1,5.031348E0,1.2385239E1,8.361977E0,2.89995E1,5.5792885E0,1.2050347E1,1.0756674E1,1.6245369E1,1.3855451E1,1.5144051E1,1.1207409E1,5.037961E0,7.6549535E0,6.200497E0,9.394101E0,5.7499495E0,5.7291307E0,5.4782777E0],"tree_param":{"num_deleted":"0","num_feature":"40","num_nodes":"27","size_leaf_vector":"1"}},{"base_weights":[1.3262784E-1,-1.7666137E-1,2.906065E-1,1.8075828E-2,-3.6151806E-1,4.4590756E-1,-1.4035675E-1,-5.4016435E-1,1.3926352E-2,2.1677504E-1,8.256052E-1,2.0563727E-2,-2.6894405E-2,-3.4140844E-2,-7.39266E-3,6.1603034E-1,-2.4541654E-1,1.6170058E-2,4.8588015E-2,5.548123E-3,4.2770963E-2,-2.775805E-2,1.691424E-2],"categories":[],"categories_nodes":[],"categories_segments":[],"categories_sizes":[],"default_left":[0,0,0,0,0,0,0,0,0,0,0,0,0,0,0,0,0,0,0,0,0,0,0],"id":24,"left_children":[1,3,5,-1,7,9,11,13,-1,15,17,-1,-1,-1,-1,19,21,-1,-1,-1,-1,-1,-1],"loss_changes":[5.654955E0,4.0208683E0,5.2030816E0,0E0,3.5775683E0,4.6352987E0,4.798356E0,1.143208E0,0E0,6.9749293E0,1.079711E0,0E0,0E0,0E0,0E0,2.2427115E0,3.3995705E0,0E0,0E0,0E0,0E0,0E0,0E0],"parents":[2147483647,0,0,1,1,2,2,4,4,5,5,6,6,7,7,9,9,10,10,15,15,16,16],"right_children":[2,4,6,-1,8,10,12,14,-1,16,18,-1,-1,-1,-1,20,22,-1,-1,-1,-1,-1,-1],"split_conditions":[1.5559406E2,3.533192E9,8.062213E9,1.8075828E-2,7.7679565E1,1.7970872E2,-2.1319816E0,6.645923E0,1.3926352E-2,1.6638101E2,-3.800514E0,2.0563727E-2,-2.6894405E-2,-3.4140844E-2,-7.39266E-3,8.383423E0,4.4000125E0,1.6170058E-2,4.8588015E-2,5.548123E-3,4.2770963E-2,-2.775805E-2,1.691424E-2],"split_indices":[7,17,17,0,0,7,8,24,0,7,22,0,0,0,0,20,10,0,0,0,0,0,0],"split_type":[0,0,0,0,0,0,0,0,0,0,0,0,0,0,0,0,0,0,0,0,0,0,0],"sum_hessian":[1.1345141E2,3.8102806E1,7.53486E1,9.359025E0,2.8743782E1,5.5533882E1,1.9814718E1,2.2715761E1,6.0280213E0,3.5777725E1,1.9756159E1,8.179029E0,1.163569E1,1.5928447E1,6.7873144E0,1.9133303E1,1.664442E1,5.3319507E0,1.4424209E1,6.757479E0,1.2375824E1,1.1017917E1,5.6265044E0],"tree_param":{"num_deleted":"0","num_feature":"40","num_nodes":"23","size_leaf_vector":"1"}},{"base_weights":[-3.7745827E-1,-4.23741E-1,-0E0,-5.1057404E-1,-2.580993E-1,-2.916013E-2,-1.0859649E-2,7.2998093E-3,-3.8148484E-1,-2.5910093E-2,-4.997458E-3],"categories":[],"categories_nodes":[],"categories_segments":[],"categories_sizes":[],"default_left":[0,0,0,0,0,0,0,0,0,0,0],"id":25,"left_children":[1,3,-1,5,7,-1,-1,-1,9,-1,-1],"loss_changes":[1.4579306E0,8.4085846E-1,0E0,7.831192E-1,1.4510741E0,0E0,0E0,0E0,7.156489E-1,0E0,0E0],"parents":[2147483647,0,0,1,1,3,3,4,4,8,8],"right_children":[2,4,-1,6,8,-1,-1,-1,10,-1,-1],"split_conditions":[7.7562895E0,5.2258415E1,-0E0,3.1927832E1,5.6385433E1,-2.916013E-2,-1.0859649E-2,7.2998093E-3,2.2573528E1,-2.5910093E-2,-4.997458E-3],"split_indices":[11,1,0,31,1,0,0,0,32,0,0],"split_type":[0,0,0,0,0,0,0,0,0,0,0],"sum_hessian":[8.072575E1,7.1967514E1,8.758241E0,4.5453617E1,2.6513897E1,3.5369038E1,1.0084579E1,5.9695435E0,2.0544353E1,1.3023952E1,7.5204015E0],"tree_param":{"num_deleted":"0","num_feature":"40","num_nodes":"11","size_leaf_vector":"1"}},{"base_weights":[1.2810925E-1,1.9879001E-1,-2.4397856E-2,-3.1037292E-2,4.2104918E-1,4.4912001E-1,-2.7488762E-1,5.19045E-1,-1.166189E-2,4.3702416E-2,-0E0,1.972764E-2,-4.2270362E-1,6.5163434E-1,-2.4522024E-3,-3.0643804E-2,-1.1825733E-1,3.6003095E-1,4.542004E-2,1.7431559E-2,-3.0415347E-2,3.251598E-2,-1.5792115E-2],"categories":[],"categories_nodes":[],"categories_segments":[],"categories_sizes":[],"default_left":[0,0,0,0,0,0,0,0,0,0,0,0,0,0,0,0,0,0,0,0,0,0,0],"id":26,"left_children":[1,3,-1,5,7,9,11,13,-1,-1,-1,-1,15,17,-1,-1,19,21,-1,-1,-1,-1,-1],"loss_changes":[4.677482E0,4.946535E0,0E0,5.7047367E0,3.2914267E0,3.0630205E0,3.3826542E0,3.3356428E0,0E0,0E0,0E0,0E0,1.4293623E0,2.1760387E0,0E0,0E0,2.9607844E0,3.8264532E0,0E0,0E0,0E0,0E0,0E0],"parents":[2147483647,0,0,1,1,3,3,4,4,5,5,6,6,7,7,12,12,13,13,16,16,17,17],"right_children":[2,4,-1,6,8,10,12,14,-1,-1,-1,-1,16,18,-1,-1,20,22,-1,-1,-1,-1,-1],"split_conditions":[4.3041134E0,4.679493E1,-2.4397856E-2,1.471714E2,6.4277573E0,3.844914E1,-1.740058E1,8.821782E0,-1.166189E-2,4.3702416E-2,-0E0,1.972764E-2,2.1003143E1,1.508217E0,-2.4522024E-3,-3.0643804E-2,3.1763176E1,1.5909417E1,4.542004E-2,1.7431559E-2,-3.0415347E-2,3.251598E-2,-1.5792115E-2],"split_indices":[8,2,0,4,11,1,25,23,0,0,0,0,31,23,0,0,31,32,0,0,0,0,0],"split_type":[0,0,0,0,0,0,0,0,0,0,0,0,0,0,0,0,0,0,0,0,0,0,0],"sum_hessian":[1.0485599E2,9.4817314E1,1.0038667E1,4.6816795E1,4.8000523E1,1.5346552E1,3.1470243E1,4.206046E1,5.9400644E0,7.3253837E0,8.021169E0,5.267709E0,2.6202534E1,3.4124844E1,7.935616E0,1.53023615E1,1.0900172E1,1.7285618E1,1.6839226E1,5.6252785E0,5.2748938E0,1.222201E1,5.0636077E0],"tree_param":{"num_deleted":"0","num_feature":"40","num_nodes":"23","size_leaf_vector":"1"}},{"base_weights":[1.115539E-1,-1.7983592E-1,2.6389349E-1,1.7450655E-2,-3.4055045E-1,5.2426976E-1,2.4687039E-2,-5.9004295E-1,1.1486057E-1,-1.2714567E-2,6.960374E-1,-1.3279149E-1,3.7523516E-2,-3.3240523E-2,-1.5084627E-2,-1.5634645E-2,2.7283842E-2,4.7233295E-2,2.811148E-1,4.0444076E-1,-4.1811106E-1,3.0960608E-2,-2.0680728E-3,1.081015E-4,3.730383E-2,-3.0120417E-2,-6.0813315E-3],"categories":[],"categories_nodes":[],"categories_segments":[],"categories_sizes":[],"default_left":[0,0,0,0,0,0,0,0,0,0,0,0,0,0,0,0,0,0,0,0,0,0,0,0,0,0,0],"id":27,"left_children":[1,3,5,-1,7,9,11,13,15,-1,17,19,-1,-1,-1,-1,-1,-1,21,23,25,-1,-1,-1,-1,-1,-1],"loss_changes":[5.0869713E0,3.456584E0,4.6070514E0,0E0,3.6121633E0,4.9939356E0,4.775396E0,1.3802528E-1,2.328433E0,0E0,2.6666117E0,5.3679643E0,0E0,0E0,0E0,0E0,0E0,0E0,1.4647343E0,1.5931525E0,1.0979338E0,0E0,0E0,0E0,0E0,0E0,0E0],"parents":[2147483647,0,0,1,1,2,2,4,4,5,5,6,6,7,7,8,8,10,10,11,11,18,18,19,19,20,20],"right_children":[2,4,6,-1,8,10,12,14,16,-1,18,20,-1,-1,-1,-1,-1,-1,22,24,26,-1,-1,-1,-1,-1,-1],"split_conditions":[1.5559406E2,1.4558672E2,9.826267E-2,1.7450655E-2,7.5804037E-1,-1.6386747E1,2.1946133E2,1.0593327E0,2.1238856E-1,-1.2714567E-2,2.2609146E1,2.005226E2,3.7523516E-2,-3.3240523E-2,-1.5084627E-2,-1.5634645E-2,2.7283842E-2,4.7233295E-2,-2.2564898E1,4.2271657E0,2.9169028E0,3.0960608E-2,-2.0680728E-3,1.081015E-4,3.730383E-2,-3.0120417E-2,-6.0813315E-3],"split_indices":[7,13,11,0,15,25,6,12,16,0,31,13,0,0,0,0,0,0,26,11,8,0,0,0,0,0,0],"split_type":[0,0,0,0,0,0,0,0,0,0,0,0,0,0,0,0,0,0,0,0,0,0,0,0,0,0,0],"sum_hessian":[1.1233825E2,3.8280235E1,7.4058014E1,8.503773E0,2.9776463E1,3.4689133E1,3.9368877E1,1.9188295E1,1.0588167E1,6.0778418E0,2.8611292E1,3.290787E1,6.461008E0,1.3925211E1,5.2630854E0,5.335321E0,5.2528467E0,1.6941767E1,1.1669526E1,1.1148402E1,2.175947E1,5.3989577E0,6.2705684E0,5.716371E0,5.4320307E0,1.2574147E1,9.185323E0],"tree_param":{"num_deleted":"0","num_feature":"40","num_nodes":"27","size_leaf_vector":"1"}},{"base_weights":[-3.41187E-1,-4.6731362E-1,-8.109339E-2,-2.1272388E-1,-5.386804E-1,2.4142763E-2,-3.4549952E-1,-2.6247798E-2,4.3112086E-3,-1.3923605E-2,-2.9015172E-2,-2.8098831E-2,-5.7004164E-3],"categories":[],"categories_nodes":[],"categories_segments":[],"categories_sizes":[],"default_left":[0,0,0,0,0,0,0,0,0,0,0,0,0],"id":28,"left_children":[1,3,5,7,9,-1,11,-1,-1,-1,-1,-1,-1],"loss_changes":[2.4948568E0,7.668915E-1,4.2131014E0,1.3480322E0,1.8752193E-1,0E0,8.3252764E-1,0E0,0E0,0E0,0E0,0E0,0E0],"parents":[2147483647,0,0,1,1,2,2,3,3,4,4,6,6],"right_children":[2,4,6,8,10,-1,12,-1,-1,-1,-1,-1,-1],"split_conditions":[6.8087715E-1,-6.801584E0,7.5804037E-1,-9.513972E0,1.551509E-1,2.4142763E-2,9.101169E-1,-2.6247798E-2,4.3112086E-3,-1.3923605E-2,-2.9015172E-2,-2.8098831E-2,-5.7004164E-3],"split_indices":[15,10,15,10,16,0,15,0,0,0,0,0,0],"split_type":[0,0,0,0,0,0,0,0,0,0,0,0,0],"sum_hessian":[7.787867E1,5.1650646E1,2.6228024E1,1.2487032E1,3.9163612E1,7.9874E0,1.8240623E1,5.9016414E0,6.58539E0,6.792547E0,3.2371067E1,8.465015E0,9.775608E0],"tree_param":{"num_deleted":"0","num_feature":"40","num_nodes":"13","size_leaf_vector":"1"}},{"base_weights":[1.4278051E-1,4.350169E-2,9.2892E-2,-2.0720242E-1,2.2970389E-1,1.9878949E-1,-5.030653E-1,6.0500276E-1,4.009908E-2,3.0189225E-2,-1.3509269E-2,-7.412467E-3,-3.3972047E-2,2.595332E-1,8.3114934E-1,-3.192541E-2,1.9527327E-1,2.5084117E-2,-8.3312386E-4,4.897999E-2,2.3872921E-2,3.4080258E-1,-2.9591635E-2,-1.0563056E-2,3.2699764E-2],"categories":[],"categories_nodes":[],"categories_segments":[],"categories_sizes":[],"default_left":[0,0,0,0,0,0,0,0,0,0,0,0,0,0,0,0,0,0,0,0,0,0,0,0,0],"id":29,"left_children":[1,-1,3,5,7,9,11,13,15,-1,-1,-1,-1,17,19,-1,21,-1,-1,-1,-1,23,-1,-1,-1],"loss_changes":[3.9133782E0,0E0,4.4327717E0,4.1814623E0,5.178958E0,3.0057952E0,1.0640163E0,1.5970497E0,5.3906784E0,0E0,0E0,0E0,0E0,8.1668705E-1,1.3414669E-1,0E0,4.9795113E0,0E0,0E0,0E0,0E0,6.429177E0,0E0,0E0,0E0],"parents":[2147483647,0,0,2,2,3,3,4,4,5,5,6,6,7,7,8,8,13,13,14,14,16,16,21,21],"right_children":[2,-1,4,6,8,10,12,14,16,-1,-1,-1,-1,18,20,-1,22,-1,-1,-1,-1,24,-1,-1,-1],"split_conditions":[1.316174E2,4.350169E-2,1.3073347E2,-4.585518E0,1.639811E2,5.383324E9,5.1513976E-1,3.7599785E9,1.6692496E2,3.0189225E-2,-1.3509269E-2,-7.412467E-3,-3.3972047E-2,8.21403E-1,6.611631E-1,-3.192541E-2,2.1987444E2,2.5084117E-2,-8.3312386E-4,4.897999E-2,2.3872921E-2,-2.1319816E0,-2.9591635E-2,-1.0563056E-2,3.2699764E-2],"split_indices":[7,0,14,8,5,17,18,17,7,0,0,0,0,23,15,0,5,0,0,0,0,8,0,0,0],"split_type":[0,0,0,0,0,0,0,0,0,0,0,0,0,0,0,0,0,0,0,0,0,0,0,0,0],"sum_hessian":[1.11742874E2,5.9893064E0,1.0575356E2,3.2725445E1,7.3028114E1,1.3791055E1,1.8934391E1,2.359886E1,4.9429256E1,7.3604927E0,6.430562E0,7.0863137E0,1.1848078E1,1.036094E1,1.3237921E1,8.499601E0,4.0929657E1,5.2786484E0,5.082291E0,7.878704E0,5.3592167E0,3.5128716E1,5.80094E0,1.2717606E1,2.241111E1],"tree_param":{"num_deleted":"0","num_feature":"40","num_nodes":"25","size_leaf_vector":"1"}},{"base_weights":[1.183675E-1,-1.8041645E-1,2.7144402E-1,7.893802E-2,-5.372932E-1,4.2271334E-1,-1.686743E-1,4.275773E-1,-3.04252E-2,-3.1700455E-2,-1.3249518E-2,2.0883271E-1,7.4602944E-1,1.9383715E-2,-4.7342566E-1,6.9516635E-4,4.5002572E-2,6.1773854E-1,-1.18223555E-1,9.589259E-3,4.5918792E-2,-3.236163E-2,-7.94551E-3,6.832776E-3,4.2566817E-2,8.430042E-2,-2.5757795E-2,1.9984676E-2,-9.4546145E-3],"categories":[],"categories_nodes":[],"categories_segments":[],"categories_sizes":[],"default_left":[0,0,0,0,0,0,0,0,0,0,0,0,0,0,0,0,0,0,0,0,0,0,0,0,0,0,0,0,0],"id":30,"left_children":[1,3,5,7,9,11,13,15,-1,-1,-1,17,19,-1,21,-1,-1,23,25,-1,-1,-1,-1,-1,-1,27,-1,-1,-1],"loss_changes":[4.936725E0,3.468011E0,4.833792E0,5.4804516E0,1.5447998E-1,3.4418707E0,3.3703914E0,2.8641489E0,0E0,0E0,0E0,4.6323133E0,1.6890793E0,0E0,5.095601E-1,0E0,0E0,1.5021062E0,1.6490729E0,0E0,0E0,0E0,0E0,0E0,0E0,1.2661474E0,0E0,0E0,0E0],"parents":[2147483647,0,0,1,1,2,2,3,3,4,4,5,5,6,6,7,7,11,11,12,12,14,14,17,17,18,18,25,25],"right_children":[2,4,6,8,10,12,14,16,-1,-1,-1,18,20,-1,22,-1,-1,24,26,-1,-1,-1,-1,-1,-1,28,-1,-1,-1],"split_conditions":[1.5559406E2,8.8266535E0,8.1709563E9,1.3305411E2,3.3555436E0,2.7303618E-1,1.9779417E2,1.0058161E0,-3.04252E-2,-3.1700455E-2,-1.3249518E-2,1.8651466E-1,1.8624269E2,1.9383715E-2,4.611506E0,6.9516635E-4,4.5002572E-2,-1.0134112E1,1.7299334E1,9.589259E-3,4.5918792E-2,-3.236163E-2,-7.94551E-3,6.832776E-3,4.2566817E-2,2.005226E2,-2.5757795E-2,1.9984676E-2,-9.4546145E-3],"split_indices":[7,20,17,14,23,16,5,18,0,0,0,16,13,0,29,0,0,24,31,0,0,0,0,0,0,13,0,0,0],"split_type":[0,0,0,0,0,0,0,0,0,0,0,0,0,0,0,0,0,0,0,0,0,0,0,0,0,0,0,0,0],"sum_hessian":[1.056679E2,3.5515244E1,7.015266E1,2.0856627E1,1.4658619E1,5.240704E1,1.7745617E1,1.4185745E1,6.6708803E0,9.565579E0,5.093039E0,3.271835E1,1.9688692E1,6.06791E0,1.1677706E1,8.225234E0,5.9605117E0,1.4280706E1,1.8437641E1,5.308913E0,1.4379778E1,6.63517E0,5.042536E0,5.3257275E0,8.954979E0,1.2563265E1,5.874377E0,5.7888694E0,6.7743955E0],"tree_param":{"num_deleted":"0","num_feature":"40","num_nodes":"29","size_leaf_vector":"1"}},{"base_weights":[-3.295908E-1,-4.4788802E-1,1.4788787E-1,-5.315374E-1,-3.0294985E-1,2.3740929E-2,-1.0391225E-2,-1.2518394E-2,-3.00153E-2,4.3376256E-3,-2.645106E-2],"categories":[],"categories_nodes":[],"categories_segments":[],"categories_sizes":[],"default_left":[0,0,0,0,0,0,0,0,0,0,0],"id":31,"left_children":[1,3,5,7,9,-1,-1,-1,-1,-1,-1],"loss_changes":[4.613227E0,5.3759575E-1,2.0398593E0,5.213938E-1,2.4131763E0,0E0,0E0,0E0,0E0,0E0,0E0],"parents":[2147483647,0,0,1,1,2,2,3,3,4,4],"right_children":[2,4,6,8,10,-1,-1,-1,-1,-1,-1],"split_conditions":[3.5606792E0,9.933426E-1,1.2714225E1,-1.1194141E1,3.793479E0,2.3740929E-2,-1.0391225E-2,-1.2518394E-2,-3.00153E-2,4.3376256E-3,-2.645106E-2],"split_indices":[9,24,25,24,24,0,0,0,0,0,0],"split_type":[0,0,0,0,0,0,0,0,0,0,0],"sum_hessian":[7.896881E1,6.3506287E1,1.5462523E1,3.8138058E1,2.536823E1,8.02924E0,7.433284E0,8.692494E0,2.9445562E1,9.377389E0,1.5990843E1],"tree_param":{"num_deleted":"0","num_feature":"40","num_nodes":"11","size_leaf_vector":"1"}},{"base_weights":[1.3867314E-1,4.3286353E-2,7.642529E-2,5.401539E-1,-0E0,4.409392E-2,5.4792706E-3,-3.127515E-2,8.075911E-2,3.7587982E-1,-9.923879E-2,-1.8877901E-2,6.1428857E-1,1.8654062E-1,-4.9048713E-1,8.328597E-3,3.840648E-2,2.3052575E-2,-4.617401E-3,-7.464999E-3,-3.3869814E-2],"categories":[],"categories_nodes":[],"categories_segments":[],"categories_sizes":[],"default_left":[0,0,0,0,0,0,0,0,0,0,0,0,0,0,0,0,0,0,0,0,0],"id":32,"left_children":[1,-1,3,5,7,-1,-1,-1,9,11,13,-1,15,17,19,-1,-1,-1,-1,-1,-1],"loss_changes":[4.838497E0,0E0,3.6396885E0,1.9429708E0,4.5585213E0,0E0,0E0,0E0,4.3207693E0,5.7828465E0,5.750921E0,0E0,1.4217119E0,2.3509438E0,1.1983685E0,0E0,0E0,0E0,0E0,0E0,0E0],"parents":[2147483647,0,0,2,2,3,3,4,4,8,8,9,9,10,10,12,12,13,13,14,14],"right_children":[2,-1,4,6,8,-1,-1,-1,10,12,14,-1,16,18,20,-1,-1,-1,-1,-1,-1],"split_conditions":[1.2975763E2,4.3286353E-2,-1.5909932E1,3.571309E1,1.5350014E2,4.409392E-2,5.4792706E-3,-3.127515E-2,2.4812457E-1,7.534306E0,9.748797E-1,-1.8877901E-2,5.0554153E1,1.1892099E1,2.8207877E-1,8.328597E-3,3.840648E-2,2.3052575E-2,-4.617401E-3,-7.464999E-3,-3.3869814E-2],"split_indices":[6,0,25,2,13,0,0,0,16,32,18,0,2,32,16,0,0,0,0,0,0],"split_type":[0,0,0,0,0,0,0,0,0,0,0,0,0,0,0,0,0,0,0,0,0],"sum_hessian":[1.0945399E2,7.487372E0,1.0196662E2,1.3535947E1,8.843067E1,6.832694E0,6.7032523E0,9.315568E0,7.9115105E1,2.9770819E1,4.9344284E1,6.914854E0,2.2855965E1,2.8670282E1,2.0674002E1,6.5440083E0,1.6311956E1,1.4300073E1,1.4370209E1,8.143154E0,1.2530848E1],"tree_param":{"num_deleted":"0","num_feature":"40","num_nodes":"21","size_leaf_vector":"1"}},{"base_weights":[9.828392E-2,3.3398253E-1,-1.2054498E-1,6.162059E-1,-1.5651145E-3,-2.6965022E-1,2.635972E-1,1.3651754E-2,7.229292E-1,-2.8587714E-2,4.04773E-1,-4.087653E-1,1.7266389E-2,-7.4112737E-3,2.7594855E-2,4.138721E-2,2.2422103E-2,4.4520833E-2,-1.2878721E-2,3.019845E-3,-5.26302E-1,-3.371129E-2,-1.06504345E-2],"categories":[],"categories_nodes":[],"categories_segments":[],"categories_sizes":[],"default_left":[0,0,0,0,0,0,0,0,0,0,0,0,0,0,0,0,0,0,0,0,0,0,0],"id":33,"left_children":[1,3,5,7,9,11,13,-1,15,-1,17,19,-1,-1,-1,-1,-1,-1,-1,-1,21,-1,-1],"loss_changes":[5.656851E0,5.054323E0,3.3232715E0,7.576504E-1,6.021162E0,3.7045436E0,2.0445898E0,0E0,1.0927296E-1,0E0,5.1279173E0,1.9807048E0,0E0,0E0,0E0,0E0,0E0,0E0,0E0,0E0,1.0587854E0,0E0,0E0],"parents":[2147483647,0,0,1,1,2,2,3,3,4,4,5,5,6,6,8,8,10,10,11,11,20,20],"right_children":[2,4,6,8,10,12,14,-1,16,-1,18,20,-1,-1,-1,-1,-1,-1,-1,-1,22,-1,-1],"split_conditions":[4.679493E1,6.895354E0,6.4487357E0,-1.0142452E0,1.9081955E2,8.821782E0,6.452202E1,1.3651754E-2,1.0144926E0,-2.8587714E-2,1.684945E2,3.599592E9,1.7266389E-2,-7.4112737E-3,2.7594855E-2,4.138721E-2,2.2422103E-2,4.4520833E-2,-1.2878721E-2,3.019845E-3,1.8678421E2,-3.371129E-2,-1.06504345E-2],"split_indices":[2,21,11,12,13,23,2,0,19,0,3,17,0,0,0,0,0,0,0,0,3,0,0],"split_type":[0,0,0,0,0,0,0,0,0,0,0,0,0,0,0,0,0,0,0,0,0,0,0],"sum_hessian":[1.0748197E2,5.1713062E1,5.5768913E1,2.779596E1,2.3917105E1,4.0577194E1,1.5191719E1,7.660102E0,2.0135857E1,9.885044E0,1.403206E1,3.349758E1,7.079613E0,6.31296E0,8.878759E0,1.2849321E1,7.2865353E0,7.9844084E0,6.0476513E0,6.6377053E0,2.6859875E1,1.7245861E1,9.614014E0],"tree_param":{"num_deleted":"0","num_feature":"40","num_nodes":"23","size_leaf_vector":"1"}},{"base_weights":[-3.302138E-1,-4.6586126E-1,4.3767504E-3,-2.0080371E-1,-5.343863E-1,2.982324E-1,-2.636676E-1,-2.6599541E-2,7.964463E-3,-2.9814491E-2,-1.3714348E-2,3.38269E-2,-4.8938375E-3,-2.6939139E-2,3.9553395E-3],"categories":[],"categories_nodes":[],"categories_segments":[],"categories_sizes":[],"default_left":[0,0,0,0,0,0,0,0,0,0,0,0,0,0,0],"id":34,"left_children":[1,3,5,7,9,11,13,-1,-1,-1,-1,-1,-1,-1,-1],"loss_changes":[3.5550623E0,8.217802E-1,1.8989897E0,1.7011132E0,4.4107533E-1,1.8699716E0,1.2594538E0,0E0,0E0,0E0,0E0,0E0,0E0,0E0,0E0],"parents":[2147483647,0,0,1,1,2,2,3,3,4,4,5,5,6,6],"right_children":[2,4,6,8,10,12,14,-1,-1,-1,-1,-1,-1,-1,-1],"split_conditions":[3.229055E0,-6.801584E0,7.5804037E-1,-1.5106357E1,1.6743328E1,7.2808466E0,8.993392E0,-2.6599541E-2,7.964463E-3,-2.9814491E-2,-1.3714348E-2,3.38269E-2,-4.8938375E-3,-2.6939139E-2,3.9553395E-3],"split_indices":[9,10,15,26,32,10,20,0,0,0,0,0,0,0,0],"split_type":[0,0,0,0,0,0,0,0,0,0,0,0,0,0,0],"sum_hessian":[7.626715E1,5.4200207E1,2.2066946E1,1.2241045E1,4.195916E1,1.0650885E1,1.1416061E1,6.272445E0,5.9686E0,3.2538094E1,9.421068E0,5.214886E0,5.4359984E0,6.1776814E0,5.2383795E0],"tree_param":{"num_deleted":"0","num_feature":"40","num_nodes":"15","size_leaf_vector":"1"}},{"base_weights":[1.2588559E-1,1.831368E-1,-2.6237894E-2,4.3531084E-1,4.575244E-2,-1.5143892E-3,6.2092346E-1,-1.9797207E-1,3.0113345E-1,7.16445E-1,9.640508E-3,2.3352616E-1,-5.7479703E-1,4.3408513E-1,-1.6061263E-2,4.225243E-2,1.9704757E-2,-8.178928E-3,3.3826E-2,-1.4800936E-2,-3.2633226E-2,6.4914876E-1,2.0229644E-3,3.91997E-3,4.3009903E-2],"categories":[],"categories_nodes":[],"categories_segments":[],"categories_sizes":[],"default_left":[0,0,0,0,0,0,0,0,0,0,0,0,0,0,0,0,0,0,0,0,0,0,0,0,0],"id":35,"left_children":[1,3,-1,5,7,-1,9,11,13,15,-1,17,19,21,-1,-1,-1,-1,-1,-1,-1,23,-1,-1,-1],"loss_changes":[4.1464615E0,3.4541614E0,0E0,3.144084E0,4.251746E0,0E0,8.1648827E-1,5.823625E0,2.9148016E0,3.8642883E-1,0E0,3.1175663E0,1.239233E-1,2.2821221E0,0E0,0E0,0E0,0E0,0E0,0E0,0E0,1.9984612E0,0E0,0E0,0E0],"parents":[2147483647,0,0,1,1,3,3,4,4,6,6,7,7,8,8,9,9,11,11,12,12,13,13,21,21],"right_children":[2,4,-1,6,8,-1,10,12,14,16,-1,18,20,22,-1,-1,-1,-1,-1,-1,-1,24,-1,-1,-1],"split_conditions":[5.0387015E0,1.5525798E2,-2.6237894E-2,3.5424425E9,9.826267E-2,-1.5143892E-3,1.4009017E1,-5.2254257E0,7.103135E0,6.236242E1,9.640508E-3,-7.3744173E0,-1.3972116E1,6.150998E0,-1.6061263E-2,4.225243E-2,1.9704757E-2,-8.178928E-3,3.3826E-2,-1.4800936E-2,-3.2633226E-2,2.1220562E-1,2.0229644E-3,3.91997E-3,4.3009903E-2],"split_indices":[9,7,0,17,11,0,26,9,11,0,0,11,26,25,0,0,0,0,0,0,0,16,0,0,0],"split_type":[0,0,0,0,0,0,0,0,0,0,0,0,0,0,0,0,0,0,0,0,0,0,0,0,0],"sum_hessian":[1.086512E2,1.0066568E2,7.9855204E0,3.4479977E1,6.618571E1,9.912674E0,2.4567305E1,3.3780396E1,3.2405308E1,1.9344126E1,5.2231793E0,1.5801346E1,1.7979048E1,2.7082907E1,5.322403E0,1.2446691E1,6.897434E0,8.5458E0,7.2555456E0,5.2541456E0,1.2724903E1,1.692983E1,1.0153076E1,5.068412E0,1.1861419E1],"tree_param":{"num_deleted":"0","num_feature":"40","num_nodes":"25","size_leaf_vector":"1"}},{"base_weights":[1.3898164E-1,2.2055167E-1,-2.5049463E-1,7.719776E-2,6.975598E-1,-3.228406E-2,5.6011036E-2,1.6745944E-1,-2.1816108E-2,1.9064475E-2,4.078768E-2,2.7700255E-2,-2.4281396E-2,-4.2704105E-2,4.690286E-1,2.3009147E-1,-4.270153E-1,3.6255907E-2,1.6019227E-3,2.6183486E-2,-2.278837E-2,-3.126908E-2,-3.7707647E-3],"categories":[],"categories_nodes":[],"categories_segments":[],"categories_sizes":[],"default_left":[0,0,0,0,0,0,0,0,0,0,0,0,0,0,0,0,0,0,0,0,0,0,0],"id":36,"left_children":[1,3,5,7,9,-1,11,13,-1,-1,-1,-1,-1,15,17,19,21,-1,-1,-1,-1,-1,-1],"loss_changes":[3.5843585E0,6.2055616E0,2.4581375E0,3.4085681E0,3.5907364E-1,0E0,3.4491994E0,4.029249E0,0E0,0E0,0E0,0E0,0E0,4.060215E0,2.8086677E0,4.7739134E0,1.006583E0,0E0,0E0,0E0,0E0,0E0,0E0],"parents":[2147483647,0,0,1,1,2,2,3,3,4,4,6,6,7,7,13,13,14,14,15,15,16,16],"right_children":[2,4,6,8,10,-1,12,14,-1,-1,-1,-1,-1,16,18,20,22,-1,-1,-1,-1,-1,-1],"split_conditions":[8.1310223E9,1.7970872E2,4.9321713E0,1.6816725E2,-6.3754683E0,-3.228406E-2,2.231742E1,1.5559406E2,-2.1816108E-2,1.9064475E-2,4.078768E-2,2.7700255E-2,-2.4281396E-2,1.4911491E2,2.1003143E1,8.8266535E0,1.6510206E1,3.6255907E-2,1.6019227E-3,2.6183486E-2,-2.278837E-2,-3.126908E-2,-3.7707647E-3],"split_indices":[17,7,30,7,23,0,31,7,0,0,0,0,0,7,31,20,32,0,0,0,0,0,0],"split_type":[0,0,0,0,0,0,0,0,0,0,0,0,0,0,0,0,0,0,0,0,0,0,0],"sum_hessian":[1.1017883E2,9.167033E1,1.850851E1,7.15416E1,2.012872E1,7.7438345E0,1.0764677E1,6.158535E1,9.956258E0,6.8557396E0,1.327298E1,5.692588E0,5.0720887E0,3.6603302E1,2.4982046E1,2.1490082E1,1.511322E1,1.5191298E1,9.790749E0,1.5316299E1,6.173783E0,8.982417E0,6.130803E0],"tree_param":{"num_deleted":"0","num_feature":"40","num_nodes":"23","size_leaf_vector":"1"}},{"base_weights":[-2.8967765E-1,-4.2340583E-1,-3.2436796E-2,-4.672256E-1,-1.0195951E-3,2.5361625E-2,-3.2104614E-1,-2.8174824E-1,-2.7923306E-2,-2.8093744E-2,1.2316796E-3,-5.2645E-4,-2.238898E-2],"categories":[],"categories_nodes":[],"categories_segments":[],"categories_sizes":[],"default_left":[0,0,0,0,0,0,0,0,0,0,0,0,0],"id":37,"left_children":[1,3,5,7,-1,-1,9,11,-1,-1,-1,-1,-1],"loss_changes":[2.5055203E0,8.0206203E-1,4.3248014E0,4.9767113E-1,0E0,0E0,1.5844969E0,7.050177E-1,0E0,0E0,0E0,0E0,0E0],"parents":[2147483647,0,0,1,1,2,2,3,3,6,6,7,7],"right_children":[2,4,6,8,-1,-1,10,12,-1,-1,-1,-1,-1],"split_conditions":[6.70707E-1,9.089255E0,7.5804037E-1,3.4537206E0,-1.0195951E-3,2.5361625E-2,9.329207E0,-4.3225675E0,-2.7923306E-2,-2.8093744E-2,1.2316796E-3,-5.2645E-4,-2.238898E-2],"split_indices":[15,21,15,29,0,0,24,25,0,0,0,0,0],"split_type":[0,0,0,0,0,0,0,0,0,0,0,0,0],"sum_hessian":[7.355852E1,4.7717567E1,2.5840954E1,4.2670532E1,5.0470347E0,8.619463E0,1.7221489E1,1.5778775E1,2.6891758E1,9.951987E0,7.269502E0,6.623964E0,9.154811E0],"tree_param":{"num_deleted":"0","num_feature":"40","num_nodes":"13","size_leaf_vector":"1"}},{"base_weights":[1.1943117E-1,1.8658888E-1,-2.4409065E-1,7.4495465E-2,5.927903E-1,6.5168366E-3,-4.1974953E-1,-1.017925E-1,3.472195E-1,3.9496448E-2,1.3474114E-3,-3.0268515E-2,-6.369747E-3,6.327336E-2,-4.4104415E-1,5.3115547E-1,-9.6344175E-3,-2.7225977E-1,3.107952E-1,-3.0783445E-2,-3.0767042E-3,1.0932629E-2,7.040209E-1,5.4786014E-3,-2.5976444E-2,2.5982011E-2,-9.423485E-3,1.540334E-2,4.5323145E-2],"categories":[],"categories_nodes":[],"categories_segments":[],"categories_sizes":[],"default_left":[0,0,0,0,0,0,0,0,0,0,0,0,0,0,0,0,0,0,0,0,0,0,0,0,0,0,0,0,0],"id":38,"left_children":[1,3,5,7,9,-1,11,13,15,-1,-1,-1,-1,17,19,21,-1,23,25,-1,-1,-1,27,-1,-1,-1,-1,-1,-1],"loss_changes":[2.6895337E0,4.09682E0,1.2100298E0,3.6061985E0,2.088901E0,0E0,5.049124E-1,2.6053705E0,3.056779E0,0E0,0E0,0E0,0E0,2.678408E0,8.9959717E-1,9.606457E-1,0E0,1.3819877E0,2.068831E0,0E0,0E0,0E0,6.9964314E-1,0E0,0E0,0E0,0E0,0E0,0E0],"parents":[2147483647,0,0,1,1,2,2,3,3,4,4,6,6,7,7,8,8,13,13,14,14,15,15,17,17,18,18,22,22],"right_children":[2,4,6,8,10,-1,12,14,16,-1,-1,-1,-1,18,20,22,-1,24,26,-1,-1,-1,28,-1,-1,-1,-1,-1,-1],"split_conditions":[3.744522E0,5.8575466E-2,1.7297865E1,2.3304968E1,2.4812457E-1,6.5168366E-3,1.0392279E1,1.8453328E2,4.115572E-1,3.9496448E-2,1.3474114E-3,-3.0268515E-2,-6.369747E-3,8.50357E0,4.7041576E1,1.3330431E-1,-9.6344175E-3,3.365289E0,9.9137896E-1,-3.0783445E-2,-3.0767042E-3,1.0932629E-2,-5.053742E0,5.4786014E-3,-2.5976444E-2,2.5982011E-2,-9.423485E-3,1.540334E-2,4.5323145E-2],"split_indices":[8,28,32,31,16,0,25,7,16,0,0,0,0,20,2,15,0,29,8,0,0,0,8,0,0,0,0,0,0],"split_type":[0,0,0,0,0,0,0,0,0,0,0,0,0,0,0,0,0,0,0,0,0,0,0,0,0,0,0,0,0],"sum_hessian":[1.07536736E2,9.141108E1,1.6125652E1,7.276169E1,1.8649393E1,5.0500016E0,1.1075651E1,4.435247E1,2.8409214E1,1.3406007E1,5.2433863E0,5.910351E0,5.165301E0,3.018461E1,1.4167862E1,2.134039E1,7.0688233E0,1.2600204E1,1.7584406E1,9.0965E0,5.071361E0,8.613117E0,1.2727273E1,5.0124516E0,7.5877523E0,1.251063E1,5.0737762E0,5.3259754E0,7.4012976E0],"tree_param":{"num_deleted":"0","num_feature":"40","num_nodes":"29","size_leaf_vector":"1"}},{"base_weights":[1.1532915E-1,-3.855535E-1,1.8449488E-1,-3.0320391E-2,-5.1429924E-3,3.7532923E-1,-6.239132E-2,5.978074E-1,2.6858736E-2,-2.7419248E-1,3.0774003E-1,7.130654E-1,8.090283E-3,-1.9751992E-2,3.6949727E-1,7.571081E-3,-4.608712E-1,-9.465194E-3,3.137372E-2,1.7903661E-2,3.9942246E-2,3.188881E-2,3.2584984E-3,-5.6140535E-3,-2.8779095E-2],"categories":[],"categories_nodes":[],"categories_segments":[],"categories_sizes":[],"default_left":[0,0,0,0,0,0,0,0,0,0,0,0,0,0,0,0,0,0,0,0,0,0,0,0,0],"id":39,"left_children":[1,3,5,-1,-1,7,9,11,13,15,17,19,-1,-1,21,-1,23,-1,-1,-1,-1,-1,-1,-1,-1],"loss_changes":[3.5499344E0,6.410322E-1,4.2758703E0,0E0,0E0,3.8679447E0,3.1924558E0,1.3472576E0,3.1874998E0,2.1621192E0,2.5058746E0,3.2672024E-1,0E0,0E0,8.8975227E-1,0E0,6.041548E-1,0E0,0E0,0E0,0E0,0E0,0E0,0E0,0E0],"parents":[2147483647,0,0,1,1,2,2,5,5,6,6,7,7,8,8,9,9,10,10,11,11,14,14,16,16],"right_children":[2,4,6,-1,-1,8,10,12,14,16,18,20,-1,-1,22,-1,24,-1,-1,-1,-1,-1,-1,-1,-1],"split_conditions":[-1.5909932E1,5.017522E-2,4.9516277E1,-3.0320391E-2,-5.1429924E-3,2.0583496E1,1.9174343E1,8.310239E-2,8.612651E-1,3.5775185E0,5.186997E0,-2.9170704E0,8.090283E-3,-1.9751992E-2,3E0,7.571081E-3,2.549983E0,-9.465194E-3,3.137372E-2,1.7903661E-2,3.9942246E-2,3.188881E-2,3.2584984E-3,-5.6140535E-3,-2.8779095E-2],"split_indices":[25,15,2,0,0,31,26,9,19,30,11,9,0,0,33,0,26,0,0,0,0,0,0,0,0],"split_type":[0,0,0,0,0,0,0,0,0,0,0,0,0,0,0,0,0,0,0,0,0,0,0,0,0],"sum_hessian":[9.9996315E1,1.140242E1,8.8593895E1,5.5599027E0,5.842518E0,4.990437E1,3.8689526E1,2.9846575E1,2.0057796E1,2.4944721E1,1.3744802E1,2.2922218E1,6.9243555E0,8.789858E0,1.1267938E1,7.499525E0,1.7445196E1,5.417769E0,8.327033E0,5.6948075E0,1.7227411E1,5.23168E0,6.0362577E0,5.0251207E0,1.2420075E1],"tree_param":{"num_deleted":"0","num_feature":"40","num_nodes":"25","size_leaf_vector":"1"}},{"base_weights":[-3.0347005E-1,-4.629019E-1,-0E0,-4.176236E-3,-5.286517E-1,2.570129E-2,-2.6374918E-1,-2.8453816E-2,-9.514342E-3,-8.1492536E-4,-2.697256E-2],"categories":[],"categories_nodes":[],"categories_segments":[],"categories_sizes":[],"default_left":[0,0,0,0,0,0,0,0,0,0,0],"id":40,"left_children":[1,3,5,-1,7,-1,9,-1,-1,-1,-1],"loss_changes":[3.6663017E0,1.1244602E0,3.7649562E0,0E0,3.8491154E-1,0E0,1.1721895E0,0E0,0E0,0E0,0E0],"parents":[2147483647,0,0,1,1,2,2,4,4,6,6],"right_children":[2,4,6,-1,8,-1,10,-1,-1,-1,-1],"split_conditions":[6.716685E-1,-1.1194141E1,7.5804037E-1,-4.176236E-3,3.7562374E1,2.570129E-2,1.1537404E0,-2.8453816E-2,-9.514342E-3,-8.1492536E-4,-2.697256E-2],"split_indices":[15,24,15,0,31,0,19,0,0,0,0],"split_type":[0,0,0,0,0,0,0,0,0,0,0],"sum_hessian":[7.390635E1,4.8303825E1,2.5602526E1,7.6949816E0,4.0608845E1,8.477218E0,1.7125309E1,3.540198E1,5.2068653E0,9.77436E0,7.350949E0],"tree_param":{"num_deleted":"0","num_feature":"40","num_nodes":"11","size_leaf_vector":"1"}},{"base_weights":[1.18963495E-1,4.1772988E-2,5.295222E-1,1.911905E-1,-3.0095328E-2,1.323184E-3,3.7076287E-2,3.009458E-1,-3.356191E-1,7.438084E-1,1.8102843E-1,4.4928016E-3,-3.0778205E-2,2.1088965E-2,4.446182E-2,-3.060284E-1,4.1191658E-1,-2.4586497E-2,2.9514756E-3,6.350615E-3,3.0923113E-2],"categories":[],"categories_nodes":[],"categories_segments":[],"categories_sizes":[],"default_left":[0,0,0,0,0,0,0,0,0,0,0,0,0,0,0,0,0,0,0,0,0],"id":41,"left_children":[1,3,5,7,-1,-1,-1,9,11,13,15,-1,-1,-1,-1,17,19,-1,-1,-1,-1],"loss_changes":[3.3733215E0,9.01783E0,1.7113681E0,4.512604E0,0E0,0E0,0E0,3.165197E0,1.713634E0,1.0788298E-1,5.9579954E0,0E0,0E0,0E0,0E0,1.2303237E0,1.9467292E0,0E0,0E0,0E0,0E0],"parents":[2147483647,0,0,1,1,2,2,3,3,7,7,8,8,9,9,10,10,15,15,16,16],"right_children":[2,4,6,8,-1,-1,-1,10,12,14,16,-1,-1,-1,-1,18,20,-1,-1,-1,-1],"split_conditions":[8.115954E9,1.7970872E2,1.9843477E2,5.3245635E0,-3.0095328E-2,1.323184E-3,3.7076287E-2,2.922269E0,4.5679935E1,1.8854897E-1,8.50357E0,4.4928016E-3,-3.0778205E-2,2.1088965E-2,4.446182E-2,-8.6110365E-1,-5.8678665E0,-2.4586497E-2,2.9514756E-3,6.350615E-3,3.0923113E-2],"split_indices":[17,7,5,11,0,0,0,29,0,16,20,0,0,0,0,8,11,0,0,0,0],"split_type":[0,0,0,0,0,0,0,0,0,0,0,0,0,0,0,0,0,0,0,0,0],"sum_hessian":[1.0794403E2,9.199337E1,1.5950663E1,7.5358665E1,1.66347E1,5.2024355E0,1.0748227E1,6.287738E1,1.2481285E1,1.2111658E1,5.0765724E1,5.0808907E0,7.400395E0,5.1953034E0,6.916354E0,1.6082104E1,3.468362E1,1.0611214E1,5.4708886E0,1.5458968E1,1.9224653E1],"tree_param":{"num_deleted":"0","num_feature":"40","num_nodes":"21","size_leaf_vector":"1"}},{"base_weights":[1.16631515E-1,-2.8731018E-2,1.6213568E-1,3.3720264E-1,-1.51785035E-2,8.1941806E-2,6.2215734E-1,-3.7119314E-1,2.748807E-1,2.567641E-1,-2.3541419E-2,3.8732857E-2,8.062317E-3,-5.0727517E-4,-2.9643038E-2,-8.5517345E-3,4.530047E-1,-8.867748E-3,5.1471394E-1,6.061099E-1,3.325142E-3,1.1791549E-2,4.1236173E-2,1.5069042E-2,4.1636333E-2],"categories":[],"categories_nodes":[],"categories_segments":[],"categories_sizes":[],"default_left":[0,0,0,0,0,0,0,0,0,0,0,0,0,0,0,0,0,0,0,0,0,0,0,0,0],"id":42,"left_children":[1,-1,3,5,7,9,11,13,15,17,-1,-1,-1,-1,-1,-1,19,-1,21,23,-1,-1,-1,-1,-1],"loss_changes":[3.541049E0,0E0,3.2963965E0,3.7450938E0,5.5675054E0,2.938277E0,1.5232935E0,1.8784821E0,2.4514413E0,2.7120285E0,0E0,0E0,0E0,0E0,0E0,0E0,1.1669292E0,0E0,9.8697853E-1,6.7962646E-1,0E0,0E0,0E0,0E0,0E0],"parents":[2147483647,0,0,2,2,3,3,4,4,5,5,6,6,7,7,8,8,9,9,16,16,18,18,19,19],"right_children":[2,-1,4,6,8,10,12,14,16,18,-1,-1,-1,-1,-1,-1,20,-1,22,24,-1,-1,-1,-1,-1],"split_conditions":[1.2975763E2,-2.8731018E-2,9.826267E-2,-3.2553277E0,1.598667E1,4.2888577E1,-1.2122124E0,3.5727267E0,2.4812457E-1,-1.5909932E1,-2.3541419E-2,3.8732857E-2,8.062317E-3,-5.0727517E-4,-2.9643038E-2,-8.5517345E-3,5.539356E0,-8.867748E-3,1.0566063E1,9.156618E0,3.325142E-3,1.1791549E-2,4.1236173E-2,1.5069042E-2,4.1636333E-2],"split_indices":[6,0,11,8,32,2,8,30,16,25,0,0,0,0,0,0,21,0,32,20,0,0,0,0,0],"split_type":[0,0,0,0,0,0,0,0,0,0,0,0,0,0,0,0,0,0,0,0,0,0,0,0,0],"sum_hessian":[1.0992511E2,5.935389E0,1.03989716E2,5.215649E1,5.1833225E1,2.8375961E1,2.378053E1,2.3300077E1,2.8533148E1,2.2102196E1,6.273765E0,1.7193962E1,6.5865684E0,9.432885E0,1.3867193E1,7.995532E0,2.0537617E1,8.209951E0,1.3892243E1,1.4118086E1,6.419531E0,8.40997E0,5.482273E0,7.2032046E0,6.9148808E0],"tree_param":{"num_deleted":"0","num_feature":"40","num_nodes":"25","size_leaf_vector":"1"}},{"base_weights":[-3.7616822E-1,-4.859767E-1,-2.4677745E-1,-2.742945E-2,-1.2498403E-2,2.719303E-3,-3.4496796E-1,-5.857335E-3,-4.6782157E-1,-2.8182402E-2,-9.605987E-3],"categories":[],"categories_nodes":[],"categories_segments":[],"categories_sizes":[],"default_left":[0,0,0,0,0,0,0,0,0,0,0],"id":43,"left_children":[1,3,5,-1,-1,-1,7,-1,9,-1,-1],"loss_changes":[8.113222E-1,3.2672596E-1,1.0800374E0,0E0,0E0,0E0,6.34279E-1,0E0,2.5822353E-1,0E0,0E0],"parents":[2147483647,0,0,1,1,2,2,6,6,8,8],"right_children":[2,4,6,-1,-1,-1,8,-1,10,-1,-1],"split_conditions":[0E0,5.6001844E0,1.541306E2,-2.742945E-2,-1.2498403E-2,2.719303E-3,-1.7990491E-1,-5.857335E-3,9.143479E0,-2.8182402E-2,-9.605987E-3],"split_indices":[26,30,4,0,0,0,12,0,24,0,0],"split_type":[0,0,0,0,0,0,0,0,0,0,0],"sum_hessian":[6.970035E1,3.5794407E1,3.3905937E1,2.6907724E1,8.886685E0,8.195851E0,2.5710085E1,9.976696E0,1.5733389E1,1.0631163E1,5.1022267E0],"tree_param":{"num_deleted":"0","num_feature":"40","num_nodes":"11","size_leaf_vector":"1"}},{"base_weights":[1.3333713E-1,3.5619947E-1,4.625952E-3,4.8646337E-1,-1.6799448E-2,1.792382E-1,-3.160696E-1,-1.8652715E-3,6.1916786E-1,-2.0869888E-1,3.566698E-1,2.5860684E-3,-2.9678568E-2,3.909139E-2,1.3065593E-2,-2.9291255E-2,1.4962661E-2,4.3282416E-2,1.9446036E-1,3.8995933E-2,-2.398253E-2,1.2130136E-2,-2.1086272E-2],"categories":[],"categories_nodes":[],"categories_segments":[],"categories_sizes":[],"default_left":[0,0,0,0,0,0,0,0,0,0,0,0,0,0,0,0,0,0,0,0,0,0,0],"id":44,"left_children":[1,3,5,7,-1,9,11,-1,13,15,17,-1,-1,-1,-1,-1,-1,-1,19,-1,21,-1,-1],"loss_changes":[2.8828824E0,3.5126681E0,3.7298062E0,2.2812424E0,0E0,3.0812998E0,2.470145E0,0E0,1.173502E0,2.9042237E0,2.2332778E0,0E0,0E0,0E0,0E0,0E0,0E0,0E0,3.2239087E0,0E0,2.0995831E0,0E0,0E0],"parents":[2147483647,0,0,1,1,2,2,3,3,5,5,6,6,8,8,9,9,10,10,18,18,20,20],"right_children":[2,4,6,8,-1,10,12,-1,14,16,18,-1,-1,-1,-1,-1,-1,-1,20,-1,22,-1,-1],"split_conditions":[1.5439748E2,6.98756E1,2.8676587E-1,3.4929505E9,-1.6799448E-2,1.8651466E-1,9.4860625E-1,-1.8652715E-3,6.236242E1,9.549911E0,1.9800605E-1,2.5860684E-3,-2.9678568E-2,3.909139E-2,1.3065593E-2,-2.9291255E-2,1.4962661E-2,4.3282416E-2,4.8382034E0,3.8995933E-2,4.698497E0,1.2130136E-2,-2.1086272E-2],"split_indices":[6,1,16,17,0,16,18,0,0,20,15,0,0,0,0,0,0,0,21,0,25,0,0],"split_type":[0,0,0,0,0,0,0,0,0,0,0,0,0,0,0,0,0,0,0,0,0,0,0],"sum_hessian":[1.0081717E2,3.5977707E1,6.483947E1,3.065111E1,5.3265953E0,4.2468918E1,2.2370548E1,6.1890407E0,2.4462069E1,1.3095988E1,2.937293E1,9.815152E0,1.2555396E1,1.5811096E1,8.650973E0,7.540871E0,5.5551167E0,5.9016676E0,2.3471264E1,5.8037667E0,1.7667496E1,1.0660788E1,7.0067086E0],"tree_param":{"num_deleted":"0","num_feature":"40","num_nodes":"23","size_leaf_vector":"1"}},{"base_weights":[1.1936256E-1,-1.5437652E-1,2.5301525E-1,-3.161193E-2,1.4507102E-2,5.766676E-1,1.2806804E-1,5.2625686E-1,-2.4389524E-2,6.2307282E-3,3.9238524E-2,-3.776841E-1,3.288662E-1,4.0768746E-2,3.4311179E-3,-3.170168E-2,-4.954034E-3,5.459505E-1,-1.626393E-1,4.6452614E-3,4.006405E-2,-2.2251485E-2,7.7767805E-3],"categories":[],"categories_nodes":[],"categories_segments":[],"categories_sizes":[],"default_left":[0,0,0,0,0,0,0,0,0,0,0,0,0,0,0,0,0,0,0,0,0,0,0],"id":45,"left_children":[1,3,5,-1,7,9,11,13,-1,-1,-1,15,17,-1,-1,-1,-1,19,21,-1,-1,-1,-1],"loss_changes":[3.7513995E0,2.78063E0,2.630765E0,0E0,6.8490906E0,1.561512E0,5.300442E0,1.6121783E0,0E0,0E0,0E0,9.2252946E-1,4.095784E0,0E0,0E0,0E0,0E0,2.8634667E0,1.1785641E0,0E0,0E0,0E0,0E0],"parents":[2147483647,0,0,1,1,2,2,4,4,5,5,6,6,7,7,11,11,12,12,17,17,18,18],"right_children":[2,4,6,-1,8,10,12,14,-1,-1,-1,16,18,-1,-1,-1,-1,20,22,-1,-1,-1,-1],"split_conditions":[1.561721E2,3.352151E0,1.6692496E2,-3.161193E-2,8.8266535E0,8.383423E0,1.7863885E2,1.5813277E2,-2.4389524E-2,6.2307282E-3,3.9238524E-2,4.3979235E0,5.59215E0,4.0768746E-2,3.4311179E-3,-3.170168E-2,-4.954034E-3,-1.2775775E0,2.1360078E2,4.6452614E-3,4.006405E-2,-2.2251485E-2,7.7767805E-3],"split_indices":[7,29,7,0,20,20,7,13,0,0,0,29,11,0,0,0,0,12,5,0,0,0,0],"split_type":[0,0,0,0,0,0,0,0,0,0,0,0,0,0,0,0,0,0,0,0,0,0,0],"sum_hessian":[1.0019935E2,3.2575985E1,6.762336E1,7.9446926E0,2.4631292E1,1.7605078E1,5.0018284E1,1.2275836E1,1.2355457E1,6.2051764E0,1.1399901E1,1.382307E1,3.6195213E1,6.9100614E0,5.3657746E0,6.347707E0,7.475363E0,2.5170702E1,1.1024512E1,9.7054205E0,1.54652815E1,5.7959867E0,5.2285256E0],"tree_param":{"num_deleted":"0","num_feature":"40","num_nodes":"23","size_leaf_vector":"1"}},{"base_weights":[-2.9742986E-1,-4.1289586E-1,1.0217239E-1,-4.4855732E-1,-5.8881793E-4,-1.9022156E-2,3.7695903E-1,-6.3897627E-3,-4.8823634E-1,3.1789016E-2,1.9142015E-3,-5.37427E-1,-1.0655868E-2,-2.9054893E-2,-1.5255994E-2],"categories":[],"categories_nodes":[],"categories_segments":[],"categories_sizes":[],"default_left":[0,0,0,0,0,0,0,0,0,0,0,0,0,0,0],"id":46,"left_children":[1,3,5,7,-1,-1,9,-1,11,-1,-1,13,-1,-1,-1],"loss_changes":[3.5410047E0,7.883673E-1,2.4579763E0,5.588579E-1,0E0,0E0,9.388367E-1,0E0,4.4801617E-1,0E0,0E0,1.297512E-1,0E0,0E0,0E0],"parents":[2147483647,0,0,1,1,2,2,3,3,6,6,8,8,11,11],"right_children":[2,4,6,8,-1,-1,10,-1,12,-1,-1,14,-1,-1,-1],"split_conditions":[3.4670455E0,5.89407E0,2.8097527E0,-1.0332629E1,-5.8881793E-4,-1.9022156E-2,6.372703E0,-6.3897627E-3,3.5615224E-1,3.1789016E-2,1.9142015E-3,7.4405944E-1,-1.0655868E-2,-2.9054893E-2,-1.5255994E-2],"split_indices":[9,22,31,23,0,0,31,0,16,0,0,15,0,0,0],"split_type":[0,0,0,0,0,0,0,0,0,0,0,0,0,0,0],"sum_hessian":[7.415628E1,5.7700558E1,1.6455725E1,5.2651974E1,5.048581E0,5.698633E0,1.0757092E1,6.5382457E0,4.611373E1,5.4327583E0,5.3243337E0,3.8002117E1,8.11161E0,3.0362467E1,7.639652E0],"tree_param":{"num_deleted":"0","num_feature":"40","num_nodes":"15","size_leaf_vector":"1"}},{"base_weights":[7.6989904E-2,3.843927E-2,2.3279179E-2,1.6286416E-1,-2.726482E-1,-4.14677E-2,4.8848486E-1,1.5912661E-1,-6.015627E-1,-3.767493E-1,2.8654173E-1,1.6718401E-3,6.4147997E-1,2.8542016E-2,-1.6326843E-2,-3.4366753E-2,-1.5506426E-2,2.0525963E-3,-2.8243858E-2,4.8549938E-1,-1.46147E-2,3.9645545E-2,1.6343756E-2,3.8381536E-2,7.506603E-3],"categories":[],"categories_nodes":[],"categories_segments":[],"categories_sizes":[],"default_left":[0,0,0,0,0,0,0,0,0,0,0,0,0,0,0,0,0,0,0,0,0,0,0,0,0],"id":47,"left_children":[1,-1,3,5,7,9,11,13,15,17,19,-1,21,-1,-1,-1,-1,-1,-1,23,-1,-1,-1,-1,-1],"loss_changes":[3.8099508E0,0E0,4.112082E0,4.585908E0,4.6548696E0,4.789073E0,1.7536044E0,3.0912893E0,1.4667845E-1,1.7726576E0,2.6823554E0,0E0,5.619793E-1,0E0,0E0,0E0,0E0,0E0,0E0,1.382194E0,0E0,0E0,0E0,0E0,0E0],"parents":[2147483647,0,0,2,2,3,3,4,4,5,5,6,6,7,7,8,8,9,9,10,10,12,12,19,19],"right_children":[2,-1,4,6,8,10,12,14,16,18,20,-1,22,-1,-1,-1,-1,-1,-1,24,-1,-1,-1,-1,-1],"split_conditions":[1.2975763E2,3.843927E-2,1.6510206E1,4.679493E1,4.6881995E0,2.380259E1,9.639436E0,4.2255316E0,2.005226E2,-2.9570632E0,4.308986E-1,1.6718401E-3,6.6595564E9,2.8542016E-2,-1.6326843E-2,-3.4366753E-2,-1.5506426E-2,2.0525963E-3,-2.8243858E-2,3.7566807E1,-1.46147E-2,3.9645545E-2,1.6343756E-2,3.8381536E-2,7.506603E-3],"split_indices":[6,0,32,2,21,31,32,8,13,8,16,0,17,0,0,0,0,0,0,2,0,0,0,0,0],"split_type":[0,0,0,0,0,0,0,0,0,0,0,0,0,0,0,0,0,0,0,0,0,0,0,0,0],"sum_hessian":[1.0415034E2,6.4102955E0,9.774004E1,6.694877E1,3.0791271E1,4.1483067E1,2.54657E1,1.3405583E1,1.7385687E1,2.059141E1,2.0891659E1,6.878721E0,1.8586979E1,7.2716646E0,6.1339192E0,1.2117718E1,5.267969E0,6.470878E0,1.4120532E1,1.5796193E1,5.095465E0,1.1306532E1,7.2804475E0,7.717044E0,8.079149E0],"tree_param":{"num_deleted":"0","num_feature":"40","num_nodes":"25","size_leaf_vector":"1"}},{"base_weights":[9.9396646E-2,2.89613E-1,-7.002202E-2,5.0745964E-1,5.472385E-3,-1.8712178E-1,2.1090413E-2,3.057383E-1,3.80968E-2,-1.6755642E-2,2.9372156E-1,-3.6362085E-1,2.0777549E-1,5.186013E-1,-6.3211694E-3,-3.7749973E-3,2.879009E-2,9.15633E-3,-5.2782553E-1,2.7967716E-2,-5.0200718E-3,7.818338E-3,3.794304E-2,-1.3374588E-2,-3.224809E-2],"categories":[],"categories_nodes":[],"categories_segments":[],"categories_sizes":[],"default_left":[0,0,0,0,0,0,0,0,0,0,0,0,0,0,0,0,0,0,0,0,0,0,0,0,0],"id":48,"left_children":[1,3,5,7,9,11,-1,13,-1,-1,15,17,19,21,-1,-1,-1,-1,23,-1,-1,-1,-1,-1,-1],"loss_changes":[3.422885E0,3.0341563E0,3.2813923E0,1.0991483E0,2.3386683E0,3.304112E0,0E0,1.7169335E0,0E0,0E0,1.4551574E0,3.03971E0,1.6948402E0,8.42247E-1,0E0,0E0,0E0,0E0,5.081382E-1,0E0,0E0,0E0,0E0,0E0,0E0],"parents":[2147483647,0,0,1,1,2,2,3,3,4,4,5,5,7,7,10,10,11,11,12,12,13,13,18,18],"right_children":[2,4,6,8,10,12,-1,14,-1,-1,16,18,20,22,-1,-1,-1,-1,24,-1,-1,-1,-1,-1,-1],"split_conditions":[4.679493E1,2.2609146E1,8.821782E0,1.8899283E2,1.1483563E1,4.012445E0,2.1090413E-2,8.835425E0,3.80968E-2,-1.6755642E-2,2.7090189E1,-4.852575E0,7.55411E0,4.063326E0,-6.3211694E-3,-3.7749973E-3,2.879009E-2,9.15633E-3,-1.2477377E-1,2.7967716E-2,-5.0200718E-3,7.818338E-3,3.794304E-2,-1.3374588E-2,-3.224809E-2],"split_indices":[2,31,23,4,20,8,0,20,0,0,0,24,25,32,0,0,0,0,23,0,0,0,0,0,0],"split_type":[0,0,0,0,0,0,0,0,0,0,0,0,0,0,0,0,0,0,0,0,0,0,0,0,0],"sum_hessian":[1.0390367E2,4.8891308E1,5.5012363E1,2.7029943E1,2.1861362E1,4.5097878E1,9.914483E0,1.6525064E1,1.050488E1,9.787404E0,1.2073959E1,3.1397306E1,1.3700573E1,1.1092692E1,5.4323726E0,5.392901E0,6.6810584E0,7.0843906E0,2.4312916E1,6.1705E0,7.530073E0,5.2477713E0,5.8449206E0,8.828653E0,1.5484262E1],"tree_param":{"num_deleted":"0","num_feature":"40","num_nodes":"25","size_leaf_vector":"1"}},{"base_weights":[-3.307731E-1,-4.1981182E-1,-3.703208E-2,-3.298618E-3,-4.7054163E-1,1.3264394E-2,-1.4644416E-2,-2.8700352E-2,-3.3012068E-1,1.3601621E-2,-2.5854021E-2],"categories":[],"categories_nodes":[],"categories_segments":[],"categories_sizes":[],"default_left":[0,0,0,0,0,0,0,0,0,0,0],"id":49,"left_children":[1,3,5,-1,7,-1,-1,-1,9,-1,-1],"loss_changes":[1.8749886E0,9.286356E-1,1.5175E0,0E0,4.3146992E-1,0E0,0E0,0E0,2.814771E0,0E0,0E0],"parents":[2147483647,0,0,1,1,2,2,4,4,8,8],"right_children":[2,4,6,-1,8,-1,-1,-1,10,-1,-1],"split_conditions":[3.4670455E0,-1.1194141E1,1.2714225E1,-3.298618E-3,9.933426E-1,1.3264394E-2,-1.4644416E-2,-2.8700352E-2,2.380371E0,1.3601621E-2,-2.5854021E-2],"split_indices":[9,24,25,0,24,0,0,0,24,0,0],"split_type":[0,0,0,0,0,0,0,0,0,0,0],"sum_hessian":[7.303057E1,5.5452263E1,1.7578306E1,7.488915E0,4.796335E1,7.861474E0,9.716833E0,2.5427717E1,2.2535631E1,5.104699E0,1.7430933E1],"tree_param":{"num_deleted":"0","num_feature":"40","num_nodes":"11","size_leaf_vector":"1"}},{"base_weights":[1.0239731E-1,3.7190527E-2,5.1867954E-2,-2.3023853E-1,1.9482403E-1,2.4446635E-2,-3.8783866E-1,5.331257E-1,1.16781145E-2,1.8799065E-4,-5.639976E-1,4.1369334E-2,2.8037354E-1,-2.8738497E-2,1.2040572E-1,-1.3269252E-2,-3.2470223E-2,-1.26307905E-2,3.6862373E-2,-2.0646414E-2,2.2110799E-1,1.7022755E-2,-1.6950427E-2],"categories":[],"categories_nodes":[],"categories_segments":[],"categories_sizes":[],"default_left":[0,0,0,0,0,0,0,0,0,0,0,0,0,0,0,0,0,0,0,0,0,0,0],"id":50,"left_children":[1,-1,3,5,7,-1,9,11,13,-1,15,-1,17,-1,19,-1,-1,-1,-1,-1,21,-1,-1],"loss_changes":[3.2445912E0,0E0,3.969274E0,3.9175029E0,3.9925256E0,0E0,1.9706049E0,1.3502088E0,2.8074074E0,0E0,2.28508E-1,0E0,3.629278E0,0E0,2.1022084E0,0E0,0E0,0E0,0E0,0E0,2.2950966E0,0E0,0E0],"parents":[2147483647,0,0,2,2,3,3,4,4,6,6,7,7,8,8,10,10,12,12,14,14,20,20],"right_children":[2,-1,4,6,8,-1,10,12,14,-1,16,-1,18,-1,20,-1,-1,-1,-1,-1,22,-1,-1],"split_conditions":[1.2975763E2,3.7190527E-2,1.3073347E2,-1.5902591E-1,1.639811E2,2.4446635E-2,-6.864368E0,2.922269E0,1.5404991E2,1.8799065E-4,6.6646194E0,4.1369334E-2,5.704965E0,-2.8738497E-2,3.2484372E0,-1.3269252E-2,-3.2470223E-2,-1.26307905E-2,3.6862373E-2,-2.0646414E-2,1.2650769E0,1.7022755E-2,-1.6950427E-2],"split_indices":[6,0,14,27,5,0,11,29,14,0,20,0,21,0,30,0,0,0,0,0,19,0,0],"split_type":[0,0,0,0,0,0,0,0,0,0,0,0,0,0,0,0,0,0,0,0,0,0,0],"sum_hessian":[1.0275559E2,6.357308E0,9.639828E1,3.197985E1,6.441843E1,5.256441E0,2.672341E1,2.176248E1,4.265595E1,8.419031E0,1.8304379E1,8.822236E0,1.2940244E1,5.857278E0,3.679867E1,5.2448115E0,1.3059567E1,6.0779285E0,6.8623147E0,5.1944723E0,3.16042E1,2.6523415E1,5.080785E0],"tree_param":{"num_deleted":"0","num_feature":"40","num_nodes":"23","size_leaf_vector":"1"}},{"base_weights":[1.3719231E-1,-1.0399234E-1,2.74689E-1,1.14304416E-1,-4.917565E-1,-1.8987788E-2,3.4827787E-1,4.7718993E-1,-2.6083002E-2,-2.9529506E-2,-1.2301364E-2,4.7322285E-1,-0E0,3.9074842E-2,5.999181E-3,3.0798346E-1,3.7261765E-2,-2.2137076E-2,1.9137675E-2,4.9363863E-1,-3.949512E-3,7.1875856E-4,3.4292873E-2],"categories":[],"categories_nodes":[],"categories_segments":[],"categories_sizes":[],"default_left":[0,0,0,0,0,0,0,0,0,0,0,0,0,0,0,0,0,0,0,0,0,0,0],"id":51,"left_children":[1,3,5,7,9,-1,11,13,-1,-1,-1,15,17,-1,-1,19,-1,-1,-1,21,-1,-1,-1],"loss_changes":[3.5757368E0,3.404742E0,3.4202294E0,6.168902E0,1.21768475E-1,0E0,2.715447E0,1.6604075E0,0E0,0E0,0E0,1.721775E0,3.1083698E0,0E0,0E0,2.2643526E0,0E0,0E0,0E0,1.841351E0,0E0,0E0,0E0],"parents":[2147483647,0,0,1,1,2,2,3,3,4,4,6,6,7,7,11,11,12,12,15,15,19,19],"right_children":[2,4,6,8,10,-1,12,14,-1,-1,-1,16,18,-1,-1,20,-1,-1,-1,22,-1,-1,-1],"split_conditions":[1.5559406E2,8.8266535E0,-1.7438066E-1,1.3305411E2,1.0619636E1,-1.8987788E-2,8.0259814E9,1.4188528E2,-2.6083002E-2,-2.9529506E-2,-1.2301364E-2,1.7931621E2,4.9321713E0,3.9074842E-2,5.999181E-3,6.464874E9,3.7261765E-2,-2.2137076E-2,1.9137675E-2,2.9536097E0,-3.949512E-3,7.1875856E-4,3.4292873E-2],"split_indices":[7,20,27,14,20,0,17,4,0,0,0,7,30,0,0,17,0,0,0,30,0,0,0],"split_type":[0,0,0,0,0,0,0,0,0,0,0,0,0,0,0,0,0,0,0,0,0,0,0],"sum_hessian":[1.05449905E2,3.811256E1,6.733734E1,2.4671028E1,1.3441535E1,6.248494E0,6.1088852E1,1.5967033E1,8.703994E0,8.294908E0,5.146627E0,4.4756332E1,1.6332516E1,7.8293743E0,8.137659E0,2.9397877E1,1.5358457E1,7.535006E0,8.79751E0,1.985499E1,9.542887E0,6.140292E0,1.3714699E1],"tree_param":{"num_deleted":"0","num_feature":"40","num_nodes":"23","size_leaf_vector":"1"}},{"base_weights":[-2.8230774E-1,-4.1526717E-1,-2.9197805E-2,-2.5383347E-1,-2.8510049E-2,2.1795128E-2,-2.878288E-1,-3.9880598E-1,6.1909375E-3,-5.9395004E-4,-2.2784974E-2,-2.7376702E-2,-0E0],"categories":[],"categories_nodes":[],"categories_segments":[],"categories_sizes":[],"default_left":[0,0,0,0,0,0,0,0,0,0,0,0,0],"id":52,"left_children":[1,3,5,7,-1,-1,9,11,-1,-1,-1,-1,-1],"loss_changes":[2.2804747E0,9.0322495E-1,3.14807E0,1.4046037E0,0E0,0E0,7.338412E-1,1.0245223E0,0E0,0E0,0E0,0E0,0E0],"parents":[2147483647,0,0,1,1,2,2,3,3,6,6,7,7],"right_children":[2,4,6,8,-1,-1,10,12,-1,-1,-1,-1,-1],"split_conditions":[6.70707E-1,-4.3225675E0,7.5804037E-1,4.2019455E1,-2.8510049E-2,2.1795128E-2,3.7458978E0,2.1064877E2,6.1909375E-3,-5.9395004E-4,-2.2784974E-2,-2.7376702E-2,-0E0],"split_indices":[15,25,15,1,0,0,30,13,0,0,0,0,0],"split_type":[0,0,0,0,0,0,0,0,0,0,0,0,0],"sum_hessian":[6.8444664E1,4.4193787E1,2.425088E1,2.3251055E1,2.0942734E1,8.283126E0,1.5967753E1,1.6952238E1,6.298817E0,6.669965E0,9.297789E0,1.1941433E1,5.010805E0],"tree_param":{"num_deleted":"0","num_feature":"40","num_nodes":"13","size_leaf_vector":"1"}},{"base_weights":[1.1613498E-1,3.6818366E-2,6.474288E-2,-2.4192123E-2,1.1831598E-1,3.592594E-2,5.287236E-2,2.2324225E-1,-3.5944504E-1,3.4589875E-2,9.724655E-2,5.4701916E-3,-5.469022E-1,-8.298474E-3,2.0489667E-2,-1.6636815E-2,-3.30361E-2],"categories":[],"categories_nodes":[],"categories_segments":[],"categories_sizes":[],"default_left":[0,0,0,0,0,0,0,0,0,0,0,0,0,0,0,0,0],"id":53,"left_children":[1,-1,3,-1,5,-1,7,9,11,-1,13,-1,15,-1,-1,-1,-1],"loss_changes":[3.219151E0,0E0,2.9071002E0,0E0,3.4374695E0,0E0,5.8817496E0,3.3585477E0,2.2494624E0,0E0,4.050857E0,0E0,1.13758564E-1,0E0,0E0,0E0,0E0],"parents":[2147483647,0,0,2,2,4,4,6,6,7,7,8,8,10,10,12,12],"right_children":[2,-1,4,-1,6,-1,8,10,12,-1,14,-1,16,-1,-1,-1,-1],"split_conditions":[1.3188243E2,3.6818366E-2,1.4558672E2,-2.4192123E-2,4.1496587E0,3.592594E-2,1.59667845E1,1.5324252E2,3.21777E0,3.4589875E-2,-1.3899772E0,5.4701916E-3,5.0397897E0,-8.298474E-3,2.0489667E-2,-1.6636815E-2,-3.30361E-2],"split_indices":[7,0,13,0,21,0,32,7,29,0,11,0,24,0,0,0,0],"split_type":[0,0,0,0,0,0,0,0,0,0,0,0,0,0,0,0,0],"sum_hessian":[1.04001785E2,6.7893524E0,9.721243E1,7.768225E0,8.944421E1,7.662443E0,8.178177E1,5.836599E1,2.3415775E1,1.124893E1,4.711706E1,6.6546817E0,1.6761095E1,2.5657896E1,2.1459164E1,7.482951E0,9.278143E0],"tree_param":{"num_deleted":"0","num_feature":"40","num_nodes":"17","size_leaf_vector":"1"}},{"base_weights":[8.669395E-2,-1.626433E-1,2.1497333E-1,2.1941232E-2,-2.8856274E-1,-2.8155515E-1,3.1024626E-1,-4.3721995E-1,3.482957E-3,-3.0352596E-2,4.911405E-3,5.97516E-1,8.976141E-2,-3.027132E-2,-8.57062E-3,3.573854E-2,1.1248895E-2,-6.288231E-2,3.7019875E-2,2.1327889E-2,-3.1553918E-1,-3.0933753E-2,-3.3373476E-3],"categories":[],"categories_nodes":[],"categories_segments":[],"categories_sizes":[],"default_left":[0,0,0,0,0,0,0,0,0,0,0,0,0,0,0,0,0,0,0,0,0,0,0],"id":54,"left_children":[1,3,5,-1,7,9,11,13,-1,-1,-1,15,17,-1,-1,-1,-1,19,-1,-1,21,-1,-1],"loss_changes":[3.3879313E0,2.8275483E0,3.3924372E0,0E0,1.6857269E0,1.5436392E0,3.6280894E0,7.9386854E-1,0E0,0E0,0E0,8.520508E-1,3.577858E0,0E0,0E0,0E0,0E0,3.7151399E0,0E0,0E0,1.3883703E0,0E0,0E0],"parents":[2147483647,0,0,1,1,2,2,4,4,5,5,6,6,7,7,11,11,12,12,17,17,20,20],"right_children":[2,4,6,-1,8,10,12,14,-1,-1,-1,16,18,-1,-1,-1,-1,20,-1,-1,22,-1,-1],"split_conditions":[1.5559406E2,3.1298132E9,-1.607818E1,2.1941232E-2,5.3096557E0,1.1504092E1,6.367667E9,4.298215E0,3.482957E-3,-3.0352596E-2,4.911405E-3,1.143325E0,2.1987444E2,-3.027132E-2,-8.57062E-3,3.573854E-2,1.1248895E-2,1.3623179E0,3.7019875E-2,2.1327889E-2,4.415E0,-3.0933753E-2,-3.3373476E-3],"split_indices":[7,17,25,0,10,20,17,24,0,0,0,19,5,0,0,0,0,11,0,0,29,0,0],"split_type":[0,0,0,0,0,0,0,0,0,0,0,0,0,0,0,0,0,0,0,0,0,0,0],"sum_hessian":[1.0366632E2,3.486046E1,6.880587E1,5.467107E0,2.939335E1,1.0593171E1,5.8212696E1,2.081432E1,8.57903E0,5.5238204E0,5.0693502E0,2.4338501E1,3.3874195E1,1.173461E1,9.07971E0,1.7609049E1,6.729452E0,2.8044434E1,5.829762E0,9.179013E0,1.8865421E1,7.6526036E0,1.1212817E1],"tree_param":{"num_deleted":"0","num_feature":"40","num_nodes":"23","size_leaf_vector":"1"}},{"base_weights":[-3.3073178E-1,-4.535245E-1,4.5013696E-2,-4.9985904E-1,-2.69714E-4,1.8910078E-2,-1.6192975E-2,-2.7498627E-2,-2.875291E-1,-7.9438445E-4,-2.4652977E-2],"categories":[],"categories_nodes":[],"categories_segments":[],"categories_sizes":[],"default_left":[0,0,0,0,0,0,0,0,0,0,0],"id":55,"left_children":[1,3,5,7,-1,-1,-1,-1,9,-1,-1],"loss_changes":[3.1786218E0,1.0101824E0,2.2603896E0,2.4973106E-1,0E0,0E0,0E0,0E0,5.720926E-1,0E0,0E0],"parents":[2147483647,0,0,1,1,2,2,3,3,8,8],"right_children":[2,4,6,8,-1,-1,-1,-1,10,-1,-1],"split_conditions":[3.4670455E0,9.048415E0,1.2714225E-1,1.6743328E1,-2.69714E-4,1.8910078E-2,-1.6192975E-2,-2.7498627E-2,6.061161E-2,-7.9438445E-4,-2.4652977E-2],"split_indices":[9,21,27,32,0,0,0,0,27,0,0],"split_type":[0,0,0,0,0,0,0,0,0,0,0],"sum_hessian":[6.656474E1,5.021405E1,1.6350695E1,4.5201813E1,5.0122366E0,8.720046E0,7.630649E0,3.4902973E1,1.0298842E1,5.109571E0,5.1892715E0],"tree_param":{"num_deleted":"0","num_feature":"40","num_nodes":"11","size_leaf_vector":"1"}},{"base_weights":[1.2381847E-1,3.4822592E-1,-5.5415194E-2,1.4554729E-1,5.6508577E-1,-2.9256815E-1,1.15546286E-1,-3.7819255E-2,3.1678267E-2,7.0693743E-1,9.518911E-3,-6.1086845E-3,-3.0184675E-2,4.0098542E-1,-1.5739644E-1,1.9074421E-2,-2.6813242E-1,4.200561E-2,1.96385E-2,2.4795769E-2,-2.0704737E-2,3.403147E-2,7.1137883E-3,-2.6884118E-2,1.9638903E-2,-2.9180953E-2,2.6877602E-3],"categories":[],"categories_nodes":[],"categories_segments":[],"categories_sizes":[],"default_left":[0,0,0,0,0,0,0,0,0,0,0,0,0,0,0,0,0,0,0,0,0,0,0,0,0,0,0],"id":56,"left_children":[1,3,5,7,9,11,13,15,-1,17,-1,19,-1,21,23,-1,25,-1,-1,-1,-1,-1,-1,-1,-1,-1,-1],"loss_changes":[3.8948903E0,1.7299886E0,2.231982E0,2.2073588E0,8.448334E-1,1.9902896E0,2.558992E0,1.8337152E0,0E0,1.336956E-1,0E0,2.8970869E0,0E0,9.760785E-1,3.7313652E0,0E0,1.3425179E0,0E0,0E0,0E0,0E0,0E0,0E0,0E0,0E0,0E0,0E0],"parents":[2147483647,0,0,1,1,2,2,3,3,4,4,5,5,6,6,7,7,9,9,11,11,13,13,14,14,16,16],"right_children":[2,4,6,8,10,12,14,16,-1,18,-1,20,-1,22,24,-1,26,-1,-1,-1,-1,-1,-1,-1,-1,-1,-1],"split_conditions":[1.5937337E2,4E0,9.826267E-2,7.7074585E0,1.0088992E0,-4.1329007E0,1.5719288E1,4.6591105E0,3.1678267E-2,-4.3461356E-2,9.518911E-3,8.612651E-1,-3.0184675E-2,1.7288922E0,9.04985E-1,1.9074421E-2,5.796168E0,4.200561E-2,1.96385E-2,2.4795769E-2,-2.0704737E-2,3.403147E-2,7.1137883E-3,-2.6884118E-2,1.9638903E-2,-2.9180953E-2,2.6877602E-3],"split_indices":[6,33,11,21,18,9,32,21,0,22,0,19,0,10,15,0,21,0,0,0,0,0,0,0,0,0,0],"split_type":[0,0,0,0,0,0,0,0,0,0,0,0,0,0,0,0,0,0,0,0,0,0,0,0,0,0,0],"sum_hessian":[9.4628586E1,4.1848156E1,5.278043E1,2.2733534E1,1.9114624E1,2.2057083E1,3.0723347E1,1.7046227E1,5.687308E0,1.3028832E1,6.085791E0,1.2181955E1,9.875128E0,1.4967663E1,1.5755684E1,5.6568303E0,1.1389396E1,7.750868E0,5.2779646E0,5.2550387E0,6.9269166E0,6.2233424E0,8.74432E0,9.437121E0,6.3185625E0,5.4981413E0,5.891254E0],"tree_param":{"num_deleted":"0","num_feature":"40","num_nodes":"27","size_leaf_vector":"1"}},{"base_weights":[1.3472009E-1,-1.3586824E-1,2.6877406E-1,2.263142E-2,-2.741136E-1,5.216748E-1,7.539391E-2,-4.5096612E-1,1.6618436E-2,4.334742E-3,6.015278E-1,3.0483594E-2,-5.350349E-2,-3.0674908E-2,-9.132388E-3,3.415078E-2,1.455528E-2,-2.0288065E-1,2.6603157E-2,9.595105E-2,-3.8613313E-1,2.7249623E-2,-1.817642E-2,-3.0792018E-2,-0E0],"categories":[],"categories_nodes":[],"categories_segments":[],"categories_sizes":[],"default_left":[0,0,0,0,0,0,0,0,0,0,0,0,0,0,0,0,0,0,0,0,0,0,0,0,0],"id":57,"left_children":[1,3,5,-1,7,9,11,13,-1,-1,15,-1,17,-1,-1,-1,-1,19,-1,21,23,-1,-1,-1,-1],"loss_changes":[3.8632216E0,2.9736857E0,3.367621E0,0E0,3.3045437E0,9.32251E-1,2.950488E0,8.217454E-1,0E0,0E0,3.426342E-1,0E0,3.0710917E0,0E0,0E0,0E0,0E0,1.6076418E0,0E0,2.5465648E0,1.5391073E0,0E0,0E0,0E0,0E0],"parents":[2147483647,0,0,1,1,2,2,4,4,5,5,6,6,7,7,10,10,12,12,17,17,19,19,20,20],"right_children":[2,4,6,-1,8,10,12,14,-1,-1,16,-1,18,-1,-1,-1,-1,20,-1,22,24,-1,-1,-1,-1],"split_conditions":[1.5559406E2,3.295972E9,6.367667E9,2.263142E-2,4.5337324E0,-7.7990146E0,3.6340272E0,4.298215E0,1.6618436E-2,4.334742E-3,1.176589E0,3.0483594E-2,2.0955165E2,-3.0674908E-2,-9.132388E-3,3.415078E-2,1.455528E-2,-4.366359E0,2.6603157E-2,3.4910053E-1,5.8213993E1,2.7249623E-2,-1.817642E-2,-3.0792018E-2,-0E0],"split_indices":[7,17,17,0,9,23,30,24,0,0,18,0,7,0,0,0,0,11,0,16,0,0,0,0,0],"split_type":[0,0,0,0,0,0,0,0,0,0,0,0,0,0,0,0,0,0,0,0,0,0,0,0,0],"sum_hessian":[1.0412963E2,3.42455E1,6.988413E1,5.944198E0,2.83013E1,2.9322134E1,4.0561993E1,2.2237942E1,6.063359E0,5.0657344E0,2.4256401E1,7.309622E0,3.3252373E1,1.2815745E1,9.422196E0,1.8007023E1,6.249378E0,2.71506E1,6.1017714E0,1.0294294E1,1.6856306E1,5.2222285E0,5.072066E0,1.0078069E1,6.778239E0],"tree_param":{"num_deleted":"0","num_feature":"40","num_nodes":"25","size_leaf_vector":"1"}},{"base_weights":[-2.8717932E-1,-3.8767147E-1,2.519661E-2,-1.3171022E-1,-4.703827E-1,-2.1006567E-2,2.134184E-2,-2.4550963E-2,6.1786952E-3,-5.1034456E-1,-8.407185E-3,-1.295483E-2,-2.8379083E-2],"categories":[],"categories_nodes":[],"categories_segments":[],"categories_sizes":[],"default_left":[0,0,0,0,0,0,0,0,0,0,0,0,0],"id":58,"left_children":[1,3,5,7,9,-1,-1,-1,-1,11,-1,-1,-1],"loss_changes":[2.1038704E0,9.343052E-1,3.158549E0,1.3697822E0,2.9359818E-1,0E0,0E0,0E0,0E0,2.2934437E-1,0E0,0E0,0E0],"parents":[2147483647,0,0,1,1,2,2,3,3,4,4,9,9],"right_children":[2,4,6,8,10,-1,-1,-1,-1,12,-1,-1,-1],"split_conditions":[3.229055E0,-6.801584E0,4.8637533E0,-8.287568E0,1.5831542E0,-2.1006567E-2,2.134184E-2,-2.4550963E-2,6.1786952E-3,2.9821374E0,-8.407185E-3,-1.295483E-2,-2.8379083E-2],"split_indices":[9,10,31,11,12,0,0,0,0,30,0,0,0],"split_type":[0,0,0,0,0,0,0,0,0,0,0,0,0],"sum_hessian":[6.455485E1,4.890202E1,1.5652825E1,1.2871334E1,3.6030685E1,7.2828155E0,8.370009E0,5.125524E0,7.7458096E0,3.0922691E1,5.107996E0,7.0870767E0,2.3835613E1],"tree_param":{"num_deleted":"0","num_feature":"40","num_nodes":"13","size_leaf_vector":"1"}},{"base_weights":[7.786624E-2,1.7045592E-1,-3.617624E-1,-5.046146E-3,3.7291002E-1,-4.9240977E-1,-1.3382885E-3,4.3661925E-1,-1.9539481E-1,5.128034E-1,-1.2342539E-2,-3.0342935E-2,-1.3078453E-2,3.7661776E-2,-3.6632568E-3,1.0828921E-2,-3.7440613E-1,2.2498381E-1,6.616456E-1,-4.7447386E-1,-0E0,-6.191226E-3,2.9784417E-2,3.887765E-2,2.165432E-2,-9.000703E-3,-2.8918851E-2],"categories":[],"categories_nodes":[],"categories_segments":[],"categories_sizes":[],"default_left":[0,0,0,0,0,0,0,0,0,0,0,0,0,0,0,0,0,0,0,0,0,0,0,0,0,0,0],"id":59,"left_children":[1,3,5,7,9,11,-1,13,15,17,-1,-1,-1,-1,-1,-1,19,21,23,25,-1,-1,-1,-1,-1,-1,-1],"loss_changes":[4.379777E0,3.1967995E0,7.5199175E-1,4.1245656E0,3.7556329E0,1.020751E-1,0E0,2.4975708E0,2.6504073E0,1.2342558E0,0E0,0E0,0E0,0E0,0E0,0E0,9.6903586E-1,1.8607153E0,1.22374535E-1,4.2177963E-1,0E0,0E0,0E0,0E0,0E0,0E0,0E0],"parents":[2147483647,0,0,1,1,2,2,3,3,4,4,5,5,7,7,8,8,9,9,16,16,17,17,18,18,19,19],"right_children":[2,4,6,8,10,12,-1,14,16,18,-1,-1,-1,-1,-1,-1,20,22,24,26,-1,-1,-1,-1,-1,-1,-1],"split_conditions":[3.6122544E0,4.679493E1,3.8645525E0,-1.4990224E1,9.7101555E0,1.1269258E0,-1.3382885E-3,1.9081955E2,1.5324252E2,-1.2327647E0,-1.2342539E-2,-3.0342935E-2,-1.3078453E-2,3.7661776E-2,-3.6632568E-3,1.0828921E-2,1.9779417E2,5.9123354E0,4.062491E0,6.20442E-1,-0E0,-6.191226E-3,2.9784417E-2,3.887765E-2,2.165432E-2,-9.000703E-3,-2.8918851E-2],"split_indices":[8,2,30,25,23,18,0,13,7,23,0,0,0,0,0,0,5,21,30,18,0,0,0,0,0,0,0],"split_type":[0,0,0,0,0,0,0,0,0,0,0,0,0,0,0,0,0,0,0,0,0,0,0,0,0,0,0],"sum_hessian":[1.0555288E2,8.788356E1,1.7669317E1,4.733299E1,4.0550575E1,1.2158964E1,5.5103536E0,1.3707766E1,3.3625225E1,3.335546E1,7.1951146E0,6.7501764E0,5.4087873E0,8.283145E0,5.4246206E0,9.952423E0,2.36728E1,1.2454782E1,2.0900677E1,1.8667559E1,5.0052423E0,6.621041E0,5.833741E0,1.1983885E1,8.916793E0,5.832708E0,1.283485E1],"tree_param":{"num_deleted":"0","num_feature":"40","num_nodes":"27","size_leaf_vector":"1"}},{"base_weights":[7.0270985E-2,-2.0762289E-1,2.0535664E-1,6.9245426E-3,-2.6772037E-2,3.2353204E-1,-1.0992424E-1,3.5457852E-1,-2.4975237E-2,2.2914064E-1,3.5906684E-2,-3.0027607E-1,1.5959488E-2,-4.0461426E-3,3.487112E-2,3.366604E-1,-1.2381734E-2,1.7881453E-3,-3.1134626E-2,-1.3007708E-2,4.5706728E-1,3.7177417E-3,2.7195532E-2],"categories":[],"categories_nodes":[],"categories_segments":[],"categories_sizes":[],"default_left":[0,0,0,0,0,0,0,0,0,0,0,0,0,0,0,0,0,0,0,0,0,0,0],"id":60,"left_children":[1,3,5,7,-1,9,11,13,-1,15,-1,17,-1,-1,-1,19,-1,-1,-1,-1,21,-1,-1],"loss_changes":[3.9369025E0,2.46121E0,2.6856632E0,3.9423096E0,0E0,1.6702228E0,1.707287E0,2.1235077E0,0E0,2.3209908E0,0E0,1.6366483E0,0E0,0E0,0E0,2.7306814E0,0E0,0E0,0E0,0E0,9.1201305E-1,0E0,0E0],"parents":[2147483647,0,0,1,1,2,2,3,3,5,5,6,6,7,7,9,9,11,11,15,15,20,20],"right_children":[2,4,6,8,-1,10,12,14,-1,16,-1,18,-1,-1,-1,20,-1,-1,-1,-1,22,-1,-1],"split_conditions":[1.5559406E2,8.8266535E0,8.0259814E9,1.3305411E2,-2.6772037E-2,1.9063959E2,2.1673923E0,9.031504E-1,-2.4975237E-2,1.7841489E2,3.5906684E-2,4.6630505E1,1.5959488E-2,-4.0461426E-3,3.487112E-2,2.758373E0,-1.2381734E-2,1.7881453E-3,-3.1134626E-2,-1.3007708E-2,8.334089E-1,3.7177417E-3,2.7195532E-2],"split_indices":[7,20,17,14,0,6,22,18,0,6,0,2,0,0,0,30,0,0,0,0,19,0,0],"split_type":[0,0,0,0,0,0,0,0,0,0,0,0,0,0,0,0,0,0,0,0,0,0,0],"sum_hessian":[1.0274393E2,3.3189766E1,6.955416E1,2.0467922E1,1.2721842E1,5.080292E1,1.875124E1,1.2431347E1,8.036575E0,4.2476383E1,8.326535E0,1.3358699E1,5.392541E0,5.683766E0,6.7475815E0,3.507099E1,7.4053936E0,6.824635E0,6.534064E0,5.553434E0,2.9517557E1,6.0154753E0,2.3502083E1],"tree_param":{"num_deleted":"0","num_feature":"40","num_nodes":"23","size_leaf_vector":"1"}},{"base_weights":[-2.916967E-1,-4.120262E-1,5.66968E-2,-5.0948863E-3,-4.5014444E-1,-1.4762293E-2,3.0597854E-1,-2.6813895E-2,-2.4494669E-1,3.326535E-2,-4.109063E-3,6.029716E-3,-2.2042627E-2],"categories":[],"categories_nodes":[],"categories_segments":[],"categories_sizes":[],"default_left":[0,0,0,0,0,0,0,0,0,0,0,0,0],"id":61,"left_children":[1,3,5,-1,7,-1,9,-1,11,-1,-1,-1,-1],"loss_changes":[2.9556742E0,5.100374E-1,1.7061098E0,0E0,5.9393215E-1,0E0,1.7073596E0,0E0,1.2040107E0,0E0,0E0,0E0,0E0],"parents":[2147483647,0,0,1,1,2,2,4,4,6,6,8,8],"right_children":[2,4,6,-1,8,-1,10,-1,12,-1,-1,-1,-1],"split_conditions":[3.4670455E0,-7.6466722E0,4.564157E0,-5.0948863E-3,4.4743928E-1,-1.4762293E-2,4.2802887E0,-2.6813895E-2,2.0772827E0,3.326535E-2,-4.109063E-3,6.029716E-3,-2.2042627E-2],"split_indices":[9,9,21,0,26,0,8,0,9,0,0,0,0],"split_type":[0,0,0,0,0,0,0,0,0,0,0,0,0],"sum_hessian":[6.809927E1,5.069457E1,1.7404703E1,6.238114E0,4.445645E1,6.97362E0,1.0431083E1,2.9833002E1,1.462345E1,5.179721E0,5.251362E0,5.058593E0,9.5648575E0],"tree_param":{"num_deleted":"0","num_feature":"40","num_nodes":"13","size_leaf_vector":"1"}},{"base_weights":[8.834469E-2,1.7755327E-1,-3.744565E-1,2.6165718E-1,-2.1884716E-1,-2.9699681E-2,